~o
<STREAMINFO> 1 39
<VECSIZE> 39<NULLD><MFCC_D_A_0><DIAGC>
~s "silst"
<MEAN> 39
 -9.382591e+00 2.528536e-02 5.185915e-01 -2.947472e+00 -2.556183e+00 -4.085462e+00 -3.704185e+00 -3.362976e+00 -5.627850e+00 -1.530427e+00 -4.213749e+00 -1.576410e+00 4.924962e+01 4.119721e-02 3.640779e-02 1.721037e-02 -5.137120e-02 -5.388375e-02 -2.108267e-02 -9.766351e-03 -2.955314e-02 -6.848755e-03 1.024745e-02 1.631070e-02 8.825906e-03 6.287378e-02 5.262130e-02 -1.721141e-02 2.234946e-02 -4.973599e-02 -5.108945e-02 -5.012155e-02 -4.493818e-02 -2.644636e-03 -3.173891e-02 1.089996e-02 -5.028522e-03 -2.625394e-02 1.479546e-01
<VARIANCE> 39
 3.296251e+01 3.420945e+01 4.824842e+01 4.843587e+01 3.201990e+01 3.533454e+01 3.506822e+01 3.764090e+01 3.776741e+01 2.730396e+01 3.503556e+01 2.221368e+01 6.189223e+01 1.956219e+00 1.750189e+00 1.874627e+00 2.226743e+00 2.095011e+00 2.166465e+00 2.095401e+00 2.356259e+00 2.285163e+00 1.892348e+00 1.926696e+00 1.397809e+00 2.766013e+00 2.981886e-01 2.951274e-01 3.156910e-01 4.028097e-01 3.898765e-01 3.822660e-01 3.981371e-01 4.483870e-01 4.203837e-01 3.707350e-01 3.568113e-01 2.698032e-01 3.631550e-01
<GCONST> 1.143091e+02
~h "A"
<BEGINHMM>
<NUMSTATES> 5
<STATE> 2
<MEAN> 39
 -2.863658e+00 -6.531834e+00 -4.068380e+00 -8.011416e+00 -7.374344e+00 -8.882792e+00 -1.075154e+01 -1.091690e+00 -3.105442e+00 3.925562e-01 -5.127058e+00 -6.979095e+00 6.691512e+01 2.016904e-01 -1.228407e-01 -3.213261e-01 -1.377443e-02 2.236024e-01 -3.497034e-02 -1.010904e-01 2.411259e-01 2.575917e-01 1.954698e-01 -3.869821e-01 -1.815134e-01 -1.478387e-02 -1.425935e-01 5.568537e-01 2.656344e-01 3.875149e-01 2.581158e-01 1.923471e-01 2.878732e-01 -3.974996e-01 -3.012306e-01 -1.396714e-01 2.438745e-02 1.565824e-01 -5.210259e-01
<VARIANCE> 39
 1.021122e+01 2.158105e+01 4.030173e+01 4.633755e+01 3.468679e+01 6.395831e+01 4.124537e+01 4.672328e+01 8.928541e+01 4.263964e+01 7.190224e+01 4.521459e+01 2.822377e+01 6.657900e-01 1.368948e+00 1.719388e+00 1.694972e+00 1.777059e+00 2.121446e+00 1.913082e+00 2.672321e+00 2.246233e+00 1.864655e+00 1.651608e+00 1.789909e+00 9.281192e-01 2.467584e-01 2.092097e-01 2.103942e-01 3.201417e-01 3.212225e-01 3.784402e-01 4.277825e-01 5.045097e-01 4.238089e-01 3.517983e-01 3.115024e-01 3.508390e-01 1.692912e-01
<GCONST> 1.107268e+02
<STATE> 3
<MEAN> 39
 -2.470870e+00 -2.545099e+00 -2.841082e+00 -4.379632e+00 -4.865130e+00 -7.949041e+00 -8.274129e+00 -2.584258e+00 -4.632854e+00 3.404190e-01 -5.485787e+00 -5.497207e+00 6.066072e+01 -4.082726e-01 1.179158e+00 3.949338e-01 8.023733e-01 7.461410e-01 6.018321e-01 7.942338e-01 -4.222754e-01 -1.764994e-01 -1.789613e-01 7.447063e-02 4.681901e-01 -1.911846e+00 -3.553322e-01 1.038299e-01 5.670740e-02 -2.139273e-02 -2.910620e-03 7.799345e-02 1.796521e-01 2.795422e-02 5.415477e-02 -6.231454e-02 1.380759e-01 8.830497e-02 -2.058564e-01
<VARIANCE> 39
 1.137022e+01 2.526855e+01 4.189531e+01 4.285095e+01 3.643950e+01 5.924447e+01 5.374036e+01 4.743158e+01 8.282719e+01 5.212611e+01 5.774334e+01 3.320113e+01 5.490802e+01 1.326074e+00 1.854645e+00 1.891016e+00 2.188748e+00 2.242880e+00 2.261750e+00 2.460537e+00 3.795856e+00 3.001115e+00 2.414985e+00 2.197749e+00 1.775124e+00 1.593643e+00 2.735763e-01 4.355708e-01 3.603314e-01 4.271017e-01 4.693543e-01 5.175951e-01 5.660962e-01 6.263956e-01 5.495484e-01 5.165020e-01 4.343969e-01 3.508952e-01 2.929403e-01
<GCONST> 1.194540e+02
<STATE> 4
<MEAN> 39
 -9.532726e+00 -1.764327e+00 -2.459158e+00 -9.187300e-01 -1.533439e+00 -3.565345e+00 -2.779323e+00 -7.158977e-01 -1.705424e+00 1.219032e-01 -2.108016e+00 -9.846025e-01 4.896812e+01 -3.191931e-01 2.497448e-01 7.818504e-02 1.344105e-01 1.264601e-01 1.428821e-01 2.077264e-01 -1.057656e-01 -4.712516e-02 -6.489497e-02 9.729674e-02 1.434382e-01 -4.547390e-01 -2.696067e-02 2.974103e-03 9.231525e-03 -1.671323e-02 -2.202236e-02 -1.105842e-02 2.145787e-03 6.335584e-03 -1.080742e-02 -8.193260e-03 -1.812441e-03 -1.024445e-02 8.247407e-02
<VARIANCE> 39
 1.915447e+01 2.015198e+01 1.625699e+01 2.138763e+01 2.275844e+01 3.613839e+01 3.105344e+01 2.553980e+01 3.300237e+01 1.945383e+01 2.260073e+01 1.894643e+01 5.700150e+01 8.767438e-01 1.284286e+00 8.931742e-01 1.137606e+00 1.245233e+00 1.298959e+00 1.506627e+00 1.626325e+00 1.536894e+00 1.254631e+00 1.109470e+00 1.003174e+00 9.436672e-01 1.268133e-01 1.360077e-01 1.409676e-01 1.632647e-01 2.076071e-01 2.307561e-01 2.482468e-01 2.789495e-01 2.494814e-01 2.295484e-01 2.114177e-01 1.808407e-01 9.359877e-02
<GCONST> 9.362423e+01
<TRANSP> 5
 0.000000e+00 1.000000e+00 0.000000e+00 0.000000e+00 0.000000e+00
 0.000000e+00 6.733118e-01 3.266882e-01 0.000000e+00 0.000000e+00
 0.000000e+00 0.000000e+00 5.412065e-01 4.587935e-01 0.000000e+00
 0.000000e+00 0.000000e+00 0.000000e+00 8.368472e-01 1.631528e-01
 0.000000e+00 0.000000e+00 0.000000e+00 0.000000e+00 0.000000e+00
<ENDHMM>
~h "E"
<BEGINHMM>
<NUMSTATES> 5
<STATE> 2
<MEAN> 39
 -1.229456e+00 -4.503829e+00 1.591868e+00 8.215156e-02 -8.424618e+00 -1.089929e+01 -1.301191e+01 -1.132459e+00 -2.393718e+00 8.333098e-01 -1.894030e+00 -2.160106e+00 6.462599e+01 7.739049e-01 -4.494326e-01 -2.175814e-01 -7.629332e-01 -9.944693e-01 -2.766185e-01 -1.087698e+00 -3.095548e-01 3.074145e-01 4.375380e-01 7.469698e-01 2.298028e-01 6.782300e-01 -4.532567e-01 4.418357e-01 -4.602429e-01 2.995889e-02 5.921184e-01 7.841489e-01 6.820627e-01 -2.127575e-02 -2.834680e-02 6.280149e-02 -1.822000e-03 -3.378408e-02 -6.285721e-01
<VARIANCE> 39
 2.957240e+00 3.064279e+01 1.571756e+01 4.823013e+01 1.769871e+01 2.286820e+01 1.401402e+01 3.030350e+01 4.394682e+01 2.038337e+01 3.831731e+01 1.033399e+01 1.632633e+01 9.326248e-01 1.307187e+00 1.193792e+00 8.009969e-01 2.191811e+00 2.444231e+00 1.975123e+00 1.568745e+00 1.523828e+00 1.948484e+00 1.845864e+00 6.573566e-01 1.703161e+00 3.058731e-01 1.700015e-01 2.286796e-01 4.480832e-01 2.342398e-01 2.321335e-01 2.643669e-01 2.357146e-01 4.067298e-01 3.105006e-01 2.270201e-01 1.057016e-01 3.531894e-01
<GCONST> 9.745599e+01
<STATE> 3
<MEAN> 39
 -9.260027e+00 -4.941734e+00 -3.102960e+00 1.567426e+00 -3.438139e+00 -4.374589e+00 -1.724062e+00 1.404645e+00 1.809252e+00 4.046445e+00 1.379516e+00 1.871563e+00 6.080928e+01 -3.619814e-01 9.099548e-02 -3.267438e-02 -9.297948e-02 2.170642e-01 3.579126e-01 5.573741e-01 7.089440e-02 -3.951009e-02 3.324991e-03 -1.165084e-01 1.219115e-01 -2.554769e-01 -2.341759e-02 1.024009e-01 6.912551e-02 9.587607e-02 1.369016e-01 1.401663e-01 3.159770e-02 1.701379e-02 -3.719123e-02 -4.566732e-02 -6.564638e-02 -4.468666e-02 -1.797291e-01
<VARIANCE> 39
 5.198182e+01 2.537425e+01 1.146223e+01 2.271689e+01 2.724996e+01 4.207476e+01 7.042701e+01 2.732024e+01 4.868612e+01 1.492481e+01 3.067138e+01 2.358244e+01 2.240106e+01 6.875245e-01 1.551157e+00 8.070731e-01 7.172602e-01 1.274842e+00 2.218644e+00 2.110495e+00 1.696204e+00 1.905363e+00 1.130448e+00 1.128420e+00 9.394017e-01 1.105584e+00 9.391414e-02 2.491685e-01 9.843410e-02 2.057891e-01 2.886181e-01 4.353024e-01 3.396591e-01 3.481139e-01 4.798140e-01 2.456121e-01 2.905570e-01 1.601638e-01 2.801391e-01
<GCONST> 9.972874e+01
<STATE> 4
<MEAN> 39
 -1.226418e+00 -2.374435e+00 -2.646581e+00 -4.363242e+00 -5.219970e+00 -8.277831e+00 -1.126688e+01 -3.754303e+00 -6.458096e+00 6.363241e+00 -3.578207e+00 -3.065544e+00 6.288092e+01 2.260853e-01 1.210569e+00 -3.387006e-01 -1.892980e-01 9.571788e-01 1.196747e+00 5.126951e-01 -4.386501e-01 -1.045504e+00 5.040618e-01 1.085187e-01 1.560201e-01 -1.102114e+00 -1.467260e-01 1.961619e-01 2.207067e-01 1.788288e-01 2.269880e-01 1.907434e-01 3.078647e-01 1.612321e-01 5.934890e-03 -2.504677e-01 4.718590e-02 1.033420e-01 -5.094961e-01
<VARIANCE> 39
 1.618335e+01 1.849305e+01 2.564058e+01 4.114639e+01 3.175535e+01 5.317489e+01 5.767103e+01 4.815406e+01 6.531380e+01 5.451813e+01 5.665760e+01 2.969308e+01 2.038655e+01 6.880718e-01 4.434671e-01 1.815643e+00 1.617709e+00 1.619474e+00 7.941975e-01 1.552446e+00 1.073543e+00 2.808986e+00 2.527867e+00 9.523861e-01 5.009345e-01 9.068983e-01 8.948195e-02 1.628527e-01 1.003634e-01 2.151430e-01 4.503505e-01 4.146802e-01 3.298080e-01 2.792131e-01 6.466420e-01 3.326640e-01 2.615829e-01 1.711659e-01 1.376401e-01
<GCONST> 1.013437e+02
<TRANSP> 5
 0.000000e+00 1.000000e+00 0.000000e+00 0.000000e+00 0.000000e+00
 0.000000e+00 5.648778e-01 4.351222e-01 0.000000e+00 0.000000e+00
 0.000000e+00 0.000000e+00 7.437413e-01 2.562587e-01 0.000000e+00
 0.000000e+00 0.000000e+00 0.000000e+00 3.329875e-01 6.670126e-01
 0.000000e+00 0.000000e+00 0.000000e+00 0.000000e+00 0.000000e+00
<ENDHMM>
~h "I"
<BEGINHMM>
<NUMSTATES> 5
<STATE> 2
<MEAN> 39
 -8.026656e+00 4.437461e-01 8.503218e+00 2.809668e-02 -1.022007e+01 -1.159514e+01 -8.928600e+00 -4.256469e+00 -8.999712e+00 -4.306685e+00 -2.836166e+00 -2.695221e+00 6.395784e+01 1.831486e+00 -5.030854e-01 1.087358e-01 -5.290395e-02 -1.043293e+00 -9.016159e-01 -8.081162e-01 -1.748573e-01 -4.463633e-01 -1.899349e-01 2.506469e-02 -2.876651e-02 3.157491e-01 -3.485242e-01 2.528592e-01 -5.627476e-01 -1.260091e-01 5.934929e-01 5.566208e-01 2.875643e-01 4.004045e-02 3.322219e-01 3.089149e-01 -2.469528e-02 -7.304680e-02 -3.528591e-01
<VARIANCE> 39
 3.025457e+01 2.510045e+01 3.421898e+01 5.543341e+01 3.888982e+01 3.321787e+01 3.886738e+01 4.777396e+01 5.287176e+01 2.541257e+01 3.853173e+01 3.043491e+01 2.826628e+01 4.833293e+00 2.665401e+00 3.726578e+00 2.382630e+00 3.171373e+00 3.458958e+00 3.652248e+00 3.866418e+00 3.456742e+00 2.511338e+00 2.493463e+00 2.182227e+00 1.344070e+00 5.918885e-01 4.031943e-01 3.544769e-01 4.461038e-01 5.072914e-01 5.192087e-01 5.829396e-01 6.650837e-01 4.973082e-01 4.836537e-01 4.072821e-01 3.195434e-01 2.139377e-01
<GCONST> 1.215284e+02
<STATE> 3
<MEAN> 39
 -6.225791e+00 7.865658e-01 7.357068e+00 -2.913286e+00 -1.063832e+01 -1.198236e+01 -9.264135e+00 -5.544736e+00 -1.096667e+01 -3.727484e+00 -4.155791e+00 -3.922616e+00 6.095264e+01 2.110936e-01 6.192884e-01 -8.934452e-01 2.923062e-01 8.548622e-01 5.938303e-01 4.415485e-01 -3.070784e-02 4.341320e-01 3.893479e-01 -2.296635e-02 -1.961688e-02 -1.148425e+00 -3.781203e-01 1.102290e-01 -2.819262e-01 -1.505129e-02 3.911962e-01 3.720751e-01 2.281075e-01 6.504372e-02 2.377727e-01 1.295584e-01 6.869784e-02 5.456168e-03 -3.113433e-01
<VARIANCE> 39
 2.080115e+01 2.890838e+01 3.790203e+01 6.332351e+01 3.831500e+01 3.509750e+01 4.752988e+01 5.714270e+01 6.747715e+01 2.813067e+01 5.119503e+01 4.542674e+01 4.040409e+01 1.968646e+00 2.077899e+00 2.150275e+00 2.197392e+00 2.629793e+00 2.188889e+00 2.737437e+00 2.901145e+00 2.597871e+00 2.304335e+00 2.115957e+00 1.889749e+00 1.862648e+00 3.887389e-01 4.296386e-01 3.543139e-01 4.656554e-01 5.205221e-01 4.775907e-01 5.455036e-01 6.059319e-01 5.859055e-01 4.437941e-01 4.538907e-01 3.791997e-01 2.332111e-01
<GCONST> 1.198983e+02
<STATE> 4
<MEAN> 39
 -1.021423e+01 -4.205023e-02 1.885875e+00 -9.690691e-01 -3.178481e+00 -4.655039e+00 -3.245596e+00 -2.683691e+00 -5.121132e+00 -1.476582e+00 -1.731063e+00 -1.291714e+00 4.932035e+01 -1.435770e-01 2.250888e-02 -4.126420e-01 -2.413788e-02 3.357808e-01 3.529351e-01 1.653650e-01 5.829656e-02 2.253979e-01 1.536599e-01 3.847016e-02 1.320380e-02 -4.268184e-01 -7.119531e-02 -2.455963e-02 2.803936e-02 -3.684123e-02 -2.262082e-02 2.073941e-03 -7.467912e-03 -9.996152e-05 -2.798937e-02 -8.692706e-03 -5.048057e-03 6.720909e-04 6.814811e-02
<VARIANCE> 39
 2.128876e+01 2.558346e+01 2.592390e+01 2.574903e+01 2.237825e+01 3.187518e+01 3.177992e+01 2.649877e+01 3.698008e+01 1.811278e+01 1.946571e+01 1.846077e+01 6.456193e+01 8.459083e-01 1.108588e+00 1.213027e+00 1.085773e+00 1.361458e+00 1.421041e+00 1.416090e+00 1.683636e+00 1.525145e+00 1.436362e+00 1.246529e+00 9.992957e-01 1.069147e+00 1.524196e-01 1.678932e-01 1.703559e-01 1.852093e-01 2.251039e-01 2.506981e-01 3.005987e-01 3.050769e-01 2.761959e-01 2.669235e-01 2.263805e-01 1.735239e-01 1.199867e-01
<GCONST> 9.680600e+01
<TRANSP> 5
 0.000000e+00 1.000000e+00 0.000000e+00 0.000000e+00 0.000000e+00
 0.000000e+00 3.988868e-01 6.011133e-01 0.000000e+00 0.000000e+00
 0.000000e+00 0.000000e+00 5.372806e-01 4.627194e-01 0.000000e+00
 0.000000e+00 0.000000e+00 0.000000e+00 8.187333e-01 1.812666e-01
 0.000000e+00 0.000000e+00 0.000000e+00 0.000000e+00 0.000000e+00
<ENDHMM>
~h "N"
<BEGINHMM>
<NUMSTATES> 5
<STATE> 2
<MEAN> 39
 -7.677938e+00 -5.123887e-01 8.822346e-02 -3.764959e+00 -4.762924e+00 -6.013579e+00 -6.358849e+00 -3.196419e+00 -5.980642e+00 -7.715671e-01 -3.611470e+00 -3.701714e+00 5.930731e+01 8.607160e-04 1.613435e-03 5.681336e-05 -4.694801e-04 5.945799e-04 -6.029105e-04 -1.053153e-03 -4.133929e-04 -2.338144e-05 -4.064880e-04 9.573776e-05 -1.241970e-03 -7.233476e-04 -4.639840e-05 -4.340882e-04 -9.680986e-05 -3.424303e-05 -2.133664e-05 -1.768155e-04 -8.426257e-05 2.797339e-04 9.490846e-05 -3.324872e-05 1.506714e-04 5.652603e-07 1.171216e-04
<VARIANCE> 39
 6.126224e+01 4.237971e+01 5.525637e+01 5.575787e+01 4.853209e+01 5.270118e+01 5.106541e+01 5.270679e+01 6.698158e+01 3.513103e+01 5.187289e+01 3.792531e+01 8.262923e+01 2.880300e+00 2.051258e+00 1.982248e+00 2.374568e+00 2.527443e+00 2.361146e+00 2.593211e+00 2.981137e+00 2.602107e+00 1.996957e+00 1.953159e+00 1.687473e+00 2.406121e+00 4.181693e-01 3.321902e-01 3.106781e-01 3.999372e-01 4.400861e-01 4.085421e-01 4.615077e-01 5.381330e-01 4.503557e-01 3.716930e-01 3.497492e-01 2.950737e-01 3.486988e-01
<GCONST> 1.216744e+02
<STATE> 3
<MEAN> 39
 -7.677938e+00 -5.123887e-01 8.822346e-02 -3.764959e+00 -4.762924e+00 -6.013579e+00 -6.358849e+00 -3.196419e+00 -5.980642e+00 -7.715671e-01 -3.611470e+00 -3.701714e+00 5.930731e+01 8.607160e-04 1.613435e-03 5.681336e-05 -4.694801e-04 5.945799e-04 -6.029105e-04 -1.053153e-03 -4.133929e-04 -2.338144e-05 -4.064880e-04 9.573776e-05 -1.241970e-03 -7.233476e-04 -4.639840e-05 -4.340882e-04 -9.680986e-05 -3.424303e-05 -2.133664e-05 -1.768155e-04 -8.426257e-05 2.797339e-04 9.490846e-05 -3.324872e-05 1.506714e-04 5.652603e-07 1.171216e-04
<VARIANCE> 39
 6.126224e+01 4.237971e+01 5.525637e+01 5.575787e+01 4.853209e+01 5.270118e+01 5.106541e+01 5.270679e+01 6.698158e+01 3.513103e+01 5.187289e+01 3.792531e+01 8.262923e+01 2.880300e+00 2.051258e+00 1.982248e+00 2.374568e+00 2.527443e+00 2.361146e+00 2.593211e+00 2.981137e+00 2.602107e+00 1.996957e+00 1.953159e+00 1.687473e+00 2.406121e+00 4.181693e-01 3.321902e-01 3.106781e-01 3.999372e-01 4.400861e-01 4.085421e-01 4.615077e-01 5.381330e-01 4.503557e-01 3.716930e-01 3.497492e-01 2.950737e-01 3.486988e-01
<GCONST> 1.216744e+02
<STATE> 4
<MEAN> 39
 -7.677938e+00 -5.123887e-01 8.822346e-02 -3.764959e+00 -4.762924e+00 -6.013579e+00 -6.358849e+00 -3.196419e+00 -5.980642e+00 -7.715671e-01 -3.611470e+00 -3.701714e+00 5.930731e+01 8.607160e-04 1.613435e-03 5.681336e-05 -4.694801e-04 5.945799e-04 -6.029105e-04 -1.053153e-03 -4.133929e-04 -2.338144e-05 -4.064880e-04 9.573776e-05 -1.241970e-03 -7.233476e-04 -4.639840e-05 -4.340882e-04 -9.680986e-05 -3.424303e-05 -2.133664e-05 -1.768155e-04 -8.426257e-05 2.797339e-04 9.490846e-05 -3.324872e-05 1.506714e-04 5.652603e-07 1.171216e-04
<VARIANCE> 39
 6.126224e+01 4.237971e+01 5.525637e+01 5.575787e+01 4.853209e+01 5.270118e+01 5.106541e+01 5.270679e+01 6.698158e+01 3.513103e+01 5.187289e+01 3.792531e+01 8.262923e+01 2.880300e+00 2.051258e+00 1.982248e+00 2.374568e+00 2.527443e+00 2.361146e+00 2.593211e+00 2.981137e+00 2.602107e+00 1.996957e+00 1.953159e+00 1.687473e+00 2.406121e+00 4.181693e-01 3.321902e-01 3.106781e-01 3.999372e-01 4.400861e-01 4.085421e-01 4.615077e-01 5.381330e-01 4.503557e-01 3.716930e-01 3.497492e-01 2.950737e-01 3.486988e-01
<GCONST> 1.216744e+02
<TRANSP> 5
 0.000000e+00 1.000000e+00 0.000000e+00 0.000000e+00 0.000000e+00
 0.000000e+00 6.000000e-01 4.000000e-01 0.000000e+00 0.000000e+00
 0.000000e+00 0.000000e+00 6.000000e-01 4.000000e-01 0.000000e+00
 0.000000e+00 0.000000e+00 0.000000e+00 7.000000e-01 3.000000e-01
 0.000000e+00 0.000000e+00 0.000000e+00 0.000000e+00 0.000000e+00
<ENDHMM>
~h "O"
<BEGINHMM>
<NUMSTATES> 5
<STATE> 2
<MEAN> 39
 3.055398e-01 5.779203e+00 1.172177e+00 -1.214914e+00 2.344670e+00 -3.004066e+00 -1.160079e+01 -5.358107e+00 -5.996395e+00 3.625728e+00 -4.274201e+00 -8.166610e-01 5.170068e+01 -5.403620e-01 2.822816e-01 5.886589e-01 3.901124e-01 4.995005e-01 2.925253e-01 5.704065e-02 -7.311369e-01 1.709857e-01 -4.880802e-01 -1.611379e-01 1.277986e-01 -4.278339e-01 -1.266695e-01 2.774922e-02 -9.871800e-02 -3.071984e-01 -1.521582e-01 2.103931e-02 -3.514476e-03 -4.662592e-02 4.597078e-02 1.214167e-01 -1.082638e-01 1.582923e-01 2.496573e-01
<VARIANCE> 39
 6.139843e+00 3.276860e+01 7.981411e+00 2.670233e+01 5.590675e+00 6.240383e+01 2.872562e+01 2.368951e+01 8.843371e+00 2.789116e+01 1.099227e+01 7.310816e+01 2.875869e+01 5.159174e-01 1.569595e+00 8.675333e-01 2.592894e+00 8.250092e-01 2.528337e+00 5.299517e+00 1.822909e+00 1.512771e+00 4.248846e+00 2.059394e+00 2.927901e+00 2.386939e+00 1.359365e-01 3.663399e-01 2.184496e-01 7.071950e-01 2.715776e-01 6.745169e-01 1.520745e+00 7.005088e-01 2.577902e-01 1.320499e+00 3.374421e-01 6.321771e-01 6.640792e-01
<GCONST> 1.088738e+02
<STATE> 3
<MEAN> 39
 -4.052871e+00 1.431536e+00 1.673462e+00 -2.613186e+00 1.058975e+00 -9.398265e+00 -1.580993e+01 -4.015499e-01 -4.249165e+00 8.509309e+00 -8.412825e+00 -2.711591e+00 5.845995e+01 -1.205400e-01 -1.951761e-01 -8.512660e-01 -7.696122e-01 -1.188562e+00 -3.307171e-01 -6.075676e-01 1.361435e+00 4.839790e-01 1.438838e+00 -9.822364e-01 3.065000e-01 1.312247e+00 2.718026e-01 2.907492e-01 -8.595930e-02 3.804429e-01 -6.661399e-02 2.580046e-01 7.310661e-01 1.056321e-02 -3.782718e-02 -3.730528e-01 1.733853e-01 -1.221214e-01 -4.568565e-01
<VARIANCE> 39
 9.406978e-01 2.528982e+01 6.878336e+00 3.663488e+00 2.238451e+01 6.939818e+01 4.023306e+01 1.488331e+02 1.584569e+01 3.275874e+01 2.121117e+01 2.088052e+01 4.158549e+01 3.377632e-01 1.371862e+00 2.182536e-01 1.472374e+00 1.859467e+00 3.803728e+00 6.311528e+00 4.685234e+00 1.536425e+00 4.770788e+00 6.919875e-01 5.596704e-01 2.620203e+00 3.001753e-02 2.410104e-01 7.444543e-02 1.234333e-01 5.739319e-01 7.582911e-01 9.464247e-01 9.516673e-01 1.731091e-01 8.515908e-01 2.450255e-01 1.531768e-01 3.428497e-01
<GCONST> 9.881474e+01
<STATE> 4
<MEAN> 39
 -2.392740e+00 4.296856e+00 -7.907521e-01 -7.173460e-01 -3.410407e-01 -4.700102e+00 -1.282731e+01 -1.250381e+00 -6.648422e-01 7.191096e+00 -6.983550e+00 -1.196331e+00 5.634418e+01 2.100379e-01 2.765199e-01 -5.061575e-02 8.854638e-01 2.830071e-01 5.222546e-01 1.086257e+00 1.793251e-01 7.348406e-01 -8.432346e-01 9.872642e-01 -2.968704e-01 -1.091322e+00 -2.859237e-01 5.867491e-03 1.912165e-01 9.934074e-02 2.488350e-01 -2.486640e-01 3.681657e-02 2.480855e-01 7.391149e-03 -1.657209e-02 1.477167e-01 9.754103e-02 -2.210627e-01
<VARIANCE> 39
 2.433749e+00 7.751056e+00 7.492349e+00 1.032774e+01 1.189899e+01 5.915146e+00 9.032275e+01 6.252071e+01 3.173638e+01 1.315520e+01 1.153529e+01 2.265537e+01 4.907576e+01 1.724202e-01 1.093256e+00 4.966047e-01 5.363184e-01 8.989704e-01 3.969181e+00 4.923236e-01 3.081839e+00 2.157664e-01 5.306007e-01 8.991595e-01 5.005888e-01 5.430887e-01 1.132742e-01 2.509927e-01 9.989196e-02 1.453935e-01 3.636956e-01 4.446488e-01 2.171790e-01 4.213318e-01 9.175105e-02 1.073017e-01 1.535836e-01 1.920991e-01 1.475165e-01
<GCONST> 8.040739e+01
<TRANSP> 5
 0.000000e+00 1.000000e+00 0.000000e+00 0.000000e+00 0.000000e+00
 0.000000e+00 8.637571e-01 1.362429e-01 0.000000e+00 0.000000e+00
 0.000000e+00 0.000000e+00 7.855009e-01 2.144991e-01 0.000000e+00
 0.000000e+00 0.000000e+00 0.000000e+00 7.691720e-01 2.308280e-01
 0.000000e+00 0.000000e+00 0.000000e+00 0.000000e+00 0.000000e+00
<ENDHMM>
~h "R"
<BEGINHMM>
<NUMSTATES> 5
<STATE> 2
<MEAN> 39
 -2.665763e+00 -5.287098e+00 6.731191e-01 -8.753654e-01 -9.510104e+00 -1.118698e+01 -1.142643e+01 -2.026042e+00 -4.196979e+00 2.446810e-01 -2.673729e+00 -4.873268e+00 6.523981e+01 4.934839e-01 1.890480e-01 6.434941e-01 1.183264e+00 2.720070e-01 -1.007791e-01 -3.082081e-01 -4.057652e-01 1.444507e-03 -4.180465e-01 -4.069147e-01 -1.454755e-01 -8.758338e-01 -2.739531e-01 2.353486e-01 -2.634614e-02 -1.817977e-01 2.762240e-01 3.605701e-01 3.639222e-01 3.705474e-02 -1.359925e-01 -4.351733e-02 -6.874437e-03 4.549206e-02 -3.170976e-01
<VARIANCE> 39
 1.378503e+01 2.677361e+01 4.105857e+01 4.658837e+01 4.007923e+01 4.938451e+01 4.328143e+01 5.383081e+01 8.786292e+01 4.047356e+01 4.596419e+01 2.906341e+01 3.108897e+01 2.017904e+00 2.592225e+00 1.946037e+00 2.567514e+00 4.286742e+00 3.414767e+00 3.480418e+00 3.753625e+00 3.560434e+00 2.794624e+00 2.190191e+00 1.939869e+00 2.369880e+00 3.195988e-01 3.328151e-01 2.852634e-01 4.608433e-01 4.948676e-01 4.739110e-01 5.359208e-01 6.041014e-01 6.021367e-01 4.236566e-01 3.999746e-01 3.535526e-01 3.577639e-01
<GCONST> 1.212251e+02
<STATE> 3
<MEAN> 39
 -2.720433e+00 -2.353221e+00 2.428002e+00 1.789263e+00 -5.819154e+00 -9.840084e+00 -9.661980e+00 -2.645451e+00 -4.898367e+00 -9.397975e-01 -4.381835e+00 -5.261980e+00 6.065764e+01 -2.636578e-01 3.924260e-01 3.131077e-01 2.320293e-01 5.313976e-01 4.332776e-01 2.411701e-01 -8.627145e-02 -2.286869e-01 -2.003665e-01 -5.314239e-02 6.339544e-02 -7.059960e-01 -2.619220e-01 -1.926889e-01 -1.955511e-01 -6.535648e-01 -2.969632e-01 7.186171e-02 7.585448e-02 2.379496e-01 -9.792399e-02 1.967046e-01 2.026239e-01 9.913096e-02 3.750999e-01
<VARIANCE> 39
 1.515460e+01 2.692518e+01 3.767339e+01 3.578755e+01 4.088293e+01 4.706414e+01 4.418490e+01 4.126633e+01 6.210715e+01 4.020667e+01 3.772120e+01 2.679363e+01 3.524116e+01 1.918140e+00 2.562538e+00 2.037057e+00 2.385495e+00 3.458332e+00 2.823661e+00 3.604482e+00 3.343220e+00 2.777417e+00 2.465275e+00 2.041462e+00 1.853362e+00 1.813367e+00 3.370524e-01 4.161068e-01 3.372302e-01 4.817608e-01 6.341180e-01 6.131452e-01 5.576988e-01 7.205094e-01 5.417677e-01 5.063578e-01 4.420142e-01 3.379963e-01 4.375637e-01
<GCONST> 1.204010e+02
<STATE> 4
<MEAN> 39
 -6.829956e+00 -2.652094e+00 5.720804e-01 1.100202e+00 -3.987263e+00 -6.327336e+00 -5.454452e+00 -2.925493e-01 -2.994637e+00 3.396890e-01 -2.314257e+00 -2.452089e+00 5.627687e+01 -2.504924e-01 -5.997964e-02 3.061236e-02 -4.095255e-01 -1.627913e-01 2.013802e-01 1.424735e-02 1.141953e-01 -1.544594e-01 6.403644e-02 1.224057e-01 1.162517e-01 -9.412057e-02 -6.600712e-03 -1.723849e-02 -9.396258e-02 -2.113950e-01 -1.174442e-01 -2.521372e-02 2.462607e-02 3.231194e-02 -5.967434e-02 4.224638e-02 1.170971e-02 -1.325714e-02 1.515177e-01
<VARIANCE> 39
 2.681993e+01 2.806757e+01 3.291394e+01 2.992764e+01 3.785865e+01 5.475235e+01 6.195202e+01 3.622805e+01 4.766426e+01 2.944645e+01 2.594491e+01 2.558300e+01 7.234498e+01 1.314796e+00 1.791698e+00 1.548112e+00 1.861250e+00 2.104971e+00 2.053676e+00 2.228733e+00 2.767860e+00 2.155946e+00 1.760600e+00 1.594139e+00 1.286058e+00 1.584224e+00 2.040114e-01 2.532562e-01 2.474880e-01 3.410747e-01 4.206355e-01 4.069925e-01 4.594318e-01 4.232139e-01 3.290898e-01 3.542975e-01 3.191823e-01 2.422429e-01 1.855801e-01
<GCONST> 1.110524e+02
<TRANSP> 5
 0.000000e+00 1.000000e+00 0.000000e+00 0.000000e+00 0.000000e+00
 0.000000e+00 3.663828e-01 6.336171e-01 0.000000e+00 0.000000e+00
 0.000000e+00 0.000000e+00 2.963283e-01 7.036717e-01 0.000000e+00
 0.000000e+00 0.000000e+00 0.000000e+00 5.583274e-01 4.416725e-01
 0.000000e+00 0.000000e+00 0.000000e+00 0.000000e+00 0.000000e+00
<ENDHMM>
~h "S"
<BEGINHMM>
<NUMSTATES> 5
<STATE> 2
<MEAN> 39
 -1.048381e+01 6.722495e+00 -1.027196e+00 -1.330128e+00 -1.587906e+00 -9.057643e+00 -8.959124e+00 -5.276625e+00 -5.929699e+00 -1.074215e+00 -4.899752e+00 -3.802348e+00 6.230029e+01 -3.061557e+00 1.991341e+00 -3.943362e-01 5.461668e-01 1.627780e+00 2.999149e-01 8.771336e-01 9.479379e-01 5.567833e-01 -1.419160e-01 6.349499e-01 4.373871e-01 -4.729738e-01 -2.526349e-01 -4.776886e-01 -4.242555e-02 -3.029800e-01 -1.561636e-01 1.032066e-01 3.284369e-02 3.475672e-01 9.737391e-02 7.537220e-02 1.135108e-01 3.024599e-02 5.353993e-02
<VARIANCE> 39
 3.349914e+01 3.217451e+01 3.729322e+01 3.191192e+01 5.089925e+01 5.369650e+01 4.942507e+01 3.978168e+01 4.696227e+01 4.768261e+01 3.906403e+01 2.715393e+01 3.127692e+01 2.631565e+00 3.019012e+00 2.285250e+00 2.788608e+00 2.819381e+00 3.250903e+00 3.188947e+00 3.551684e+00 2.974735e+00 2.334851e+00 2.483795e+00 1.957571e+00 5.609468e-01 5.646632e-01 4.660644e-01 3.490028e-01 3.443738e-01 4.203098e-01 4.549553e-01 4.672984e-01 4.973468e-01 3.774599e-01 4.298012e-01 3.505889e-01 2.823869e-01 8.704058e-02
<GCONST> 1.177309e+02
<STATE> 3
<MEAN> 39
 -2.217111e+01 7.736819e+00 -2.094849e+00 -2.695817e+00 3.508192e+00 -7.030046e+00 -7.153772e+00 1.080745e+00 -2.633498e+00 6.325419e-01 -1.414891e+00 -1.201393e+00 6.251229e+01 -7.788894e-01 -5.893530e-01 -1.565138e-01 -1.695122e-01 4.214579e-02 3.614828e-01 1.237562e-01 3.547170e-01 3.205447e-01 4.819650e-02 1.850344e-01 1.912556e-01 -4.654102e-01 9.630204e-01 -3.483838e-01 1.548468e-01 7.892153e-02 -3.857785e-01 1.380985e-02 -8.027601e-02 -4.203480e-01 -1.381295e-01 5.690331e-03 -1.328889e-01 -1.129506e-01 -1.699293e-01
<VARIANCE> 39
 3.051747e+01 2.984128e+01 3.361879e+01 2.559280e+01 4.297715e+01 4.124120e+01 5.844996e+01 3.204167e+01 2.967702e+01 2.535108e+01 1.811905e+01 1.644777e+01 2.492130e+01 5.033745e+00 1.939496e+00 2.273160e+00 1.727292e+00 2.009435e+00 2.190470e+00 2.158575e+00 2.376436e+00 1.807744e+00 1.653962e+00 1.447703e+00 1.092925e+00 9.513019e-01 3.091830e-01 5.037885e-01 3.894273e-01 3.227108e-01 4.298735e-01 4.283304e-01 5.097660e-01 4.556600e-01 3.704659e-01 3.299634e-01 3.088644e-01 2.382360e-01 1.778955e-01
<GCONST> 1.105446e+02
<STATE> 4
<MEAN> 39
 -1.733245e+01 7.008494e-01 -2.299783e+00 -1.366170e+00 1.116253e+00 -4.077180e+00 -3.854721e+00 6.877679e-01 -1.388882e+00 4.906445e-01 -1.090209e+00 -5.629930e-01 5.318088e+01 6.491218e-01 -1.887983e-01 7.220268e-02 1.241501e-01 -1.865578e-01 1.749082e-01 1.632937e-01 -2.405441e-01 -7.573944e-02 -4.316328e-02 -2.119116e-02 5.408978e-03 -6.422351e-01 7.152831e-02 -1.133717e-02 7.177158e-04 -1.476401e-02 -4.307455e-02 -3.327716e-02 7.235422e-03 -2.750330e-02 -5.686148e-02 -1.484756e-02 -2.535248e-02 -2.364812e-02 4.797362e-02
<VARIANCE> 39
 3.790244e+01 3.318422e+01 1.960281e+01 2.264034e+01 2.558294e+01 3.852999e+01 3.986067e+01 2.509914e+01 3.080059e+01 1.952275e+01 1.521595e+01 1.351581e+01 5.581794e+01 1.649863e+00 1.157732e+00 9.020728e-01 9.677589e-01 1.309923e+00 1.370589e+00 1.449615e+00 1.456387e+00 1.315199e+00 1.136050e+00 1.009431e+00 8.431634e-01 1.524313e+00 1.770753e-01 1.885346e-01 1.678070e-01 1.875520e-01 2.233568e-01 2.647952e-01 2.694852e-01 2.675379e-01 2.728860e-01 2.275902e-01 2.111248e-01 1.699183e-01 1.745793e-01
<GCONST> 9.679653e+01
<TRANSP> 5
 0.000000e+00 1.000000e+00 0.000000e+00 0.000000e+00 0.000000e+00
 0.000000e+00 6.165402e-01 3.834598e-01 0.000000e+00 0.000000e+00
 0.000000e+00 0.000000e+00 7.440757e-01 2.559243e-01 0.000000e+00
 0.000000e+00 0.000000e+00 0.000000e+00 8.352912e-01 1.647088e-01
 0.000000e+00 0.000000e+00 0.000000e+00 0.000000e+00 0.000000e+00
<ENDHMM>
~h "U"
<BEGINHMM>
<NUMSTATES> 5
<STATE> 2
<MEAN> 39
 -2.812751e+00 -5.519766e-01 -1.870678e+00 -8.070694e+00 -3.992307e+00 -7.839928e+00 -1.254704e+01 -8.093822e+00 -1.036482e+01 -3.129125e-02 -6.086564e+00 -4.770711e+00 6.192051e+01 6.627840e-01 1.354116e-01 -2.179904e-01 -4.720360e-01 -2.788448e-01 2.578956e-01 -2.580598e-01 -5.658038e-01 -4.420811e-01 2.179487e-01 1.169146e-01 2.894077e-02 2.177739e-01 -2.045393e-01 2.283898e-01 2.098123e-01 3.193031e-01 5.025716e-02 2.393516e-01 5.232087e-01 1.838410e-01 1.427905e-01 -1.385892e-01 -1.197582e-02 6.772272e-02 -4.383099e-01
<VARIANCE> 39
 1.914753e+01 2.441936e+01 3.267941e+01 7.516431e+01 3.469315e+01 5.780260e+01 4.976334e+01 4.397646e+01 7.518491e+01 4.021837e+01 7.739821e+01 4.050754e+01 2.626353e+01 2.043214e+00 1.725358e+00 1.996258e+00 3.610691e+00 2.807857e+00 3.007510e+00 3.524249e+00 3.837497e+00 3.569772e+00 2.892989e+00 2.832317e+00 2.316414e+00 2.069593e+00 3.940394e-01 3.202884e-01 3.136004e-01 5.967610e-01 4.657575e-01 5.263598e-01 6.135962e-01 7.394213e-01 6.098909e-01 5.460869e-01 5.434097e-01 4.439094e-01 2.866184e-01
<GCONST> 1.234621e+02
<STATE> 3
<MEAN> 39
 -1.505394e+00 2.341174e+00 -1.774362e+00 -5.454855e+00 -4.657244e+00 -3.512846e+00 -8.726679e+00 -8.416807e+00 -8.993443e+00 -3.963129e-01 -2.310331e+00 -3.247359e+00 5.920520e+01 -3.643242e-01 2.983077e-01 1.071074e-01 4.712960e-01 2.338105e-01 2.566670e-01 6.536800e-01 3.788138e-01 4.741140e-01 -1.389846e-01 5.009746e-02 1.659029e-01 -9.534928e-01 -3.601596e-01 -6.749970e-02 9.200811e-02 1.669895e-01 1.601551e-01 -1.215522e-01 1.106556e-01 2.672338e-01 1.879452e-01 1.463901e-03 -7.555819e-02 -2.095313e-02 -1.527214e-01
<VARIANCE> 39
 1.974767e+01 2.524616e+01 2.778556e+01 4.341924e+01 3.674700e+01 4.986987e+01 5.877085e+01 3.667824e+01 5.016825e+01 4.006113e+01 5.447702e+01 3.293943e+01 5.070890e+01 1.492464e+00 1.909557e+00 1.309726e+00 2.251147e+00 2.551941e+00 2.193102e+00 2.880047e+00 2.465680e+00 2.780166e+00 2.336739e+00 2.183011e+00 1.737039e+00 2.247789e+00 2.854839e-01 3.442405e-01 2.690847e-01 4.475072e-01 4.837475e-01 4.638368e-01 5.410396e-01 5.201290e-01 5.068024e-01 4.721513e-01 4.317490e-01 3.608043e-01 2.827820e-01
<GCONST> 1.172715e+02
<STATE> 4
<MEAN> 39
 -9.411674e+00 -7.443644e-01 -2.143816e+00 -7.856245e-01 -8.340104e-01 -2.795884e+00 -3.853472e+00 -2.642912e+00 -3.605328e+00 -1.685588e-01 -1.623128e+00 -8.850556e-01 4.983560e+01 -3.182432e-01 2.084688e-03 6.428114e-02 1.343553e-01 8.111074e-02 4.653049e-02 1.741989e-01 1.886899e-01 1.661135e-01 -4.620191e-02 -4.698846e-03 3.320618e-02 -2.645289e-01 -2.382642e-02 1.268939e-02 1.561270e-02 -1.452388e-02 -7.472573e-03 -1.996453e-02 2.892923e-03 1.248103e-03 -1.927328e-02 8.692300e-03 -7.368457e-03 -7.998209e-03 5.249289e-02
<VARIANCE> 39
 2.633447e+01 2.580153e+01 1.711067e+01 2.270576e+01 2.202276e+01 3.330704e+01 3.616150e+01 3.059766e+01 3.365132e+01 2.121124e+01 2.316113e+01 1.784220e+01 5.350469e+01 9.101412e-01 1.185510e+00 8.663390e-01 1.051169e+00 1.308460e+00 1.303824e+00 1.494170e+00 1.588602e+00 1.478467e+00 1.339026e+00 1.124459e+00 1.003613e+00 9.886674e-01 1.412169e-01 1.607347e-01 1.405592e-01 1.805774e-01 2.392238e-01 2.272092e-01 2.597586e-01 2.919640e-01 2.663608e-01 2.515067e-01 2.140592e-01 1.826109e-01 1.190642e-01
<GCONST> 9.549175e+01
<TRANSP> 5
 0.000000e+00 1.000000e+00 0.000000e+00 0.000000e+00 0.000000e+00
 0.000000e+00 4.894311e-01 5.105689e-01 0.000000e+00 0.000000e+00
 0.000000e+00 0.000000e+00 5.414459e-01 4.585541e-01 0.000000e+00
 0.000000e+00 0.000000e+00 0.000000e+00 8.231699e-01 1.768301e-01
 0.000000e+00 0.000000e+00 0.000000e+00 0.000000e+00 0.000000e+00
<ENDHMM>
~h "a"
<BEGINHMM>
<NUMSTATES> 5
<STATE> 2
<MEAN> 39
 -2.012111e+00 -7.121801e+00 -6.567561e+00 -7.762666e+00 -5.382651e+00 -5.593788e+00 -8.087304e+00 -8.559852e-01 -2.886329e+00 1.307091e+00 -4.268029e+00 -8.333424e+00 6.812125e+01 5.580745e-01 -1.739916e+00 -1.136606e+00 -1.087043e+00 1.791941e-02 4.975236e-01 -1.436028e-01 1.096070e+00 4.959431e-01 2.587041e-01 -3.218387e-01 -1.433095e+00 1.563490e+00 -4.665344e-01 4.186563e-01 3.207330e-01 4.863926e-01 2.883609e-01 5.507501e-02 2.481903e-01 -1.597088e-01 -1.570810e-01 -1.036402e-01 -5.367255e-03 2.687123e-01 -6.221325e-01
<VARIANCE> 39
 9.852878e+00 2.566845e+01 2.900200e+01 3.315926e+01 2.841277e+01 6.752643e+01 4.723770e+01 5.195829e+01 9.011180e+01 4.827089e+01 6.667801e+01 3.414390e+01 2.573409e+01 2.177368e+00 1.690518e+00 1.897618e+00 2.887442e+00 2.679336e+00 3.016687e+00 3.266079e+00 3.823640e+00 3.777700e+00 2.498268e+00 2.703882e+00 2.772448e+00 1.845688e+00 3.837173e-01 3.049071e-01 3.453360e-01 4.035947e-01 4.161711e-01 5.345185e-01 5.547687e-01 7.101951e-01 7.090842e-01 4.672249e-01 5.170985e-01 4.320502e-01 2.767006e-01
<GCONST> 1.208518e+02
<STATE> 3
<MEAN> 39
 -2.811799e+00 -1.056576e+01 -8.113448e+00 -8.345004e+00 -2.436736e+00 -3.594056e+00 -6.697998e+00 7.711447e-01 -4.379650e+00 -5.026367e-01 -6.785568e+00 -1.076516e+01 6.894392e+01 5.511162e-02 8.913146e-02 6.023507e-02 1.050538e-02 3.976373e-02 -8.833501e-02 -4.197094e-02 1.959938e-03 -4.875663e-02 6.185941e-02 -7.082812e-02 -4.178864e-02 -1.340913e-01 1.838839e-02 3.108884e-01 1.990006e-01 1.286194e-01 -7.747406e-02 -1.481858e-01 -3.267938e-02 -2.097711e-01 -8.671770e-02 1.210134e-02 5.320349e-02 2.277365e-01 -2.459004e-01
<VARIANCE> 39
 8.607106e+00 2.744098e+01 2.211208e+01 2.779782e+01 3.057533e+01 5.202992e+01 3.530415e+01 6.126951e+01 8.311863e+01 5.309338e+01 7.437579e+01 5.084089e+01 2.043254e+01 2.501755e-01 5.441446e-01 6.860299e-01 8.657069e-01 9.558371e-01 1.342224e+00 1.083453e+00 1.316731e+00 1.118611e+00 1.126915e+00 1.104091e+00 9.330206e-01 2.372345e-01 7.892111e-02 1.563898e-01 1.341287e-01 1.787731e-01 1.701108e-01 1.673979e-01 2.209533e-01 2.995592e-01 2.269316e-01 2.047460e-01 1.816797e-01 2.266300e-01 1.087893e-01
<GCONST> 9.229673e+01
<STATE> 4
<MEAN> 39
 -1.416535e+00 -6.360581e+00 -5.999369e+00 -7.244457e+00 -4.636300e+00 -6.442117e+00 -8.793447e+00 -3.786372e-01 -3.623288e+00 2.204884e+00 -4.816095e+00 -8.779562e+00 6.677996e+01 8.499416e-02 1.822113e+00 1.076868e+00 1.175392e+00 1.725883e-01 -3.277039e-01 8.727218e-03 -1.307074e+00 -7.308018e-01 -1.932485e-01 1.612250e-01 1.076542e+00 -1.719713e+00 -2.675217e-01 3.580227e-01 1.670754e-01 2.981503e-01 1.983554e-01 2.022256e-01 2.161790e-01 -2.011528e-01 -9.937727e-02 -2.359618e-01 -1.195560e-02 1.407121e-01 -3.853176e-01
<VARIANCE> 39
 9.081407e+00 2.568515e+01 2.856462e+01 3.311863e+01 2.651613e+01 5.850621e+01 4.380627e+01 4.907220e+01 8.711931e+01 5.374905e+01 8.011774e+01 3.715186e+01 2.978115e+01 1.028471e+00 1.214769e+00 1.512544e+00 1.794755e+00 2.215092e+00 2.283956e+00 2.577012e+00 3.055522e+00 2.466376e+00 2.234370e+00 2.148521e+00 2.116720e+00 1.204351e+00 2.370603e-01 2.604948e-01 2.524498e-01 3.684683e-01 3.471753e-01 3.977236e-01 4.391048e-01 5.384637e-01 4.630593e-01 3.765016e-01 4.630300e-01 3.382429e-01 1.975022e-01
<GCONST> 1.133548e+02
<TRANSP> 5
 0.000000e+00 1.000000e+00 0.000000e+00 0.000000e+00 0.000000e+00
 0.000000e+00 5.825084e-01 4.174916e-01 0.000000e+00 0.000000e+00
 0.000000e+00 0.000000e+00 7.965607e-01 2.034393e-01 0.000000e+00
 0.000000e+00 0.000000e+00 0.000000e+00 5.898694e-01 4.101306e-01
 0.000000e+00 0.000000e+00 0.000000e+00 0.000000e+00 0.000000e+00
<ENDHMM>
~h "b"
<BEGINHMM>
<NUMSTATES> 5
<STATE> 2
<MEAN> 39
 1.536543e+00 3.515761e+00 3.262312e-01 -1.133959e+00 -2.003717e+00 -3.736941e+00 -6.527217e+00 -6.927097e+00 -9.754586e+00 -3.032815e+00 -5.358706e+00 -7.760734e+00 5.358575e+01 2.317856e-01 1.137281e+00 5.472559e-01 9.726085e-01 5.827840e-01 2.773388e-01 6.221761e-01 -3.825212e-02 1.964971e-01 -3.692360e-01 -2.263070e-01 9.592003e-02 -1.449240e+00 -3.174248e-01 -4.171418e-01 -1.948833e-01 -3.375137e-01 -2.119164e-01 -1.392008e-01 -2.604879e-01 2.151110e-01 2.142796e-01 1.538766e-01 1.378329e-01 8.644494e-02 6.655354e-01
<VARIANCE> 39
 1.138827e+01 2.740303e+01 2.201663e+01 2.570300e+01 2.016321e+01 3.776308e+01 4.607000e+01 4.108138e+01 6.123971e+01 4.226261e+01 4.380603e+01 4.188634e+01 1.376558e+01 9.729007e-01 1.033518e+00 1.032468e+00 1.654965e+00 1.363816e+00 1.294345e+00 1.813154e+00 2.207385e+00 2.093881e+00 2.024998e+00 1.779432e+00 1.516670e+00 1.669076e+00 1.211135e-01 2.099925e-01 1.842640e-01 2.873807e-01 2.475137e-01 2.428414e-01 3.270195e-01 4.334540e-01 4.122949e-01 3.774841e-01 2.921084e-01 2.379429e-01 1.883775e-01
<GCONST> 1.038101e+02
<STATE> 3
<MEAN> 39
 4.720802e-01 6.736619e+00 1.587198e+00 1.935139e+00 -5.046260e-01 -1.257273e+00 -4.978426e+00 -6.414336e+00 -6.893633e+00 -1.854937e+00 -2.460152e+00 -4.485247e+00 5.250365e+01 -7.004150e-01 -1.347052e+00 -2.202771e-01 -5.641750e-01 -5.635186e-01 -6.611905e-01 -9.289755e-01 5.461859e-01 6.631666e-01 7.907948e-02 4.548811e-01 4.208995e-01 1.776942e+00 -1.707185e-01 -9.671438e-01 -2.409445e-01 -7.079065e-01 -7.741773e-01 -4.379945e-01 -4.802903e-01 2.428827e-01 1.964924e-01 1.834372e-01 1.819110e-01 -5.116172e-03 1.291268e+00
<VARIANCE> 39
 1.658036e+01 1.686274e+01 1.663823e+01 1.816001e+01 1.764515e+01 2.775081e+01 2.611898e+01 2.573718e+01 3.386460e+01 2.867114e+01 3.303875e+01 2.352848e+01 1.316972e+01 1.679613e+00 2.582916e+00 2.100579e+00 3.485887e+00 2.583901e+00 3.047491e+00 2.518665e+00 2.693783e+00 2.654816e+00 2.651510e+00 2.035583e+00 1.641087e+00 3.368977e+00 3.376014e-01 2.354903e-01 3.676544e-01 5.003561e-01 3.452601e-01 4.492269e-01 4.779674e-01 5.333187e-01 6.574306e-01 5.727651e-01 3.701182e-01 4.561828e-01 2.776784e-01
<GCONST> 1.121545e+02
<STATE> 4
<MEAN> 39
 -2.155493e+00 -1.185593e+00 -6.986338e-01 -2.305538e+00 -4.742544e+00 -5.771286e+00 -9.992010e+00 -4.735398e+00 -4.383507e+00 -6.773803e-01 -9.930784e-01 -3.967636e+00 6.231490e+01 -4.598388e-01 -2.595647e+00 -4.874542e-01 -1.851941e+00 -2.127914e+00 -1.417358e+00 -1.397147e+00 1.245851e+00 9.365086e-01 6.279238e-01 5.700599e-01 -2.831795e-02 3.485764e+00 1.649660e-01 2.678295e-01 1.935574e-01 6.436796e-03 -5.100273e-02 1.824722e-01 4.075361e-01 7.101567e-02 -2.582071e-01 -8.874329e-02 -1.933372e-01 -1.836214e-01 -3.814911e-01
<VARIANCE> 39
 1.404393e+01 2.149930e+01 2.698399e+01 5.821375e+01 2.512501e+01 4.878997e+01 4.154132e+01 3.045646e+01 3.357080e+01 3.113601e+01 4.045543e+01 2.796684e+01 2.736188e+01 2.135866e+00 2.704235e+00 4.228945e+00 6.728046e+00 3.598600e+00 4.922106e+00 4.230486e+00 5.206539e+00 4.980797e+00 4.224855e+00 3.021019e+00 3.740937e+00 2.409347e+00 2.460399e-01 3.419420e-01 2.894587e-01 6.800216e-01 5.903106e-01 6.441596e-01 6.800972e-01 6.367830e-01 5.982737e-01 4.722396e-01 5.471070e-01 4.279965e-01 4.488190e-01
<GCONST> 1.242915e+02
<TRANSP> 5
 0.000000e+00 1.000000e+00 0.000000e+00 0.000000e+00 0.000000e+00
 0.000000e+00 7.027165e-01 2.972835e-01 0.000000e+00 0.000000e+00
 0.000000e+00 0.000000e+00 5.668944e-01 4.331056e-01 0.000000e+00
 0.000000e+00 0.000000e+00 0.000000e+00 4.215088e-01 5.784912e-01
 0.000000e+00 0.000000e+00 0.000000e+00 0.000000e+00 0.000000e+00
<ENDHMM>
~h "d"
<BEGINHMM>
<NUMSTATES> 5
<STATE> 2
<MEAN> 39
 -2.122193e+00 3.787133e+00 4.520256e+00 -9.907612e-02 -4.268740e+00 -6.986856e+00 -7.914774e+00 -6.606581e+00 -7.745881e+00 -2.229723e+00 -7.156216e+00 -6.227175e+00 5.560331e+01 1.062917e-03 1.094346e+00 4.496933e-01 5.752885e-01 6.047487e-01 6.691022e-01 5.086102e-01 2.599351e-01 2.923735e-01 -3.451573e-01 -4.613087e-02 -1.791769e-01 -1.371704e+00 -5.289176e-01 -3.584444e-01 -2.276948e-01 -4.121408e-01 -4.333102e-02 -1.043150e-01 -2.469364e-01 2.186009e-01 1.202490e-01 7.660914e-02 2.201585e-01 1.098563e-01 7.056643e-01
<VARIANCE> 39
 2.445415e+01 2.674380e+01 3.472408e+01 3.506194e+01 3.532927e+01 4.057674e+01 4.425422e+01 5.475214e+01 6.629646e+01 4.722218e+01 5.768198e+01 3.391820e+01 3.058343e+01 1.902890e+00 1.387056e+00 1.433004e+00 1.584179e+00 1.939450e+00 1.900802e+00 2.609629e+00 2.735499e+00 2.145856e+00 2.020084e+00 1.992241e+00 1.742240e+00 2.070230e+00 3.772757e-01 3.179695e-01 2.676609e-01 3.087795e-01 4.451382e-01 4.076935e-01 6.191970e-01 6.459324e-01 4.435805e-01 4.365300e-01 3.645994e-01 3.202361e-01 4.201612e-01
<GCONST> 1.159800e+02
<STATE> 3
<MEAN> 39
 -4.036591e+00 5.587164e+00 5.042491e+00 4.243476e-01 -2.473335e+00 -4.981011e+00 -7.419889e+00 -5.281405e+00 -5.616675e+00 -1.532236e+00 -5.443892e+00 -5.708460e+00 5.513433e+01 -1.987662e+00 -3.706419e-01 -1.620497e-01 -6.553275e-01 6.713515e-01 -2.007250e-02 -8.051439e-01 4.565900e-01 4.887387e-01 -6.066319e-02 5.613361e-01 3.426552e-01 1.448321e+00 -3.436665e-01 -5.762457e-01 -2.858362e-01 -4.123552e-01 -3.852693e-01 -4.173568e-01 -3.766961e-01 -1.001399e-01 8.453248e-03 1.325241e-01 1.552312e-01 9.917825e-02 1.044648e+00
<VARIANCE> 39
 2.940836e+01 2.110089e+01 3.228622e+01 2.729104e+01 3.193403e+01 3.226773e+01 3.855919e+01 4.587683e+01 4.927650e+01 4.331770e+01 3.951327e+01 2.634372e+01 2.831841e+01 3.135618e+00 2.657141e+00 2.381918e+00 2.058876e+00 2.911823e+00 3.270360e+00 4.807288e+00 3.944177e+00 3.028071e+00 2.388994e+00 2.497838e+00 1.810046e+00 2.225901e+00 5.091074e-01 3.362153e-01 4.087241e-01 4.192841e-01 4.842042e-01 4.306278e-01 5.369127e-01 7.370176e-01 5.293362e-01 4.279447e-01 3.545684e-01 3.811231e-01 3.852884e-01
<GCONST> 1.199922e+02
<STATE> 4
<MEAN> 39
 -1.377069e+01 4.307765e+00 6.687296e+00 -7.431780e-01 -2.701125e+00 -5.630242e+00 -8.457450e+00 -4.915976e+00 -4.902271e+00 -2.382459e+00 -3.294667e+00 -4.051129e+00 6.242397e+01 -7.315280e-01 -8.170641e-01 -2.668464e-01 -4.003923e-01 -7.311221e-01 -1.025607e+00 -6.933470e-01 -1.981023e-01 5.293341e-03 1.500208e-01 4.050071e-01 2.465770e-01 1.761787e+00 9.264811e-01 -2.413477e-01 -1.533679e-01 3.092969e-03 -3.915917e-01 -2.026186e-01 -1.834109e-02 -3.608358e-02 -1.753943e-01 2.321474e-02 -8.445094e-02 -5.248112e-02 -1.901195e-01
<VARIANCE> 39
 5.600153e+01 2.491601e+01 5.574012e+01 3.008947e+01 3.241233e+01 3.813599e+01 5.308945e+01 3.416012e+01 4.480716e+01 3.422084e+01 2.566794e+01 2.521788e+01 2.535189e+01 5.990283e+00 2.513000e+00 2.776474e+00 2.851143e+00 2.858905e+00 2.974557e+00 3.453124e+00 3.696430e+00 3.057525e+00 2.243853e+00 1.790865e+00 1.734263e+00 2.488967e+00 6.396000e-01 4.030560e-01 4.054547e-01 3.575787e-01 4.643160e-01 6.399215e-01 6.687055e-01 5.864991e-01 4.655999e-01 4.031726e-01 4.054324e-01 3.294438e-01 2.651446e-01
<GCONST> 1.209954e+02
<TRANSP> 5
 0.000000e+00 1.000000e+00 0.000000e+00 0.000000e+00 0.000000e+00
 0.000000e+00 5.471653e-01 4.528347e-01 0.000000e+00 0.000000e+00
 0.000000e+00 0.000000e+00 3.865867e-01 6.134133e-01 0.000000e+00
 0.000000e+00 0.000000e+00 0.000000e+00 5.459346e-01 4.540654e-01
 0.000000e+00 0.000000e+00 0.000000e+00 0.000000e+00 0.000000e+00
<ENDHMM>
~h "e"
<BEGINHMM>
<NUMSTATES> 5
<STATE> 2
<MEAN> 39
 -5.164761e+00 -3.008514e+00 4.787890e+00 -2.170955e+00 -1.136763e+01 -1.393410e+01 -1.014152e+01 -2.527880e+00 -5.970832e+00 -1.941488e+00 -2.930492e+00 -2.757780e+00 6.606084e+01 7.855995e-01 -1.348572e+00 7.920818e-01 -8.334775e-01 -2.229012e+00 -1.582030e+00 -9.959018e-01 7.836799e-01 -4.698553e-01 -2.788158e-01 3.345677e-01 8.954690e-02 1.836676e+00 -4.130827e-01 2.561027e-01 -2.207062e-01 -3.061398e-02 4.236093e-01 5.664901e-01 3.889351e-01 -2.540867e-04 4.330277e-02 1.435490e-01 2.719295e-02 4.378247e-03 -5.555928e-01
<VARIANCE> 39
 1.127224e+01 2.248233e+01 2.935172e+01 6.803561e+01 2.929647e+01 2.771689e+01 3.666332e+01 4.409266e+01 5.743806e+01 2.426180e+01 4.432186e+01 2.791230e+01 2.595075e+01 2.953953e+00 1.587779e+00 2.322086e+00 3.390418e+00 2.992790e+00 3.034207e+00 3.569317e+00 4.261537e+00 4.482410e+00 2.931167e+00 3.032501e+00 2.294725e+00 2.187114e+00 4.510351e-01 2.992811e-01 3.196549e-01 4.346921e-01 5.207267e-01 4.193883e-01 5.133885e-01 6.310892e-01 4.588849e-01 3.723688e-01 3.766833e-01 2.933115e-01 3.290626e-01
<GCONST> 1.186449e+02
<STATE> 3
<MEAN> 39
 -5.382740e+00 -5.149568e+00 5.238074e+00 -3.399509e+00 -1.379787e+01 -1.476325e+01 -1.074574e+01 -7.575233e-02 -6.556980e+00 -2.179797e+00 -1.958360e+00 -3.020680e+00 6.814314e+01 -5.976582e-02 -1.267918e-01 2.108686e-01 -1.948799e-01 -4.224231e-01 -3.553469e-02 8.937499e-02 2.824077e-01 -1.903560e-01 1.131272e-01 7.755516e-02 -3.125116e-03 1.431314e-01 -1.910955e-01 6.548162e-01 -2.139408e-01 3.394094e-01 8.881482e-01 5.646586e-01 3.291766e-01 -5.044578e-01 9.489816e-02 9.687358e-02 -2.132848e-01 -7.330102e-02 -7.492448e-01
<VARIANCE> 39
 8.783898e+00 1.942572e+01 2.850216e+01 6.470747e+01 2.594820e+01 2.833493e+01 3.036880e+01 4.654157e+01 7.737913e+01 2.694790e+01 5.497456e+01 3.170903e+01 2.168889e+01 6.717625e-01 1.015900e+00 1.574775e+00 1.802415e+00 2.460612e+00 1.794177e+00 2.274502e+00 2.176648e+00 1.757182e+00 1.684853e+00 1.780199e+00 1.465231e+00 9.161313e-01 3.264073e-01 2.239055e-01 2.767672e-01 4.400745e-01 3.961785e-01 4.054519e-01 5.472203e-01 6.785768e-01 6.152856e-01 4.576117e-01 4.105450e-01 3.199550e-01 2.289785e-01
<GCONST> 1.097635e+02
<STATE> 4
<MEAN> 39
 -5.936743e+00 -3.443985e+00 7.041879e+00 -4.582759e+00 -1.431894e+01 -1.438227e+01 -9.021461e+00 -1.751247e+00 -6.888510e+00 -1.702277e+00 -1.861987e+00 -2.213168e+00 6.715334e+01 3.939243e-02 4.398201e-01 -6.279028e-02 4.148968e-01 5.914750e-01 1.718413e-01 4.201324e-02 -2.700836e-01 -3.187515e-03 -7.429080e-02 -2.774976e-01 -6.094105e-02 -5.602997e-01 -4.528606e-02 2.340160e-01 -7.817527e-02 1.798356e-01 3.459040e-01 1.453866e-01 3.452669e-02 -1.176421e-01 3.958990e-02 -3.860766e-02 -8.685562e-02 -4.187604e-02 -2.623124e-01
<VARIANCE> 39
 7.706301e+00 2.047233e+01 2.809744e+01 7.530069e+01 2.370909e+01 2.687298e+01 2.577149e+01 4.732320e+01 6.133676e+01 2.685020e+01 5.441953e+01 2.766057e+01 2.116254e+01 5.245950e-01 9.776688e-01 1.008240e+00 1.384399e+00 1.747951e+00 1.327174e+00 1.462125e+00 1.568210e+00 1.347008e+00 1.203924e+00 1.208825e+00 9.460724e-01 8.984989e-01 1.497769e-01 1.645202e-01 1.441901e-01 2.135748e-01 2.634422e-01 2.231950e-01 2.785379e-01 2.773820e-01 2.533081e-01 2.234699e-01 2.033591e-01 1.664724e-01 9.981988e-02
<GCONST> 9.644244e+01
<TRANSP> 5
 0.000000e+00 1.000000e+00 0.000000e+00 0.000000e+00 0.000000e+00
 0.000000e+00 3.375226e-01 6.624774e-01 0.000000e+00 0.000000e+00
 0.000000e+00 0.000000e+00 3.831694e-01 6.168306e-01 0.000000e+00
 0.000000e+00 0.000000e+00 0.000000e+00 7.452410e-01 2.547589e-01
 0.000000e+00 0.000000e+00 0.000000e+00 0.000000e+00 0.000000e+00
<ENDHMM>
~h "f"
<BEGINHMM>
<NUMSTATES> 5
<STATE> 2
<MEAN> 39
 -1.255863e+01 1.449161e+00 9.714383e-01 9.574941e-01 -2.524605e+00 -6.243891e+00 -7.140434e+00 -2.701298e+00 -5.171099e+00 -1.399515e+00 -3.796090e+00 -1.779499e+00 5.842767e+01 -2.768079e+00 -8.535337e-01 -9.758579e-01 5.047652e-01 6.068958e-01 5.286517e-01 2.621101e-01 7.819329e-01 1.392949e+00 5.993745e-01 4.425146e-01 6.005380e-01 -3.968183e-01 8.923546e-02 -4.093038e-01 -1.647959e-01 -4.286242e-01 -3.413271e-01 -9.893761e-02 -9.446034e-02 2.869638e-02 -1.269798e-01 7.395265e-02 1.012618e-01 -6.389566e-02 2.018665e-01
<VARIANCE> 39
 3.665718e+01 1.706182e+01 2.886201e+01 2.577396e+01 2.624939e+01 3.191183e+01 3.040111e+01 2.776538e+01 3.898801e+01 2.393413e+01 2.323530e+01 2.125398e+01 2.771125e+01 2.478634e+00 2.047669e+00 2.504121e+00 3.023104e+00 2.835939e+00 2.873942e+00 3.048439e+00 3.060688e+00 4.135481e+00 2.900110e+00 2.952813e+00 1.922552e+00 9.577286e-01 5.174414e-01 3.342667e-01 2.482612e-01 3.790935e-01 4.482517e-01 4.163302e-01 4.698064e-01 5.120020e-01 5.505038e-01 4.733243e-01 3.808574e-01 2.891895e-01 1.040406e-01
<GCONST> 1.136813e+02
<STATE> 3
<MEAN> 39
 -1.939818e+01 -3.991366e+00 -3.578957e+00 3.386829e-01 -2.700521e+00 -4.549783e+00 -5.675080e+00 -1.755943e-01 -1.782342e+00 9.019594e-01 -1.403847e+00 -2.396171e-01 5.732297e+01 -2.642020e-01 -4.371605e-01 -3.013180e-01 -3.188522e-02 1.681428e-01 2.144448e-01 2.634846e-01 2.403477e-01 2.105296e-01 1.769485e-01 8.807884e-02 7.337695e-02 -1.201895e-02 5.392813e-01 2.232297e-01 2.078564e-01 -2.113787e-02 8.086922e-03 -6.230178e-02 -2.840656e-03 -1.114334e-01 -1.556536e-01 -9.643898e-02 -7.497516e-02 -9.798978e-02 5.997665e-02
<VARIANCE> 39
 1.298858e+01 1.028540e+01 1.493569e+01 1.562671e+01 1.573444e+01 2.119275e+01 3.343185e+01 1.876561e+01 2.214914e+01 1.668244e+01 1.378803e+01 1.229305e+01 2.801622e+01 1.101794e+00 7.786913e-01 1.015728e+00 9.722345e-01 1.054337e+00 1.126774e+00 1.248687e+00 1.267109e+00 1.347242e+00 1.265637e+00 1.061945e+00 9.739331e-01 8.072389e-01 3.360880e-01 1.929669e-01 2.106294e-01 2.329266e-01 2.201610e-01 2.600765e-01 2.955644e-01 2.908306e-01 3.591069e-01 3.115514e-01 2.626994e-01 2.291114e-01 1.375406e-01
<GCONST> 9.142328e+01
<STATE> 4
<MEAN> 39
 -1.554812e+01 -3.349368e+00 -3.009173e+00 1.743869e-01 -8.894315e-01 -4.200405e+00 -4.335231e+00 2.445208e-01 -1.432959e+00 1.231419e+00 -2.025520e+00 -9.500179e-01 5.841116e+01 4.098369e+00 9.680062e-01 6.741771e-01 -1.129974e+00 -9.459887e-01 -6.272247e-01 -6.494904e-01 -9.144158e-01 -1.162603e+00 -4.986129e-01 -2.107277e-01 -8.772128e-01 9.929126e-01 6.621435e-01 -2.160184e-02 5.406759e-02 -5.118682e-01 -6.604678e-01 -1.921182e-01 -4.780376e-01 -2.344341e-01 -4.092841e-01 -1.163617e-01 5.661225e-02 -2.596857e-01 4.365311e-01
<VARIANCE> 39
 3.877123e+01 1.672794e+01 2.200075e+01 1.947578e+01 1.906919e+01 2.491416e+01 3.411158e+01 1.765837e+01 2.292783e+01 1.774011e+01 1.537267e+01 1.318426e+01 2.685689e+01 3.243905e+00 2.015393e+00 2.968550e+00 4.677706e+00 3.211365e+00 3.585687e+00 3.074500e+00 2.354672e+00 3.812692e+00 2.543855e+00 3.030533e+00 1.827696e+00 2.079270e+00 8.053852e-01 4.203389e-01 3.623046e-01 5.101189e-01 3.721894e-01 5.144081e-01 4.161725e-01 4.606195e-01 6.206605e-01 3.825387e-01 4.703342e-01 3.477426e-01 2.165966e-01
<GCONST> 1.141797e+02
<TRANSP> 5
 0.000000e+00 1.000000e+00 0.000000e+00 0.000000e+00 0.000000e+00
 0.000000e+00 6.257510e-01 3.742490e-01 0.000000e+00 0.000000e+00
 0.000000e+00 0.000000e+00 8.453984e-01 1.546016e-01 0.000000e+00
 0.000000e+00 0.000000e+00 0.000000e+00 6.068977e-01 3.931023e-01
 0.000000e+00 0.000000e+00 0.000000e+00 0.000000e+00 0.000000e+00
<ENDHMM>
~h "g"
<BEGINHMM>
<NUMSTATES> 5
<STATE> 2
<MEAN> 39
 -1.683588e+00 2.176165e+00 4.121132e+00 -3.801317e+00 -7.373385e+00 -8.219663e+00 -7.585449e+00 -5.223941e+00 -1.274570e+01 -2.420380e+00 -4.873779e+00 -5.948016e+00 5.707050e+01 4.726169e-01 1.286103e+00 1.010913e-01 9.015933e-01 7.382400e-01 5.184665e-01 7.538098e-01 -1.753762e-01 1.658543e-01 -1.819427e-01 -2.319179e-01 -1.945490e-01 -1.876953e+00 -2.076073e-01 -3.081388e-01 -2.496792e-01 -2.748847e-01 -9.242969e-02 -8.693491e-03 -7.065991e-02 1.671371e-01 2.062677e-01 1.060280e-01 1.022902e-01 1.421675e-01 4.486169e-01
<VARIANCE> 39
 1.686091e+01 2.196679e+01 4.870644e+01 8.803053e+01 4.018118e+01 5.974239e+01 4.443575e+01 6.665607e+01 5.514396e+01 4.205109e+01 6.882508e+01 4.686692e+01 2.729684e+01 1.075008e+00 1.051069e+00 2.068910e+00 2.447724e+00 2.224859e+00 2.241028e+00 2.711582e+00 3.049095e+00 2.699615e+00 3.046593e+00 2.234117e+00 1.672215e+00 1.580851e+00 1.683255e-01 2.451807e-01 3.295374e-01 3.704757e-01 4.014063e-01 4.530234e-01 5.277038e-01 6.352525e-01 5.034177e-01 4.745382e-01 4.656492e-01 3.318694e-01 3.155563e-01
<GCONST> 1.176725e+02
<STATE> 3
<MEAN> 39
 -9.305682e-01 5.842386e+00 3.502947e+00 -1.048464e+00 -5.249807e+00 -4.934488e+00 -5.134547e+00 -4.198503e+00 -1.037915e+01 -1.308866e+00 -3.560408e+00 -4.948889e+00 5.382255e+01 -3.527938e-01 -4.346795e-01 -8.042437e-01 -2.689910e-01 5.509733e-01 3.659822e-02 -2.963597e-01 1.147491e-01 -7.697883e-02 1.926018e-01 -8.028176e-02 5.250149e-01 6.364905e-01 -2.021796e-01 -6.358430e-01 -1.498611e-01 -2.818927e-01 -3.333855e-01 -3.066824e-01 -4.265749e-01 -5.281591e-02 3.048054e-02 6.926274e-02 2.287059e-01 1.696014e-01 9.935491e-01
<VARIANCE> 39
 1.609753e+01 1.879605e+01 3.810156e+01 4.857354e+01 3.190418e+01 4.576210e+01 3.258739e+01 3.460541e+01 3.424979e+01 3.240529e+01 4.129907e+01 2.697473e+01 2.072528e+01 1.443514e+00 1.912048e+00 2.588619e+00 3.388150e+00 3.229271e+00 3.554630e+00 3.101307e+00 3.154545e+00 2.922866e+00 2.749818e+00 2.595350e+00 1.691263e+00 2.302673e+00 2.371753e-01 2.545276e-01 3.487166e-01 3.925471e-01 5.553886e-01 4.314574e-01 4.539728e-01 5.638795e-01 6.146379e-01 6.296768e-01 4.681810e-01 3.014544e-01 3.254853e-01
<GCONST> 1.169743e+02
<STATE> 4
<MEAN> 39
 -4.045860e+00 5.887875e-02 1.512822e+00 -3.010388e-01 -6.285458e+00 -9.506677e+00 -8.091087e+00 -3.635120e+00 -8.581040e+00 -3.637368e-01 -2.579908e+00 -2.363235e+00 6.191195e+01 -1.442062e-01 -1.258405e+00 -6.663859e-01 -8.184090e-01 -1.439110e+00 -8.478920e-01 -6.655971e-01 1.563597e-01 8.210157e-01 4.028944e-01 6.925463e-01 3.081856e-01 2.280714e+00 2.278707e-01 4.354879e-02 6.034561e-02 -1.523018e-01 -1.716900e-01 2.353902e-01 7.831687e-02 9.506148e-03 1.847222e-01 1.624408e-02 -3.330410e-02 -3.219444e-01 -1.408486e-01
<VARIANCE> 39
 1.669581e+01 2.331651e+01 4.372450e+01 5.694101e+01 5.601673e+01 6.178537e+01 3.804986e+01 3.902649e+01 5.004958e+01 3.193750e+01 4.645535e+01 2.627165e+01 3.589780e+01 1.597217e+00 1.625019e+00 2.343252e+00 2.934800e+00 4.964801e+00 3.285267e+00 3.020895e+00 4.778946e+00 5.110167e+00 3.366632e+00 3.089949e+00 2.170793e+00 1.902597e+00 2.342622e-01 2.914795e-01 4.407777e-01 5.401605e-01 1.216447e+00 6.868503e-01 4.938741e-01 5.062925e-01 7.114584e-01 5.546668e-01 6.485975e-01 3.467803e-01 4.934445e-01
<GCONST> 1.239003e+02
<TRANSP> 5
 0.000000e+00 1.000000e+00 0.000000e+00 0.000000e+00 0.000000e+00
 0.000000e+00 5.767691e-01 4.232310e-01 0.000000e+00 0.000000e+00
 0.000000e+00 0.000000e+00 5.670295e-01 4.329706e-01 0.000000e+00
 0.000000e+00 0.000000e+00 0.000000e+00 5.156775e-01 4.843225e-01
 0.000000e+00 0.000000e+00 0.000000e+00 0.000000e+00 0.000000e+00
<ENDHMM>
~h "i"
<BEGINHMM>
<NUMSTATES> 5
<STATE> 2
<MEAN> 39
 -9.755531e+00 3.322889e+00 1.052347e+01 -7.791188e-01 -9.008250e+00 -9.980349e+00 -7.726991e+00 -5.498851e+00 -8.962780e+00 -3.873587e+00 -2.875433e+00 -2.812389e+00 6.205009e+01 1.978960e+00 -5.588415e-01 1.567738e+00 -3.552099e-01 -1.984339e+00 -1.218062e+00 -1.295882e+00 -5.002068e-01 -1.422267e+00 -6.723982e-01 3.429620e-02 -3.662862e-01 1.257687e+00 -1.954669e-01 -1.941490e-01 -4.809727e-01 -1.505096e-01 2.654644e-01 3.024336e-01 8.902588e-02 2.662746e-01 2.430156e-01 1.849768e-01 1.963265e-02 -2.676025e-02 -1.722017e-01
<VARIANCE> 39
 2.368531e+01 2.747177e+01 3.463027e+01 5.845578e+01 2.808178e+01 3.217683e+01 3.554280e+01 3.723150e+01 3.843014e+01 2.698542e+01 3.127521e+01 2.475098e+01 4.261580e+01 4.777305e+00 2.747211e+00 3.698955e+00 3.852630e+00 3.044043e+00 3.252815e+00 3.075131e+00 3.438828e+00 3.658491e+00 2.742937e+00 3.216854e+00 2.357535e+00 2.372022e+00 4.836518e-01 3.379019e-01 3.803025e-01 3.797005e-01 4.336758e-01 3.948621e-01 4.207956e-01 4.805307e-01 3.818530e-01 3.828400e-01 2.946301e-01 2.531079e-01 2.103880e-01
<GCONST> 1.190015e+02
<STATE> 3
<MEAN> 39
 -7.071984e+00 -4.948460e-01 1.161624e+01 -1.713873e+00 -1.255732e+01 -1.137860e+01 -9.955601e+00 -4.609349e+00 -1.131654e+01 -4.727311e+00 -2.490891e+00 -3.920917e+00 6.469444e+01 8.170485e-01 -4.178661e-01 -2.116513e-01 -1.610173e-01 -2.545124e-01 -2.028553e-01 -4.480636e-01 8.641177e-02 -2.526520e-01 1.094942e-01 -1.042270e-01 -2.518498e-01 9.171069e-02 -4.203411e-01 3.661983e-01 -6.894013e-01 1.111446e-01 7.915330e-01 4.548499e-01 4.487835e-01 2.127422e-02 5.285134e-01 3.039905e-01 -9.791432e-02 3.164104e-02 -5.466093e-01
<VARIANCE> 39
 1.173485e+01 2.526130e+01 3.398094e+01 7.778674e+01 2.605167e+01 3.252364e+01 3.378019e+01 4.059208e+01 5.808027e+01 3.257640e+01 5.764330e+01 3.769608e+01 2.510443e+01 2.127059e+00 1.952826e+00 2.779256e+00 2.293865e+00 3.042385e+00 2.462691e+00 2.547947e+00 2.844214e+00 2.551006e+00 2.184691e+00 2.172102e+00 1.788079e+00 1.913004e+00 4.596057e-01 3.505376e-01 4.010656e-01 5.731077e-01 4.507264e-01 5.223951e-01 4.936419e-01 6.106455e-01 5.334675e-01 5.109384e-01 4.695003e-01 3.708866e-01 2.463114e-01
<GCONST> 1.182706e+02
<STATE> 4
<MEAN> 39
 -7.783694e+00 2.031357e+00 1.239684e+01 -5.011432e+00 -1.156820e+01 -1.074331e+01 -9.924728e+00 -6.925999e+00 -1.095743e+01 -4.307131e+00 -4.608385e+00 -4.078940e+00 6.301440e+01 1.703845e-01 -6.464250e-03 -5.308518e-01 1.309314e-01 2.069852e-01 -3.965164e-03 1.896260e-01 5.594833e-02 1.732419e-01 2.030916e-01 -5.335907e-02 4.307851e-03 -2.435628e-01 -7.589119e-02 5.628668e-02 -1.622932e-01 6.378033e-02 1.651902e-01 7.833995e-02 1.140673e-01 3.306810e-02 9.396929e-02 4.010179e-02 4.602012e-03 1.442554e-02 -1.134641e-01
<VARIANCE> 39
 1.119396e+01 2.603959e+01 3.218108e+01 9.274343e+01 3.115357e+01 3.101207e+01 3.833721e+01 4.914686e+01 5.500203e+01 3.209886e+01 6.659435e+01 4.041961e+01 2.535027e+01 6.558402e-01 9.938341e-01 1.357311e+00 1.189253e+00 1.522418e+00 1.351399e+00 1.367355e+00 1.526103e+00 1.346512e+00 1.317768e+00 1.147770e+00 9.606233e-01 9.758844e-01 1.493562e-01 1.438833e-01 1.705200e-01 1.958460e-01 2.518127e-01 2.523912e-01 2.271738e-01 2.606636e-01 2.217508e-01 2.203164e-01 2.087217e-01 1.726622e-01 7.605752e-02
<GCONST> 9.878918e+01
<TRANSP> 5
 0.000000e+00 1.000000e+00 0.000000e+00 0.000000e+00 0.000000e+00
 0.000000e+00 3.767027e-01 6.232973e-01 0.000000e+00 0.000000e+00
 0.000000e+00 0.000000e+00 4.510854e-01 5.489146e-01 0.000000e+00
 0.000000e+00 0.000000e+00 0.000000e+00 7.825375e-01 2.174625e-01
 0.000000e+00 0.000000e+00 0.000000e+00 0.000000e+00 0.000000e+00
<ENDHMM>
~h "k"
<BEGINHMM>
<NUMSTATES> 5
<STATE> 2
<MEAN> 39
 -7.910042e+00 5.837924e-01 -2.077630e+00 -3.481373e+00 -3.669630e+00 -6.580210e+00 -5.315594e+00 -2.736787e+00 -6.203146e+00 2.084759e-01 -3.063423e+00 -2.116540e+00 5.049351e+01 -6.892733e-01 -6.651394e-01 -9.287410e-01 -6.705416e-01 4.033338e-01 3.592224e-01 2.905864e-01 5.313635e-01 4.858648e-01 3.746840e-01 3.584331e-02 4.226573e-01 -6.539686e-01 -9.322385e-02 -2.573268e-01 -9.899175e-02 -1.862145e-01 7.981178e-03 3.567600e-02 -7.819429e-02 1.248298e-01 -5.200895e-02 1.328878e-01 -6.968296e-02 -2.556640e-03 8.669662e-01
<VARIANCE> 39
 2.798021e+01 2.601032e+01 4.399021e+01 3.570704e+01 4.004625e+01 4.374617e+01 3.561035e+01 3.738134e+01 4.473468e+01 2.950053e+01 3.282733e+01 2.425332e+01 3.176090e+01 2.219030e+00 2.569418e+00 3.108698e+00 3.103645e+00 3.518608e+00 3.171800e+00 2.899229e+00 3.616576e+00 3.807751e+00 2.914736e+00 2.596216e+00 1.871948e+00 5.614391e+00 3.278374e-01 4.609961e-01 4.901375e-01 5.265564e-01 6.213222e-01 5.608238e-01 5.156608e-01 6.579270e-01 6.258824e-01 5.554010e-01 4.149334e-01 3.407277e-01 5.809072e-01
<GCONST> 1.231596e+02
<STATE> 3
<MEAN> 39
 -1.228944e+01 -4.073537e+00 -6.598975e+00 -7.311734e+00 -2.177775e-01 -4.038685e+00 -4.173099e+00 1.187508e+00 -4.355801e+00 3.654958e+00 -3.377031e+00 2.791868e-01 5.674137e+01 3.901581e-02 3.000011e-01 2.421530e-01 -7.113010e-03 1.210260e-01 1.541657e-01 1.332438e-02 -4.589609e-02 -1.278648e-01 5.821633e-02 -1.818284e-01 8.334128e-02 1.760092e+00 7.647426e-01 5.601138e-01 7.072002e-01 3.655733e-01 -7.093883e-01 -3.665845e-01 -2.323470e-01 -6.012551e-01 -3.452170e-01 -5.495151e-01 9.058194e-03 -4.031271e-01 -2.643392e-02
<VARIANCE> 39
 3.490126e+01 2.704922e+01 5.714532e+01 4.506669e+01 3.223814e+01 3.610972e+01 4.279897e+01 3.741700e+01 3.710537e+01 2.730311e+01 2.269995e+01 1.711985e+01 2.462014e+01 3.434618e+00 3.218278e+00 4.305731e+00 4.108878e+00 3.530323e+00 3.256355e+00 3.087965e+00 4.148068e+00 3.447674e+00 2.976559e+00 2.139165e+00 2.167696e+00 2.958559e+00 4.489754e-01 5.409793e-01 6.575866e-01 9.430311e-01 7.359567e-01 6.635248e-01 7.380393e-01 8.650796e-01 9.360375e-01 5.214520e-01 6.378521e-01 5.249271e-01 4.847011e-01
<GCONST> 1.265276e+02
<STATE> 4
<MEAN> 39
 -7.997247e+00 6.405940e-01 -1.483033e+00 -3.754398e+00 -2.814908e+00 -6.255075e+00 -5.182804e+00 -2.398020e+00 -6.305752e+00 3.126502e-01 -4.804148e+00 -1.623717e+00 5.886025e+01 2.651823e+00 6.837574e-01 1.487836e+00 -4.634862e-02 -2.575023e+00 -1.128319e+00 -1.069116e+00 -1.521584e+00 -1.502334e+00 -1.308888e+00 -2.820128e-01 -1.429304e+00 1.870041e+00 1.350936e-01 -4.561733e-01 -2.372340e-01 -3.291041e-01 -3.350380e-01 -2.129966e-02 -1.587834e-01 5.970119e-02 -7.913125e-02 1.862921e-02 1.446312e-01 -2.645686e-01 2.987189e-02
<VARIANCE> 39
 4.192252e+01 2.635097e+01 5.214007e+01 3.553428e+01 3.625825e+01 4.823204e+01 3.934829e+01 3.450497e+01 4.091120e+01 3.127221e+01 2.935135e+01 2.040342e+01 3.013126e+01 1.752330e+00 2.481141e+00 3.203222e+00 5.434441e+00 3.011009e+00 3.858470e+00 4.564035e+00 4.640048e+00 7.568981e+00 3.296623e+00 4.919270e+00 3.271263e+00 1.719076e+00 4.916593e-01 3.882817e-01 4.854355e-01 5.198428e-01 6.788811e-01 5.946410e-01 5.234166e-01 6.588192e-01 7.491453e-01 5.272315e-01 4.680089e-01 4.602633e-01 3.237661e-01
<GCONST> 1.256164e+02
<TRANSP> 5
 0.000000e+00 1.000000e+00 0.000000e+00 0.000000e+00 0.000000e+00
 0.000000e+00 7.718968e-01 2.281032e-01 0.000000e+00 0.000000e+00
 0.000000e+00 0.000000e+00 6.581734e-01 3.418266e-01 0.000000e+00
 0.000000e+00 0.000000e+00 0.000000e+00 3.993836e-01 6.006164e-01
 0.000000e+00 0.000000e+00 0.000000e+00 0.000000e+00 0.000000e+00
<ENDHMM>
~h "l"
<BEGINHMM>
<NUMSTATES> 5
<STATE> 2
<MEAN> 39
 -4.113765e+00 -8.882691e-01 3.475870e+00 -5.134097e+00 -5.685901e+00 -8.050054e+00 -1.134083e+01 -5.876588e+00 -7.019498e+00 -1.947260e+00 -3.971215e+00 -5.702664e+00 6.316764e+01 1.800986e-01 8.216308e-01 7.333375e-01 -5.312879e-02 1.113968e+00 7.709011e-01 -5.943401e-01 -1.122835e+00 -5.790475e-01 -2.845900e-01 -2.269684e-01 -1.970342e-01 -8.333297e-01 -1.324639e-01 -1.267342e-01 -1.354515e-01 -1.831043e-01 -2.510443e-01 -1.211035e-01 2.201613e-01 2.884331e-01 1.673530e-02 3.988417e-02 6.217324e-02 1.034057e-01 2.060385e-01
<VARIANCE> 39
 1.842354e+01 2.880440e+01 6.350937e+01 7.372979e+01 3.497251e+01 5.596764e+01 4.181697e+01 5.753390e+01 6.203765e+01 4.448168e+01 6.196784e+01 3.501270e+01 2.899939e+01 1.080320e+00 1.373943e+00 2.164826e+00 2.797932e+00 2.906562e+00 2.971534e+00 2.769783e+00 2.938076e+00 3.314977e+00 2.887274e+00 2.550478e+00 2.350203e+00 1.063546e+00 1.820675e-01 2.374675e-01 3.393132e-01 3.975897e-01 5.332076e-01 5.419527e-01 5.270456e-01 6.023188e-01 6.176617e-01 4.914881e-01 4.118660e-01 4.068545e-01 1.833052e-01
<GCONST> 1.190921e+02
<STATE> 3
<MEAN> 39
 -3.979936e+00 5.604375e-01 5.462048e+00 -5.337972e+00 -4.709615e+00 -6.892268e+00 -1.245299e+01 -7.450591e+00 -8.117143e+00 -2.448979e+00 -4.222865e+00 -5.740576e+00 6.214736e+01 -1.489068e-01 -2.974720e-01 -5.866208e-02 -2.977951e-01 -4.376321e-01 -3.262290e-01 3.026974e-01 4.723263e-01 -9.984915e-02 9.314511e-02 6.803668e-02 1.117035e-01 3.818420e-01 -9.224786e-02 -3.713876e-01 -3.818697e-01 -4.712309e-02 -5.499320e-01 -3.364820e-01 3.195022e-01 4.987512e-01 2.027498e-01 1.881047e-01 2.026728e-01 1.110144e-01 4.212865e-01
<VARIANCE> 39
 1.797600e+01 2.558374e+01 6.078912e+01 7.082308e+01 3.139375e+01 6.248122e+01 3.998925e+01 5.674226e+01 4.976280e+01 4.648560e+01 5.637115e+01 4.102181e+01 2.076475e+01 4.744996e-01 1.013347e+00 1.520622e+00 1.691009e+00 2.064983e+00 2.643073e+00 2.241258e+00 3.004117e+00 2.726046e+00 1.942481e+00 1.676862e+00 1.555080e+00 7.413685e-01 1.339429e-01 2.132067e-01 2.973271e-01 4.177016e-01 5.703391e-01 6.794238e-01 6.028302e-01 7.803634e-01 6.811693e-01 5.408015e-01 5.041425e-01 5.677943e-01 1.426400e-01
<GCONST> 1.146116e+02
<STATE> 4
<MEAN> 39
 -6.963850e+00 -4.064693e-01 8.626863e+00 -9.784438e+00 -9.681117e+00 -1.141631e+01 -9.789224e+00 -6.422922e+00 -1.169743e+01 -3.213556e+00 -6.398170e+00 -5.113607e+00 6.372784e+01 -1.903967e-02 -1.543688e-01 -1.520593e-01 -6.762067e-02 -3.018773e-01 -7.199833e-02 2.015134e-01 2.177929e-01 4.622393e-02 1.803754e-01 1.116811e-01 9.532648e-02 1.597908e-01 1.250066e-02 1.383645e-03 -5.872843e-02 6.619295e-02 1.051756e-02 2.767382e-02 1.138992e-02 1.047292e-02 5.659339e-02 1.366391e-03 -8.996594e-03 -7.340031e-03 -2.343136e-02
<VARIANCE> 39
 1.909675e+01 2.964610e+01 5.712342e+01 8.504934e+01 4.884637e+01 3.712365e+01 3.452118e+01 6.110941e+01 6.349173e+01 5.275743e+01 8.165658e+01 5.396693e+01 1.911795e+01 3.074509e-01 6.805787e-01 8.107365e-01 1.095765e+00 1.471821e+00 1.409542e+00 1.284011e+00 1.624153e+00 1.499381e+00 1.368551e+00 1.280444e+00 1.149845e+00 5.292373e-01 4.207204e-02 9.106782e-02 9.606487e-02 1.612152e-01 1.684367e-01 1.580175e-01 1.887306e-01 1.897434e-01 1.875137e-01 1.857194e-01 1.824840e-01 1.475283e-01 4.943515e-02
<GCONST> 9.470387e+01
<TRANSP> 5
 0.000000e+00 1.000000e+00 0.000000e+00 0.000000e+00 0.000000e+00
 0.000000e+00 4.665786e-01 5.334214e-01 0.000000e+00 0.000000e+00
 0.000000e+00 0.000000e+00 4.940689e-01 5.059311e-01 0.000000e+00
 0.000000e+00 0.000000e+00 0.000000e+00 7.834762e-01 2.165239e-01
 0.000000e+00 0.000000e+00 0.000000e+00 0.000000e+00 0.000000e+00
<ENDHMM>
~h "m"
<BEGINHMM>
<NUMSTATES> 5
<STATE> 2
<MEAN> 39
 -6.683778e-01 2.237529e+00 1.592906e+00 2.298736e-01 -5.879270e+00 -4.658143e+00 -2.801906e+00 -1.118547e+01 -1.192492e+01 -1.321000e+00 -4.601173e+00 -5.078845e+00 5.923710e+01 5.333050e-01 5.260845e-01 6.207886e-01 1.427862e+00 -3.562458e-01 -7.782129e-02 1.315791e+00 -2.166301e+00 -1.511179e+00 -1.124119e-01 -5.298880e-01 -4.848238e-02 -3.325159e-01 -2.454645e-01 -3.204586e-01 -1.400444e-01 -3.121553e-01 -1.013759e-01 -4.698990e-02 -3.160191e-01 5.112448e-01 3.699124e-01 1.281699e-02 1.590915e-01 5.842164e-02 3.593008e-01
<VARIANCE> 39
 1.375599e+01 2.666137e+01 2.259479e+01 3.816953e+01 2.814781e+01 4.018647e+01 6.201866e+01 4.068711e+01 4.916022e+01 2.989046e+01 5.615985e+01 3.819361e+01 3.032459e+01 2.260133e+00 1.991683e+00 2.501177e+00 3.255893e+00 3.084334e+00 2.395086e+00 4.238381e+00 3.064357e+00 3.401381e+00 2.608129e+00 2.896409e+00 2.236256e+00 2.078945e+00 2.432134e-01 2.741199e-01 3.522458e-01 3.819814e-01 4.415663e-01 2.924824e-01 5.976207e-01 5.868510e-01 5.693765e-01 3.636433e-01 3.852967e-01 3.115970e-01 1.516283e-01
<GCONST> 1.171405e+02
<STATE> 3
<MEAN> 39
 9.607787e-02 1.038403e+00 2.540877e+00 4.015105e-01 -6.925197e+00 -5.158627e+00 -2.548453e+00 -1.377279e+01 -1.463800e+01 -2.206334e+00 -7.751586e+00 -5.490200e+00 5.962472e+01 2.966692e-02 -2.886771e-01 -5.438069e-02 -7.950678e-02 2.355949e-02 -3.549810e-02 -1.740786e-02 1.487293e-01 9.202659e-02 -7.191391e-02 1.286757e-01 -1.946374e-02 2.668792e-01 -6.568792e-02 -3.001361e-01 -2.884980e-01 -6.400366e-01 7.812755e-02 2.997591e-02 -3.995505e-01 7.671474e-01 3.949458e-01 6.312380e-02 1.960196e-01 -1.043600e-01 2.913716e-01
<VARIANCE> 39
 7.143291e+00 2.362754e+01 1.847980e+01 3.803123e+01 2.779850e+01 4.606554e+01 6.730398e+01 3.192369e+01 5.052991e+01 3.262072e+01 8.151614e+01 4.915214e+01 1.754992e+01 2.483764e-01 6.588025e-01 9.099897e-01 1.348596e+00 1.041978e+00 1.214356e+00 1.155261e+00 1.537894e+00 1.254636e+00 1.313344e+00 1.417528e+00 1.180134e+00 4.888414e-01 1.047875e-01 1.455731e-01 3.298616e-01 3.060674e-01 3.107145e-01 2.500592e-01 5.024332e-01 4.232152e-01 4.996359e-01 3.608791e-01 4.020404e-01 3.609082e-01 8.376721e-02
<GCONST> 9.955753e+01
<STATE> 4
<MEAN> 39
 2.577765e-03 -1.156892e+00 -3.598993e-01 -2.491406e+00 -6.525702e+00 -4.283632e+00 -3.610752e+00 -1.046573e+01 -1.244020e+01 -1.868116e+00 -3.872679e+00 -6.596056e+00 6.249819e+01 -2.772863e-01 -1.475453e+00 -9.069584e-01 -2.117625e+00 2.870813e-01 1.854264e-01 -1.514593e+00 2.627933e+00 1.502391e+00 1.241504e-01 4.925450e-01 -4.673973e-01 1.407796e+00 -2.129054e-01 -8.688658e-02 1.296668e-01 -1.131801e-01 -2.249489e-02 -4.758328e-03 -1.674785e-01 4.526481e-01 2.301170e-01 2.980664e-02 -1.962985e-01 2.963707e-02 9.744896e-02
<VARIANCE> 39
 7.697861e+00 2.597842e+01 2.645385e+01 5.611129e+01 2.187388e+01 4.606472e+01 6.644633e+01 4.222691e+01 6.316335e+01 2.669286e+01 6.696333e+01 4.086147e+01 2.422303e+01 7.322670e-01 1.288588e+00 3.603377e+00 2.638749e+00 2.521329e+00 2.462708e+00 3.461118e+00 3.852759e+00 4.237849e+00 2.858477e+00 3.075772e+00 3.362026e+00 7.510156e-01 1.006876e-01 1.985731e-01 3.726327e-01 6.564030e-01 3.979816e-01 3.328837e-01 5.240368e-01 7.357547e-01 6.410256e-01 3.873936e-01 4.612793e-01 4.140567e-01 1.535903e-01
<GCONST> 1.156025e+02
<TRANSP> 5
 0.000000e+00 1.000000e+00 0.000000e+00 0.000000e+00 0.000000e+00
 0.000000e+00 4.508793e-01 5.491207e-01 0.000000e+00 0.000000e+00
 0.000000e+00 0.000000e+00 6.699019e-01 3.300982e-01 0.000000e+00
 0.000000e+00 0.000000e+00 0.000000e+00 5.127870e-01 4.872130e-01
 0.000000e+00 0.000000e+00 0.000000e+00 0.000000e+00 0.000000e+00
<ENDHMM>
~h "n"
<BEGINHMM>
<NUMSTATES> 5
<STATE> 2
<MEAN> 39
 -2.589157e+00 2.757224e+00 2.305059e+00 3.215716e-01 -6.483415e+00 -7.297875e+00 -4.106763e+00 -1.087470e+01 -8.717862e+00 1.075368e-01 -7.362513e+00 -4.688958e+00 5.945055e+01 1.128255e+00 5.274357e-01 5.324885e-01 8.392361e-01 -7.301036e-01 -9.205351e-02 1.099871e+00 -2.541085e+00 -9.060747e-01 6.486349e-01 -1.069492e+00 1.639193e-01 -3.117777e-01 -2.211969e-01 -3.967791e-01 -1.687276e-01 -4.013918e-01 -2.013258e-02 5.051129e-02 -3.211324e-01 5.117755e-01 2.590671e-01 -5.633810e-02 1.935346e-01 2.863049e-03 4.015492e-01
<VARIANCE> 39
 1.542951e+01 2.838196e+01 2.235418e+01 3.339381e+01 3.073023e+01 4.036055e+01 5.061892e+01 5.381067e+01 4.763805e+01 4.569619e+01 5.599467e+01 2.950114e+01 4.273944e+01 1.855401e+00 2.146761e+00 3.098298e+00 2.214922e+00 3.077930e+00 3.266889e+00 4.493706e+00 3.821822e+00 2.814850e+00 3.240813e+00 2.957901e+00 3.006624e+00 3.009088e+00 2.563865e-01 2.705601e-01 3.714267e-01 2.857004e-01 4.342951e-01 3.883996e-01 6.644187e-01 9.404815e-01 4.638326e-01 4.886400e-01 3.893543e-01 3.210025e-01 1.985467e-01
<GCONST> 1.198731e+02
<STATE> 3
<MEAN> 39
 -6.266972e-01 1.539898e+00 3.231596e+00 -4.027942e-01 -8.292185e+00 -7.867476e+00 -4.326894e+00 -1.430405e+01 -1.105634e+01 5.742653e-01 -1.072237e+01 -4.187221e+00 5.987230e+01 -5.789280e-02 -6.337343e-01 -2.571050e-01 -5.051413e-01 3.322053e-01 4.187786e-02 -5.606432e-01 6.163650e-01 1.297793e-01 -1.021391e-01 1.043868e-01 -1.792299e-01 5.510708e-01 -2.627898e-01 -3.969681e-01 -3.333374e-01 -5.864083e-01 3.148044e-01 6.770642e-02 -4.965238e-01 1.140020e+00 1.937593e-01 -2.523335e-01 2.958374e-01 -2.465908e-01 3.971815e-01
<VARIANCE> 39
 7.105177e+00 2.007185e+01 1.887446e+01 3.272359e+01 2.030080e+01 4.865351e+01 5.784547e+01 3.833777e+01 4.038553e+01 4.215358e+01 7.834679e+01 5.348056e+01 1.559389e+01 4.774633e-01 1.235758e+00 1.266313e+00 1.670541e+00 1.625430e+00 1.480898e+00 2.419450e+00 3.606590e+00 1.587474e+00 1.664691e+00 1.819543e+00 1.926909e+00 9.995355e-01 1.459753e-01 2.120920e-01 3.806156e-01 3.666270e-01 3.884351e-01 3.523631e-01 7.024072e-01 7.228250e-01 4.191021e-01 4.493969e-01 4.263892e-01 4.758043e-01 1.388757e-01
<GCONST> 1.083324e+02
<STATE> 4
<MEAN> 39
 -2.088850e+00 -2.205189e+00 5.301335e-01 -4.037421e+00 -4.831452e+00 -7.729722e+00 -8.306052e+00 -7.047145e+00 -8.606444e+00 -3.640085e-01 -8.108964e+00 -6.356497e+00 6.411638e+01 -3.360747e-01 -1.315635e+00 -1.006967e+00 -1.784276e+00 5.502119e-01 4.252959e-01 -1.193130e+00 2.583952e+00 4.323256e-01 -5.439088e-01 5.367798e-01 -4.724395e-01 1.218452e+00 1.013979e-02 1.939743e-01 -1.160636e-02 2.691807e-02 -2.662298e-01 1.746744e-01 3.203948e-01 -1.297187e-01 -5.503650e-02 5.778519e-05 5.389791e-02 1.240701e-01 -1.543443e-01
<VARIANCE> 39
 8.345039e+00 2.257702e+01 2.631551e+01 4.428746e+01 2.656094e+01 4.109804e+01 4.217979e+01 4.527682e+01 7.406504e+01 4.492260e+01 6.789637e+01 2.988186e+01 2.223458e+01 7.703121e-01 1.537134e+00 2.340616e+00 2.497070e+00 2.568114e+00 1.897240e+00 3.691298e+00 4.648444e+00 3.292191e+00 2.520749e+00 2.085763e+00 2.262012e+00 9.032894e-01 8.905189e-02 1.840604e-01 2.297876e-01 3.509804e-01 3.093698e-01 2.956164e-01 5.087067e-01 6.815199e-01 3.853858e-01 3.704074e-01 3.131271e-01 2.681369e-01 1.308920e-01
<GCONST> 1.107426e+02
<TRANSP> 5
 0.000000e+00 1.000000e+00 0.000000e+00 0.000000e+00 0.000000e+00
 0.000000e+00 4.637931e-01 5.362069e-01 0.000000e+00 0.000000e+00
 0.000000e+00 0.000000e+00 6.150225e-01 3.849775e-01 0.000000e+00
 0.000000e+00 0.000000e+00 0.000000e+00 4.482634e-01 5.517366e-01
 0.000000e+00 0.000000e+00 0.000000e+00 0.000000e+00 0.000000e+00
<ENDHMM>
~h "o"
<BEGINHMM>
<NUMSTATES> 5
<STATE> 2
<MEAN> 39
 -1.211642e+00 8.794969e-01 -3.647193e+00 -8.956954e+00 -6.107187e+00 -3.730203e+00 -1.040553e+01 -7.079916e+00 -7.951283e+00 6.092236e-01 -2.337241e+00 -3.907247e+00 6.310602e+01 2.130483e+00 -4.807063e-01 -5.327328e-01 -2.178337e+00 -1.973949e+00 5.477301e-01 -8.771265e-01 -1.146348e+00 -9.908549e-01 1.374273e-01 6.532900e-01 -3.924293e-01 1.562241e+00 -6.312096e-01 -1.436214e-01 8.821376e-02 2.047681e-01 2.287444e-01 1.389210e-01 3.444539e-01 3.907030e-01 1.665564e-01 7.678289e-03 1.158721e-01 1.148881e-01 -3.637615e-01
<VARIANCE> 39
 1.460678e+01 2.644048e+01 2.354811e+01 4.682730e+01 3.534976e+01 5.698958e+01 5.871142e+01 3.377423e+01 5.505193e+01 3.214745e+01 5.266424e+01 4.135186e+01 3.048195e+01 2.543499e+00 2.694219e+00 2.801975e+00 4.175441e+00 4.076646e+00 4.130146e+00 4.548755e+00 5.238970e+00 5.142941e+00 3.397541e+00 4.101872e+00 3.683390e+00 1.967881e+00 4.652126e-01 3.904029e-01 3.267532e-01 5.230591e-01 5.240710e-01 3.767310e-01 5.627448e-01 5.548459e-01 5.338123e-01 5.141048e-01 4.598027e-01 3.654559e-01 2.979766e-01
<GCONST> 1.245069e+02
<STATE> 3
<MEAN> 39
 -6.501691e-01 -1.231226e+00 -4.587484e+00 -1.128384e+01 -8.123105e+00 -1.597574e+00 -1.127847e+01 -7.841262e+00 -8.430087e+00 1.269014e+00 1.528333e-02 -3.750024e+00 6.560925e+01 1.971817e-01 -4.196374e-01 -5.925078e-02 -5.090722e-01 -3.173756e-01 4.284970e-01 -1.755471e-01 -1.292476e-01 -2.284013e-01 1.847497e-01 5.334902e-01 -1.512332e-01 3.757641e-01 -5.340675e-01 2.135452e-01 2.734715e-01 7.529978e-01 6.313367e-01 -2.734037e-01 3.221177e-01 3.607313e-01 2.401236e-01 -1.368010e-01 -2.930427e-01 4.439091e-02 -5.837024e-01
<VARIANCE> 39
 9.864332e+00 3.028533e+01 2.530980e+01 5.577042e+01 3.786111e+01 6.935440e+01 6.040936e+01 4.437945e+01 6.757392e+01 3.745594e+01 7.464860e+01 5.710825e+01 2.098113e+01 7.208689e-01 1.617491e+00 1.546552e+00 3.429982e+00 2.808406e+00 2.685693e+00 3.261660e+00 2.829548e+00 2.808724e+00 2.513989e+00 2.128000e+00 2.063123e+00 1.313086e+00 3.094661e-01 3.823541e-01 3.032294e-01 5.352181e-01 6.072057e-01 5.690065e-01 5.818109e-01 7.468110e-01 7.442847e-01 6.429586e-01 5.823810e-01 5.240613e-01 2.354646e-01
<GCONST> 1.201865e+02
<STATE> 4
<MEAN> 39
 -2.419126e-01 -8.897297e-01 -4.680924e+00 -1.484996e+01 -8.288001e+00 -8.741636e-01 -1.005146e+01 -6.498163e+00 -1.053858e+01 -1.054967e-01 -2.193974e-01 -4.605858e+00 6.454005e+01 -4.420440e-02 8.649148e-03 2.352457e-01 5.402138e-01 3.372860e-01 -2.595150e-01 6.257356e-03 2.711169e-02 5.911989e-02 -4.762093e-02 -1.539914e-01 -1.091863e-01 -3.228889e-01 -1.102727e-01 1.031550e-01 1.251666e-01 3.562037e-01 1.568979e-01 -1.595453e-01 5.060812e-02 2.163050e-02 7.172810e-02 -5.444948e-02 -1.192951e-01 5.552087e-03 -2.098223e-01
<VARIANCE> 39
 8.371412e+00 3.155196e+01 2.233024e+01 6.353835e+01 4.148244e+01 5.550520e+01 5.386697e+01 5.031860e+01 8.112735e+01 4.395410e+01 6.456580e+01 6.794347e+01 2.390686e+01 4.241557e-01 9.856171e-01 9.385238e-01 2.437825e+00 1.564226e+00 1.698186e+00 1.794017e+00 2.043319e+00 1.969075e+00 1.931342e+00 1.627606e+00 1.468130e+00 1.003168e+00 1.100921e-01 1.411169e-01 1.414155e-01 2.262541e-01 2.819706e-01 2.854578e-01 3.137827e-01 3.682565e-01 3.489506e-01 3.587577e-01 2.770011e-01 2.690819e-01 1.122688e-01
<GCONST> 1.051935e+02
<TRANSP> 5
 0.000000e+00 1.000000e+00 0.000000e+00 0.000000e+00 0.000000e+00
 0.000000e+00 3.285249e-01 6.714751e-01 0.000000e+00 0.000000e+00
 0.000000e+00 0.000000e+00 4.313372e-01 5.686628e-01 0.000000e+00
 0.000000e+00 0.000000e+00 0.000000e+00 7.882434e-01 2.117566e-01
 0.000000e+00 0.000000e+00 0.000000e+00 0.000000e+00 0.000000e+00
<ENDHMM>
~h "p"
<BEGINHMM>
<NUMSTATES> 5
<STATE> 2
<MEAN> 39
 -6.817059e+00 2.363589e+00 -7.935050e-01 -2.275043e+00 -3.735374e+00 -5.211163e+00 -4.382463e+00 -3.974653e+00 -5.555646e+00 -1.531946e+00 -3.178627e+00 -2.185609e+00 4.876205e+01 -6.985317e-01 -1.104617e-01 -4.292195e-01 7.674432e-04 4.344597e-02 1.866831e-01 2.153421e-01 2.792473e-01 4.323425e-01 4.040487e-02 1.455700e-01 2.889975e-01 -1.375343e+00 -9.142052e-02 -3.055060e-01 4.980582e-02 2.826286e-02 2.207009e-02 -2.945377e-03 -1.070816e-01 1.595965e-01 1.281188e-01 1.341889e-01 7.693356e-02 -2.000136e-02 7.630923e-01
<VARIANCE> 39
 3.180858e+01 3.162166e+01 3.166851e+01 3.250154e+01 2.731614e+01 3.333369e+01 3.072283e+01 2.733929e+01 3.903919e+01 2.691410e+01 3.009634e+01 2.279207e+01 3.027870e+01 1.458692e+00 1.508508e+00 1.569286e+00 1.442673e+00 1.697055e+00 1.838041e+00 2.155661e+00 2.271775e+00 2.419400e+00 1.943863e+00 1.701648e+00 1.268944e+00 2.442102e+00 2.578023e-01 3.518387e-01 3.786772e-01 3.733242e-01 4.437250e-01 3.847842e-01 4.113014e-01 4.435080e-01 4.014035e-01 4.168270e-01 3.180889e-01 2.576738e-01 4.825121e-01
<GCONST> 1.106724e+02
<STATE> 3
<MEAN> 39
 -1.042350e+01 1.341409e+00 -1.484591e+00 -1.650068e+00 -2.391165e+00 -3.516711e+00 -3.747455e+00 -1.777834e+00 -3.143913e+00 -3.516669e-01 -1.722087e+00 -1.234999e+00 4.749343e+01 -8.295095e-02 -1.095156e+00 3.829214e-01 7.779125e-01 4.928052e-01 -6.371620e-02 -2.325567e-01 8.498349e-01 9.715798e-01 7.149106e-01 3.889517e-01 9.183111e-02 2.908008e+00 7.383549e-01 -2.244667e-01 1.703505e-01 -1.009406e-01 -3.749336e-01 -3.903851e-01 -4.360860e-01 -2.019309e-01 -2.336758e-01 -3.051651e-02 -1.009843e-02 -2.230699e-01 1.344771e+00
<VARIANCE> 39
 1.534305e+01 1.973277e+01 2.012912e+01 2.367703e+01 2.308377e+01 2.546073e+01 2.407946e+01 1.918644e+01 2.520203e+01 1.743947e+01 1.630143e+01 1.518885e+01 3.062246e+01 3.313884e+00 2.255957e+00 2.812511e+00 2.892288e+00 2.805656e+00 3.319695e+00 3.243520e+00 2.996503e+00 3.427523e+00 2.563401e+00 2.367865e+00 1.935315e+00 4.036395e+00 2.837331e-01 3.522995e-01 4.784179e-01 5.399649e-01 4.551657e-01 5.777857e-01 4.605098e-01 4.821362e-01 5.329443e-01 4.699662e-01 4.075302e-01 3.319172e-01 5.200078e-01
<GCONST> 1.142561e+02
<STATE> 4
<MEAN> 39
 -8.741792e+00 -1.977059e+00 -2.355348e-01 3.103350e-01 -1.548996e+00 -4.805309e+00 -5.375638e+00 -5.382211e-01 -1.316943e+00 1.670854e+00 -1.000924e+00 -1.059834e+00 5.929162e+01 2.153512e+00 -9.889576e-01 3.595839e-01 -4.615365e-01 -1.288567e+00 -1.052416e+00 -1.437406e+00 -3.454271e-01 -6.019900e-01 -4.209910e-02 -6.820840e-03 -6.590158e-01 3.797062e+00 3.937523e-01 7.442590e-02 -6.567587e-02 -5.297377e-01 -6.632079e-01 -2.351410e-01 -2.588093e-01 -3.490153e-01 -6.046528e-01 -3.073265e-01 -2.367475e-01 -3.194344e-01 -4.276227e-01
<VARIANCE> 39
 2.879076e+01 1.759686e+01 2.484365e+01 2.507151e+01 2.190286e+01 2.916391e+01 3.862112e+01 2.491692e+01 2.410309e+01 2.026813e+01 1.969183e+01 1.540245e+01 2.963574e+01 3.282404e+00 3.200330e+00 4.353456e+00 4.811940e+00 4.020129e+00 5.383098e+00 4.188194e+00 4.033978e+00 4.896309e+00 3.588311e+00 3.467515e+00 2.703460e+00 4.995116e+00 6.576630e-01 5.343959e-01 5.127539e-01 6.883726e-01 5.952600e-01 7.371202e-01 7.869294e-01 7.677863e-01 9.650562e-01 5.345781e-01 6.797616e-01 4.657918e-01 5.951723e-01
<GCONST> 1.252259e+02
<TRANSP> 5
 0.000000e+00 1.000000e+00 0.000000e+00 0.000000e+00 0.000000e+00
 0.000000e+00 7.556541e-01 2.443459e-01 0.000000e+00 0.000000e+00
 0.000000e+00 0.000000e+00 4.809193e-01 5.190807e-01 0.000000e+00
 0.000000e+00 0.000000e+00 0.000000e+00 4.853896e-01 5.146104e-01
 0.000000e+00 0.000000e+00 0.000000e+00 0.000000e+00 0.000000e+00
<ENDHMM>
~h "r"
<BEGINHMM>
<NUMSTATES> 5
<STATE> 2
<MEAN> 39
 -5.820580e+00 -6.834311e-01 -8.448961e-01 4.879974e-01 -3.791057e+00 -7.999386e+00 -5.243883e+00 -7.675453e-01 -3.831193e+00 -1.112955e-01 -5.224353e+00 -3.234112e+00 6.289891e+01 -1.105106e-01 6.132729e-01 2.687561e-01 8.154607e-01 1.305875e+00 5.720775e-01 6.185790e-01 -1.800706e-01 -4.750043e-01 -3.964784e-01 -4.068541e-01 1.325601e-01 -6.295729e-01 -2.849851e-02 -5.994302e-02 1.579136e-01 -3.048326e-01 -2.944781e-01 1.238152e-01 9.020003e-03 -1.586908e-01 -2.502428e-01 -8.698168e-02 2.781402e-01 -6.091123e-02 1.086232e-01
<VARIANCE> 39
 3.051067e+01 3.080493e+01 4.319669e+01 3.572469e+01 5.531709e+01 5.166676e+01 4.368546e+01 5.536942e+01 8.660368e+01 4.810226e+01 4.586340e+01 2.732607e+01 2.992210e+01 2.698162e+00 2.022871e+00 3.643861e+00 2.642796e+00 5.358043e+00 5.143299e+00 2.788155e+00 3.417949e+00 3.486980e+00 2.867306e+00 2.266478e+00 1.650923e+00 1.468630e+00 2.369928e-01 2.665714e-01 2.715532e-01 3.061395e-01 6.578727e-01 5.380843e-01 4.795828e-01 5.910421e-01 5.352574e-01 5.652956e-01 4.686775e-01 2.492369e-01 1.730088e-01
<GCONST> 1.213739e+02
<STATE> 3
<MEAN> 39
 -6.961485e+00 5.157197e-01 1.659878e+00 1.725904e+00 -4.662047e-01 -4.249071e+00 -2.787946e+00 -1.038593e+00 -4.720988e+00 -1.125473e+00 -4.420352e+00 -2.929702e+00 6.204091e+01 3.279112e-01 1.019181e-01 1.802450e-01 -1.530462e-01 -4.825976e-01 1.301711e-01 2.500269e-01 -3.635570e-01 -5.493701e-01 -3.558636e-01 3.044049e-01 -1.845784e-01 4.710134e-02 2.612087e-01 -2.195783e-01 -1.958903e-01 -3.579835e-01 -6.845337e-01 -3.013662e-01 -2.192233e-01 -2.918216e-02 -1.529259e-02 2.178425e-02 6.916112e-02 -8.116014e-02 2.938546e-01
<VARIANCE> 39
 1.941428e+01 2.731872e+01 5.233518e+01 3.027426e+01 4.264362e+01 5.098978e+01 4.746703e+01 4.407559e+01 6.235004e+01 2.579912e+01 4.775453e+01 3.074979e+01 2.733284e+01 1.867663e+00 1.089220e+00 2.045893e+00 1.551787e+00 4.033800e+00 2.450897e+00 1.716350e+00 1.848104e+00 2.263278e+00 1.751519e+00 2.030031e+00 1.212849e+00 4.684877e-01 2.236770e-01 2.028616e-01 3.168107e-01 2.746842e-01 3.882642e-01 3.438616e-01 3.685947e-01 3.455097e-01 3.978029e-01 3.040765e-01 3.180334e-01 2.440410e-01 9.795194e-02
<GCONST> 1.088630e+02
<STATE> 4
<MEAN> 39
 -6.073885e+00 3.267914e-01 2.380560e+00 -2.844824e+00 -7.701605e+00 -9.369856e+00 -4.625306e+00 -7.773446e+00 -1.276673e+01 -5.574008e+00 -1.083484e+01 -6.213425e+00 6.117363e+01 6.263357e-01 -5.465271e-01 -2.566413e-01 -6.676495e-01 -1.111851e+00 -3.871875e-01 -3.196413e-01 2.292979e-01 -9.333045e-02 2.304847e-01 6.910535e-02 -5.821108e-02 5.501701e-01 -3.915632e-02 -2.461987e-01 -9.819340e-02 -1.173121e-01 1.192700e-02 -6.067028e-02 -1.670058e-01 2.715806e-01 1.777490e-01 2.324111e-01 1.647910e-01 5.365786e-02 1.264907e-01
<VARIANCE> 39
 1.146695e+01 2.727569e+01 4.815436e+01 4.627246e+01 5.347057e+01 4.204665e+01 2.489793e+01 6.683727e+01 6.345446e+01 3.671288e+01 5.852625e+01 2.511893e+01 1.754946e+01 1.187783e+00 1.398391e+00 2.106367e+00 1.935504e+00 2.797147e+00 1.936281e+00 1.705444e+00 2.416342e+00 1.832600e+00 1.796928e+00 1.635642e+00 1.354546e+00 5.589212e-01 1.345664e-01 1.606950e-01 2.296204e-01 2.731242e-01 2.695493e-01 2.672590e-01 2.417676e-01 3.417362e-01 3.149460e-01 2.653477e-01 2.579010e-01 1.991400e-01 8.065635e-02
<GCONST> 1.049062e+02
<TRANSP> 5
 0.000000e+00 1.000000e+00 0.000000e+00 0.000000e+00 0.000000e+00
 0.000000e+00 4.351028e-01 5.648972e-01 0.000000e+00 0.000000e+00
 0.000000e+00 0.000000e+00 5.668920e-01 4.331080e-01 0.000000e+00
 0.000000e+00 0.000000e+00 0.000000e+00 6.090332e-01 3.909668e-01
 0.000000e+00 0.000000e+00 0.000000e+00 0.000000e+00 0.000000e+00
<ENDHMM>
~h "s"
<BEGINHMM>
<NUMSTATES> 5
<STATE> 2
<MEAN> 39
 -1.362759e+01 6.548534e+00 -8.708268e-01 -9.705797e-01 -1.657857e+00 -8.780784e+00 -5.875725e+00 -3.466672e+00 -5.741438e+00 -1.896973e+00 -3.862899e+00 -2.976640e+00 6.304686e+01 -3.843130e+00 1.500219e+00 -9.649029e-01 3.950740e-01 1.437732e+00 2.541999e-01 8.666347e-01 1.226762e+00 1.066436e+00 2.114469e-02 7.932956e-01 7.889785e-01 -3.671375e-01 -9.358341e-02 -5.775917e-01 -2.034319e-01 -3.505169e-01 -3.525624e-01 9.421503e-02 -7.782867e-02 1.377416e-01 2.934008e-02 1.596376e-01 8.742845e-02 1.609239e-03 7.080396e-02
<VARIANCE> 39
 5.441258e+01 3.364543e+01 3.862670e+01 3.064644e+01 5.691040e+01 4.793497e+01 5.314097e+01 4.083869e+01 5.180640e+01 4.174914e+01 3.972625e+01 2.622477e+01 2.637108e+01 2.306298e+00 3.804886e+00 2.626521e+00 3.122013e+00 3.700195e+00 3.565417e+00 4.062496e+00 3.541683e+00 3.498724e+00 2.846725e+00 2.949825e+00 1.810689e+00 7.172775e-01 8.689032e-01 5.113453e-01 3.447240e-01 3.879642e-01 5.212980e-01 4.622025e-01 5.619378e-01 6.134339e-01 5.066542e-01 4.746678e-01 4.481890e-01 3.015088e-01 9.189943e-02
<GCONST> 1.217991e+02
<STATE> 3
<MEAN> 39
 -2.561202e+01 5.719224e+00 -5.741314e+00 -1.600465e+00 -3.119717e-01 -6.729144e+00 -2.671569e+00 6.787127e-01 -1.831252e+00 -2.663024e-01 -9.370115e-01 -1.422386e-01 6.226245e+01 -4.584233e-01 -5.507367e-01 -4.151937e-02 -9.537897e-02 3.157680e-02 2.734552e-01 3.785289e-01 3.047491e-01 2.462871e-01 1.409464e-01 7.977603e-02 1.200390e-01 -1.391320e-01 7.275429e-01 -1.004677e-01 3.364577e-01 7.064302e-02 -1.282264e-01 -1.038739e-01 -1.318107e-01 -2.039984e-01 -1.305501e-01 -4.574482e-02 -1.606264e-01 -1.460520e-01 2.055731e-02
<VARIANCE> 39
 1.260007e+01 1.727595e+01 2.229794e+01 2.000877e+01 4.741432e+01 3.199218e+01 4.510345e+01 2.835105e+01 2.732822e+01 2.128577e+01 1.649290e+01 1.569621e+01 2.667185e+01 1.403463e+00 9.592795e-01 1.395036e+00 1.003022e+00 1.222478e+00 1.320559e+00 1.368340e+00 1.390228e+00 1.343896e+00 1.276995e+00 1.224116e+00 9.686771e-01 2.797701e-01 3.047498e-01 1.942566e-01 2.003462e-01 2.185180e-01 2.580754e-01 2.886577e-01 3.196224e-01 3.127271e-01 3.034639e-01 2.774364e-01 2.794484e-01 2.026018e-01 6.008283e-02
<GCONST> 9.502320e+01
<STATE> 4
<MEAN> 39
 -1.997318e+01 2.879504e+00 -1.983721e+00 -1.315526e+00 -6.334834e-01 -7.046476e+00 -2.975290e+00 3.350992e-01 -1.616700e+00 2.082832e-01 -2.370351e+00 -1.192744e+00 6.171949e+01 4.334367e+00 -6.052204e-01 1.333214e+00 1.260329e-01 -1.478163e+00 -9.657701e-01 -1.505813e+00 -1.578985e+00 -7.751964e-01 -2.931120e-01 -9.070810e-01 -8.876678e-01 4.191413e-01 6.235365e-01 -4.733302e-02 -6.287527e-02 -1.925656e-01 -4.342754e-01 -1.205765e-01 -4.459396e-01 -3.884547e-01 -2.896104e-01 -8.745115e-02 -4.140185e-02 -1.939269e-01 3.183605e-01
<VARIANCE> 39
 5.405058e+01 1.748787e+01 2.983760e+01 1.945793e+01 4.409692e+01 3.908158e+01 5.293806e+01 3.622370e+01 3.091085e+01 2.517285e+01 2.310884e+01 1.742056e+01 2.328429e+01 3.432055e+00 2.211486e+00 3.022350e+00 3.151894e+00 2.874989e+00 3.099191e+00 3.296391e+00 2.913590e+00 3.464573e+00 2.356941e+00 2.553611e+00 1.705594e+00 1.402591e+00 1.016358e+00 3.594260e-01 4.037682e-01 4.245248e-01 4.353720e-01 5.358788e-01 6.383701e-01 5.901451e-01 5.764396e-01 4.035248e-01 4.747581e-01 3.269916e-01 1.732069e-01
<GCONST> 1.180692e+02
<TRANSP> 5
 0.000000e+00 1.000000e+00 0.000000e+00 0.000000e+00 0.000000e+00
 0.000000e+00 7.161927e-01 2.838073e-01 0.000000e+00 0.000000e+00
 0.000000e+00 0.000000e+00 8.478902e-01 1.521098e-01 0.000000e+00
 0.000000e+00 0.000000e+00 0.000000e+00 6.381689e-01 3.618311e-01
 0.000000e+00 0.000000e+00 0.000000e+00 0.000000e+00 0.000000e+00
<ENDHMM>
~h "t"
<BEGINHMM>
<NUMSTATES> 5
<STATE> 2
<MEAN> 39
 -7.603353e+00 2.904665e+00 3.546102e-01 -2.996603e+00 -4.043504e+00 -5.599741e+00 -5.278695e+00 -4.653635e+00 -6.396006e+00 -1.168660e+00 -3.982668e+00 -2.495191e+00 5.103718e+01 -1.619095e+00 -6.675836e-01 -5.111232e-01 -3.943466e-01 3.153807e-01 4.277462e-01 -3.649563e-02 8.012414e-01 1.005207e+00 1.115468e-01 5.120628e-01 4.078167e-01 -3.312237e-01 -3.027045e-01 -2.691462e-01 1.980552e-02 -8.098896e-02 -8.563958e-02 -1.075051e-01 -1.219404e-01 8.382519e-02 1.124712e-01 7.899100e-02 5.580891e-02 -5.330337e-02 1.040066e+00
<VARIANCE> 39
 3.037618e+01 2.377935e+01 4.097245e+01 3.511844e+01 2.655429e+01 2.917643e+01 3.412769e+01 3.320421e+01 4.223267e+01 2.964085e+01 3.541844e+01 2.500478e+01 3.617912e+01 3.397118e+00 2.306067e+00 2.409224e+00 2.377250e+00 2.641845e+00 2.414010e+00 3.162933e+00 3.509761e+00 2.982217e+00 2.728659e+00 2.597299e+00 1.726559e+00 6.067343e+00 5.154139e-01 4.621935e-01 4.273326e-01 4.677454e-01 5.514444e-01 4.413119e-01 4.970692e-01 6.040499e-01 4.896440e-01 5.187778e-01 4.039644e-01 3.385800e-01 6.670880e-01
<GCONST> 1.207618e+02
<STATE> 3
<MEAN> 39
 -2.234383e+01 -4.460833e-01 2.194507e+00 -3.964169e+00 -3.423777e+00 -2.731135e+00 -4.112240e+00 -1.005159e+00 -1.634996e+00 -1.092935e-01 -9.881849e-01 -1.216731e+00 6.026387e+01 -9.232178e-01 -5.304879e-01 2.044328e-01 4.756173e-01 3.667851e-02 -2.358460e-01 2.784289e-01 4.829114e-01 5.969746e-01 2.507442e-01 4.560148e-02 -2.046184e-03 1.762944e+00 1.171506e+00 2.091220e-01 3.335720e-02 1.618310e-01 -1.598395e-01 -3.440979e-01 -2.477175e-01 -3.212245e-01 -3.312235e-01 -1.044136e-01 -2.371071e-01 -2.276474e-01 -1.555900e-01
<VARIANCE> 39
 5.155077e+01 1.826298e+01 3.911126e+01 2.737126e+01 2.576829e+01 2.501178e+01 4.495452e+01 2.491111e+01 2.681478e+01 2.016747e+01 1.540000e+01 1.260601e+01 3.290346e+01 6.371393e+00 1.846881e+00 2.133434e+00 2.054075e+00 2.427284e+00 2.511189e+00 2.815435e+00 2.580869e+00 2.364841e+00 1.974839e+00 1.694852e+00 1.362267e+00 4.981198e+00 5.588545e-01 4.358061e-01 4.428629e-01 4.493749e-01 4.526127e-01 5.041680e-01 6.514957e-01 6.173101e-01 5.007177e-01 4.158073e-01 4.601177e-01 3.369402e-01 5.094323e-01
<GCONST> 1.162393e+02
<STATE> 4
<MEAN> 39
 -1.439225e+01 -3.382744e-01 -5.731353e-01 -1.254991e+00 -2.018035e+00 -6.965154e+00 -5.348761e+00 -8.303125e-01 -1.384360e+00 4.295878e-01 -3.007493e+00 -1.803788e+00 6.158073e+01 3.164597e+00 1.565766e-01 2.919216e-02 -1.868155e-01 -8.419814e-01 -1.123191e+00 -1.591402e+00 -1.358406e+00 -7.558468e-01 -2.570987e-01 -7.867282e-01 -1.005555e+00 1.568285e+00 7.364013e-01 1.243211e-02 -1.557114e-02 -4.809421e-01 -4.819007e-01 2.198852e-01 -1.875356e-01 -4.844647e-01 -5.679033e-01 -1.200678e-01 -3.003688e-02 -2.403780e-01 -4.461473e-01
<VARIANCE> 39
 4.642047e+01 1.882261e+01 3.266005e+01 2.883939e+01 3.253261e+01 3.450970e+01 5.235239e+01 3.170301e+01 3.241207e+01 2.754840e+01 2.399759e+01 1.584980e+01 2.554253e+01 3.740348e+00 3.076975e+00 3.323666e+00 3.971546e+00 3.752806e+00 4.308898e+00 3.869979e+00 4.231950e+00 5.506814e+00 3.539882e+00 3.805653e+00 2.551568e+00 6.067198e+00 8.947642e-01 5.148931e-01 4.146321e-01 5.405726e-01 6.395400e-01 6.880999e-01 9.335293e-01 9.200721e-01 7.299945e-01 5.400084e-01 7.755346e-01 5.363610e-01 5.212627e-01
<GCONST> 1.276574e+02
<TRANSP> 5
 0.000000e+00 1.000000e+00 0.000000e+00 0.000000e+00 0.000000e+00
 0.000000e+00 7.439115e-01 2.560885e-01 0.000000e+00 0.000000e+00
 0.000000e+00 0.000000e+00 6.364455e-01 3.635545e-01 0.000000e+00
 0.000000e+00 0.000000e+00 0.000000e+00 4.639143e-01 5.360857e-01
 0.000000e+00 0.000000e+00 0.000000e+00 0.000000e+00 0.000000e+00
<ENDHMM>
~h "u"
<BEGINHMM>
<NUMSTATES> 5
<STATE> 2
<MEAN> 39
 -2.052550e+00 1.581919e+00 -7.004732e-01 -4.319411e+00 -5.278214e+00 -5.752569e+00 -1.147184e+01 -7.749425e+00 -8.613564e+00 -2.449840e-01 -3.001768e+00 -4.632126e+00 6.101777e+01 1.776747e+00 3.749983e-01 -4.997176e-01 -1.383849e+00 -1.014009e+00 4.973160e-01 -5.057773e-01 -1.387322e+00 -1.456964e+00 4.767882e-02 1.850889e-01 -3.103169e-01 8.241381e-01 -4.694074e-01 -1.137639e-02 1.397428e-01 8.265132e-02 2.183085e-02 2.623605e-01 4.550981e-01 2.384675e-01 1.291213e-01 -7.537667e-02 -4.895111e-04 1.712499e-01 -2.779208e-01
<VARIANCE> 39
 1.745367e+01 3.164577e+01 2.346319e+01 5.245783e+01 3.735946e+01 5.160534e+01 5.823429e+01 3.677529e+01 4.966912e+01 3.528255e+01 5.468976e+01 4.196115e+01 4.211901e+01 3.101170e+00 2.291164e+00 2.418673e+00 3.957630e+00 4.392640e+00 4.172119e+00 4.788083e+00 4.427243e+00 4.546465e+00 3.508553e+00 3.750365e+00 2.774104e+00 3.038032e+00 4.639315e-01 4.424624e-01 2.992970e-01 5.797772e-01 5.925515e-01 4.814365e-01 6.175755e-01 6.035904e-01 5.811313e-01 4.797900e-01 4.752135e-01 3.700103e-01 2.699775e-01
<GCONST> 1.257921e+02
<STATE> 3
<MEAN> 39
 -6.816259e-01 1.206888e+00 -1.791903e+00 -6.319173e+00 -7.354685e+00 -2.600858e+00 -1.076800e+01 -9.582320e+00 -1.139288e+01 -4.617902e-01 -1.115237e+00 -4.735923e+00 6.272794e+01 2.446637e-01 1.795015e-01 6.320716e-02 -2.201280e-01 -3.058589e-01 3.668278e-01 3.159598e-01 -4.012173e-01 -3.942991e-01 -1.536032e-01 -1.194919e-01 1.922130e-02 -3.275368e-02 -5.877423e-01 4.155396e-02 2.512148e-01 5.708057e-01 3.641503e-01 -2.843395e-01 2.651952e-01 4.697407e-01 5.778211e-01 -5.005617e-02 -2.554438e-01 1.036306e-01 -3.721875e-01
<VARIANCE> 39
 1.250135e+01 2.911649e+01 2.542470e+01 4.919619e+01 3.411829e+01 5.281151e+01 6.557856e+01 4.163592e+01 6.294445e+01 4.359721e+01 6.706718e+01 5.355058e+01 2.643926e+01 9.310551e-01 2.036302e+00 1.405249e+00 3.119832e+00 2.550367e+00 2.725618e+00 4.440275e+00 3.283151e+00 3.270429e+00 2.304288e+00 2.573202e+00 1.873280e+00 1.780305e+00 3.438324e-01 3.674747e-01 3.640266e-01 5.631638e-01 6.230804e-01 5.686331e-01 7.538801e-01 7.674432e-01 7.938238e-01 5.762977e-01 5.882596e-01 4.486149e-01 2.876250e-01
<GCONST> 1.218000e+02
<STATE> 4
<MEAN> 39
 5.093778e-01 4.017910e+00 -1.348701e+00 -9.504283e+00 -7.914318e+00 -2.691843e+00 -8.348911e+00 -7.783887e+00 -1.138962e+01 -2.321805e+00 -3.235313e+00 -4.080967e+00 5.990716e+01 -1.961234e-01 4.996641e-02 2.258317e-01 3.616035e-01 2.060714e-01 -1.775816e-01 7.984759e-02 6.406106e-02 1.622072e-01 -3.006263e-02 -1.200249e-01 5.665848e-02 -1.714218e-01 -1.840162e-01 -5.054061e-02 7.360298e-02 2.028586e-01 1.402081e-01 -8.508056e-02 -4.077934e-02 9.556607e-02 1.318285e-01 6.651448e-03 2.399098e-02 1.851290e-02 -2.929965e-02
<VARIANCE> 39
 1.020803e+01 2.441990e+01 1.951678e+01 5.628378e+01 4.262519e+01 4.265534e+01 5.889042e+01 3.732164e+01 6.300222e+01 4.112254e+01 5.997604e+01 6.734802e+01 2.842318e+01 5.622112e-01 9.376487e-01 8.392669e-01 1.717275e+00 1.493997e+00 1.405987e+00 2.019972e+00 1.823773e+00 1.909398e+00 1.579399e+00 1.509990e+00 1.147530e+00 6.952952e-01 1.429494e-01 1.530692e-01 1.389907e-01 2.348269e-01 2.357700e-01 2.777595e-01 3.388151e-01 3.679597e-01 3.350247e-01 2.701925e-01 2.865868e-01 2.167696e-01 9.549642e-02
<GCONST> 1.023888e+02
<TRANSP> 5
 0.000000e+00 1.000000e+00 0.000000e+00 0.000000e+00 0.000000e+00
 0.000000e+00 3.402188e-01 6.597812e-01 0.000000e+00 0.000000e+00
 0.000000e+00 0.000000e+00 3.747975e-01 6.252026e-01 0.000000e+00
 0.000000e+00 0.000000e+00 0.000000e+00 7.590153e-01 2.409847e-01
 0.000000e+00 0.000000e+00 0.000000e+00 0.000000e+00 0.000000e+00
<ENDHMM>
~h "v"
<BEGINHMM>
<NUMSTATES> 5
<STATE> 2
<MEAN> 39
 -2.075347e+00 -9.656708e-01 -3.313599e+00 -3.601432e+00 -2.440890e+00 -4.243929e+00 -9.020492e+00 -6.131939e+00 -8.437399e+00 -1.105894e+00 -2.523927e+00 -5.692008e+00 6.120958e+01 -1.016982e+00 1.749854e+00 3.938664e-01 1.539018e+00 9.363702e-01 5.791399e-01 4.893137e-01 -3.667848e-01 -2.073724e-01 -5.629714e-01 -3.033400e-01 6.721306e-01 -1.469095e+00 -2.759303e-01 -3.479485e-01 -2.806024e-03 -2.076869e-01 -3.030978e-01 -1.252225e-01 3.187605e-02 4.714836e-01 2.422754e-01 6.005250e-02 -1.566742e-01 -1.867341e-01 4.211763e-01
<VARIANCE> 39
 1.152653e+01 2.109516e+01 2.458637e+01 3.330430e+01 1.833461e+01 4.387952e+01 3.424009e+01 2.666122e+01 5.538298e+01 4.178063e+01 5.527000e+01 3.425679e+01 1.894989e+01 1.421661e+00 1.157774e+00 1.482515e+00 2.044616e+00 1.815409e+00 2.193877e+00 2.187364e+00 2.602160e+00 2.532876e+00 1.924441e+00 2.673088e+00 1.869810e+00 6.062939e-01 1.355020e-01 1.660257e-01 1.996533e-01 2.675501e-01 2.288888e-01 2.562702e-01 2.990932e-01 2.956725e-01 3.038622e-01 3.003856e-01 3.362561e-01 2.914458e-01 1.085775e-01
<GCONST> 1.041187e+02
<STATE> 3
<MEAN> 39
 -7.090152e+00 2.091760e+00 -1.486329e+00 6.075609e-01 -1.607938e+00 -3.178424e+00 -5.690384e+00 -3.359881e+00 -5.965089e+00 -1.540704e+00 -3.400500e+00 -4.025860e+00 5.973844e+01 -4.815143e-01 6.312322e-02 2.970116e-01 1.273595e-01 -1.923515e-01 -1.729981e-01 3.966700e-02 1.295649e-03 6.276245e-02 -5.753190e-02 -7.767796e-02 1.141295e-01 8.298741e-02 5.698166e-01 -6.075540e-01 -6.592596e-02 -6.272134e-01 -4.767632e-01 -2.920664e-01 -3.249971e-01 -1.409337e-01 1.029665e-02 2.042196e-01 2.102964e-01 -1.563649e-01 5.425904e-01
<VARIANCE> 39
 2.134109e+01 1.809952e+01 2.857083e+01 2.924223e+01 1.672960e+01 2.949639e+01 3.866182e+01 3.025512e+01 4.634247e+01 3.788745e+01 3.496354e+01 2.674887e+01 2.056224e+01 1.877430e+00 9.216049e-01 1.185651e+00 1.649098e+00 1.223205e+00 1.673027e+00 1.746781e+00 1.928729e+00 1.659180e+00 1.336028e+00 1.482090e+00 9.597435e-01 5.285604e-01 2.702496e-01 2.163394e-01 2.898671e-01 3.883028e-01 3.257971e-01 4.345614e-01 3.429728e-01 5.230078e-01 4.565289e-01 3.944689e-01 4.398395e-01 2.999060e-01 1.340242e-01
<GCONST> 1.041765e+02
<STATE> 4
<MEAN> 39
 -3.719536e+00 -2.324605e-01 -3.042700e+00 -4.000216e+00 -3.410998e+00 -4.148838e+00 -8.945161e+00 -6.978148e+00 -7.734177e+00 -1.297137e+00 -2.486343e+00 -5.266402e+00 6.178082e+01 1.018826e+00 -1.408469e+00 -1.648459e-01 -1.569164e+00 -1.086189e+00 -7.528651e-01 -7.803489e-01 1.232010e-01 4.422579e-01 8.343956e-01 3.599179e-01 -3.460634e-01 1.253945e+00 3.074920e-02 -2.579421e-01 6.904713e-02 -1.608536e-01 -1.234954e-01 -2.111441e-01 -2.476093e-02 3.940053e-01 1.068591e-01 8.466135e-02 -1.503728e-01 -1.191937e-01 2.234672e-01
<VARIANCE> 39
 1.722850e+01 1.517390e+01 2.824578e+01 4.011630e+01 1.563147e+01 4.854430e+01 3.971534e+01 2.723428e+01 4.199351e+01 3.758962e+01 5.099266e+01 3.099232e+01 2.304538e+01 1.578297e+00 1.296826e+00 2.322293e+00 3.084582e+00 1.919795e+00 3.196474e+00 2.155316e+00 3.506298e+00 2.658224e+00 2.418248e+00 2.678129e+00 1.970943e+00 7.363768e-01 2.217231e-01 1.999621e-01 1.869133e-01 3.866036e-01 3.163356e-01 3.117441e-01 3.062310e-01 3.921825e-01 3.756545e-01 3.270847e-01 3.452522e-01 2.718756e-01 1.116223e-01
<GCONST> 1.086669e+02
<TRANSP> 5
 0.000000e+00 1.000000e+00 0.000000e+00 0.000000e+00 0.000000e+00
 0.000000e+00 5.057150e-01 4.942851e-01 0.000000e+00 0.000000e+00
 0.000000e+00 0.000000e+00 6.027888e-01 3.972111e-01 0.000000e+00
 0.000000e+00 0.000000e+00 0.000000e+00 4.497901e-01 5.502099e-01
 0.000000e+00 0.000000e+00 0.000000e+00 0.000000e+00 0.000000e+00
<ENDHMM>
~h "z"
<BEGINHMM>
<NUMSTATES> 5
<STATE> 2
<MEAN> 39
 -8.635132e+00 5.406324e+00 -2.139936e+00 3.023629e-01 -3.031998e+00 -1.246242e+01 -1.084270e+01 -7.094820e+00 -4.834774e+00 -7.472274e-01 -6.159654e+00 -4.865901e+00 6.390683e+01 -2.079461e+00 2.919899e+00 -6.783349e-01 9.242131e-01 1.575562e+00 -7.314683e-02 6.841263e-01 -3.709389e-03 4.528576e-01 -4.139162e-01 -2.415197e-01 3.951780e-01 -6.978828e-01 -2.003308e-01 -2.077164e-01 6.580537e-02 -3.072841e-01 -1.886223e-01 2.606468e-01 1.696293e-01 4.950686e-01 2.149765e-03 1.350540e-03 1.695949e-01 1.067820e-02 7.918292e-02
<VARIANCE> 39
 1.950713e+01 3.186150e+01 3.489684e+01 3.547114e+01 4.460971e+01 3.860670e+01 3.460413e+01 2.609462e+01 5.322273e+01 5.764157e+01 4.040501e+01 3.183531e+01 2.851306e+01 1.459845e+00 1.906267e+00 1.596470e+00 2.188427e+00 2.213312e+00 3.371821e+00 2.709832e+00 3.440331e+00 2.409946e+00 2.350317e+00 2.259530e+00 2.112433e+00 5.539905e-01 2.522222e-01 4.999305e-01 1.949542e-01 2.590535e-01 3.049024e-01 3.435370e-01 4.343265e-01 3.990591e-01 3.811292e-01 3.734584e-01 3.168002e-01 3.113768e-01 6.407316e-02
<GCONST> 1.111708e+02
<STATE> 3
<MEAN> 39
 -1.699336e+01 1.246601e+01 -1.090982e+00 1.638199e+00 2.034683e+00 -1.039972e+01 -7.311782e+00 -2.472426e+00 -2.938931e+00 -1.260486e+00 -4.329494e+00 -2.168628e+00 6.315201e+01 -8.203668e-01 1.160624e-01 3.133211e-01 3.113510e-02 1.178791e-01 2.043040e-01 3.383789e-01 3.431745e-01 3.539772e-02 -1.784300e-01 1.534567e-01 2.195111e-01 -5.600959e-02 7.338795e-01 -7.992182e-01 2.499271e-01 -1.274654e-01 -5.186409e-01 -1.367407e-01 -2.485635e-01 -2.666313e-01 -1.262038e-01 1.013541e-01 2.292024e-02 -1.086280e-01 2.094101e-01
<VARIANCE> 39
 2.237515e+01 1.850895e+01 3.216963e+01 2.961530e+01 4.505018e+01 4.579792e+01 4.445145e+01 3.484415e+01 4.257790e+01 3.358624e+01 2.266568e+01 2.362060e+01 2.392270e+01 1.804311e+00 1.418145e+00 1.402246e+00 9.165609e-01 1.607957e+00 1.867475e+00 2.057347e+00 2.075361e+00 1.696794e+00 1.416617e+00 1.044936e+00 1.154844e+00 2.778972e-01 2.564864e-01 3.448376e-01 1.952389e-01 2.428155e-01 2.893386e-01 3.909864e-01 3.402812e-01 3.784214e-01 3.015540e-01 2.647417e-01 2.183027e-01 2.490726e-01 6.633107e-02
<GCONST> 1.019332e+02
<STATE> 4
<MEAN> 39
 -1.338640e+01 7.799242e+00 -6.519915e-01 1.559040e+00 -1.997771e+00 -1.166110e+01 -8.591608e+00 -5.295788e+00 -3.407551e+00 -1.540817e+00 -5.251743e+00 -3.127886e+00 6.380691e+01 2.376819e+00 -2.646363e+00 5.678701e-01 -8.031300e-01 -1.727571e+00 -4.197184e-01 -8.155085e-01 -2.104489e-01 7.264152e-02 3.757095e-01 -4.313377e-02 -2.296959e-01 8.387898e-01 3.991911e-01 -4.910425e-01 -1.709124e-02 -3.329398e-01 -2.508976e-01 2.028620e-01 -3.976059e-02 2.508134e-01 -2.368569e-02 3.051549e-02 3.696449e-02 -1.166859e-01 1.410349e-01
<VARIANCE> 39
 2.985422e+01 2.316177e+01 3.359958e+01 2.359763e+01 4.522952e+01 4.380688e+01 5.057993e+01 3.034860e+01 4.622139e+01 4.075803e+01 2.636923e+01 2.580605e+01 2.604159e+01 2.416993e+00 2.298941e+00 2.256914e+00 2.679935e+00 2.686132e+00 2.571954e+00 2.751352e+00 3.641260e+00 2.710508e+00 2.312922e+00 1.405673e+00 1.752375e+00 6.765742e-01 5.123677e-01 4.198175e-01 2.295207e-01 2.731110e-01 4.037917e-01 4.692979e-01 5.538647e-01 5.369743e-01 3.896819e-01 3.232113e-01 2.886969e-01 2.609388e-01 9.754322e-02
<GCONST> 1.130740e+02
<TRANSP> 5
 0.000000e+00 1.000000e+00 0.000000e+00 0.000000e+00 0.000000e+00
 0.000000e+00 6.687424e-01 3.312576e-01 0.000000e+00 0.000000e+00
