~o
<STREAMINFO> 1 39
<VECSIZE> 39<NULLD><MFCC_D_A_0><DIAGC>
~s "silst"
<MEAN> 39
 -9.523978e+00 -9.212819e-02 4.253947e-01 -2.749956e+00 -2.228050e+00 -3.946853e+00 -3.577861e+00 -3.093246e+00 -5.530794e+00 -1.670848e+00 -4.208289e+00 -1.552886e+00 4.871516e+01 3.895216e-02 4.210953e-02 3.498685e-02 -2.497230e-02 -3.292314e-02 1.303270e-03 7.323952e-03 -6.345972e-03 2.167446e-02 9.889212e-03 2.637328e-02 9.606461e-03 -1.975072e-03 6.074430e-02 -1.316971e-02 3.520557e-02 -5.294864e-02 -5.547820e-02 -4.852304e-02 -4.866309e-02 6.570030e-06 -3.151143e-02 1.813606e-02 -4.159386e-03 -2.580023e-02 1.568063e-01
<VARIANCE> 39
 3.150986e+01 3.486803e+01 4.304181e+01 4.611244e+01 3.014343e+01 3.583977e+01 3.322152e+01 3.636526e+01 3.631909e+01 2.654586e+01 3.337702e+01 2.118412e+01 5.563606e+01 1.804238e+00 1.694293e+00 1.820113e+00 2.051880e+00 1.952414e+00 2.113451e+00 2.025735e+00 2.203921e+00 2.206053e+00 1.879730e+00 1.842199e+00 1.380644e+00 2.443415e+00 2.824239e-01 2.889712e-01 3.094656e-01 3.790945e-01 3.720793e-01 3.819777e-01 3.874253e-01 4.205927e-01 4.147131e-01 3.680398e-01 3.475230e-01 2.674129e-01 3.362912e-01
<GCONST> 1.126438e+02
~h "A"
<BEGINHMM>
<NUMSTATES> 5
<STATE> 2
<MEAN> 39
 -2.511401e+00 -6.385824e+00 -3.416799e+00 -8.250534e+00 -6.771235e+00 -7.865649e+00 -1.127516e+01 -7.656586e-01 -2.662116e+00 6.837723e-01 -4.429081e+00 -6.630576e+00 6.700713e+01 2.232584e-01 -2.490351e-01 -3.559538e-01 -9.612969e-02 2.141684e-01 -1.095785e-01 -1.570270e-01 3.888815e-01 3.308517e-01 2.909129e-01 -4.378259e-01 -2.116574e-01 1.013244e-01 -1.738890e-01 5.708529e-01 2.434884e-01 4.216321e-01 2.556839e-01 1.621058e-01 3.395421e-01 -3.952537e-01 -3.043409e-01 -1.661877e-01 7.297153e-03 1.649073e-01 -5.354677e-01
<VARIANCE> 39
 1.106756e+01 2.104584e+01 4.399228e+01 4.616608e+01 3.789664e+01 7.570413e+01 4.407311e+01 4.833771e+01 7.765192e+01 4.256824e+01 6.505380e+01 4.281217e+01 2.593775e+01 7.507918e-01 1.391245e+00 1.794675e+00 1.837765e+00 1.936580e+00 2.469634e+00 2.037082e+00 2.681751e+00 2.336775e+00 1.982270e+00 1.734035e+00 1.825469e+00 9.419812e-01 2.677661e-01 2.119686e-01 2.234195e-01 3.441023e-01 3.378225e-01 4.327242e-01 4.548470e-01 5.209420e-01 4.070658e-01 3.810970e-01 3.371359e-01 3.583622e-01 1.732598e-01
<GCONST> 1.122593e+02
<STATE> 3
<MEAN> 39
 -2.201030e+00 -3.232336e+00 -2.253880e+00 -4.893711e+00 -5.019876e+00 -8.016310e+00 -9.372597e+00 -2.036255e+00 -4.450304e+00 5.209317e-01 -5.480371e+00 -5.502606e+00 6.210117e+01 -3.355385e-01 1.365945e+00 3.807509e-01 9.864309e-01 8.253016e-01 5.432640e-01 9.389105e-01 -5.169456e-01 -2.272384e-01 -2.247362e-01 4.693198e-03 5.033674e-01 -1.876211e+00 -4.013522e-01 2.232615e-01 9.212174e-02 5.715587e-02 5.238369e-02 1.464554e-01 2.792557e-01 -2.483151e-02 1.171833e-02 -1.066988e-01 1.818275e-01 1.020186e-01 -3.406968e-01
<VARIANCE> 39
 1.108096e+01 2.475412e+01 4.634349e+01 4.390441e+01 3.922167e+01 6.323879e+01 5.308766e+01 4.891926e+01 8.502193e+01 5.334680e+01 5.800457e+01 3.537704e+01 4.707099e+01 1.344134e+00 1.718024e+00 1.971325e+00 2.212125e+00 2.223400e+00 2.521562e+00 2.506260e+00 3.808796e+00 3.005718e+00 2.437970e+00 2.232089e+00 1.823627e+00 1.580119e+00 3.009484e-01 4.557929e-01 3.569763e-01 4.553194e-01 4.622871e-01 5.494321e-01 5.676812e-01 6.551265e-01 5.988044e-01 5.293612e-01 4.519574e-01 3.622606e-01 2.895570e-01
<GCONST> 1.202675e+02
<STATE> 4
<MEAN> 39
 -9.147461e+00 -1.648679e+00 -2.194131e+00 -7.236573e-01 -1.334955e+00 -3.306173e+00 -2.963193e+00 -3.500786e-01 -1.331483e+00 2.006786e-01 -2.186413e+00 -1.034302e+00 4.942537e+01 -3.697536e-01 2.926048e-01 7.775650e-02 1.709589e-01 1.520437e-01 1.433802e-01 2.500943e-01 -1.227331e-01 -7.082530e-02 -9.194805e-02 1.177273e-01 1.606281e-01 -5.593710e-01 -4.181854e-02 -6.755517e-03 6.171764e-03 -2.395438e-02 -2.985710e-02 -1.131255e-02 -5.157950e-03 1.730989e-03 -6.272171e-03 -1.178025e-02 7.146310e-03 -7.516818e-03 8.443610e-02
<VARIANCE> 39
 2.014223e+01 1.993843e+01 1.822649e+01 2.198836e+01 2.300109e+01 3.631755e+01 3.253035e+01 2.452118e+01 3.352008e+01 2.023185e+01 2.326195e+01 1.891608e+01 5.741591e+01 9.445379e-01 1.419886e+00 9.354224e-01 1.286491e+00 1.354858e+00 1.381381e+00 1.623962e+00 1.734853e+00 1.633432e+00 1.315625e+00 1.176098e+00 1.032003e+00 1.157303e+00 1.379262e-01 1.484422e-01 1.490635e-01 1.784733e-01 2.262541e-01 2.450565e-01 2.598004e-01 2.906563e-01 2.629232e-01 2.415425e-01 2.135649e-01 1.851190e-01 9.458305e-02
<GCONST> 9.564166e+01
<TRANSP> 5
 0.000000e+00 1.000000e+00 0.000000e+00 0.000000e+00 0.000000e+00
 0.000000e+00 6.606469e-01 3.393531e-01 0.000000e+00 0.000000e+00
 0.000000e+00 0.000000e+00 4.935347e-01 5.064654e-01 0.000000e+00
 0.000000e+00 0.000000e+00 0.000000e+00 8.249186e-01 1.750814e-01
 0.000000e+00 0.000000e+00 0.000000e+00 0.000000e+00 0.000000e+00
<ENDHMM>
~h "E"
<BEGINHMM>
<NUMSTATES> 5
<STATE> 2
<MEAN> 39
 -9.884015e-01 -4.887483e+00 -4.920804e-01 2.019565e-01 -6.881014e+00 -9.906644e+00 -1.271505e+01 -3.129987e+00 -1.966831e+00 1.461394e+00 -2.115846e+00 -2.567996e+00 6.450867e+01 9.033219e-01 -1.719425e-01 -6.337272e-01 -1.081941e+00 -6.004525e-01 2.733930e-02 -7.508848e-01 -5.888676e-01 -2.393233e-01 6.225982e-01 4.910659e-01 1.338143e-01 5.835479e-01 -3.718397e-01 4.195167e-01 -3.278279e-01 -6.895070e-02 3.537383e-01 6.792015e-01 6.376381e-01 7.828332e-02 -2.189614e-01 7.895119e-02 3.116302e-03 -9.850998e-03 -5.631728e-01
<VARIANCE> 39
 3.588129e+00 2.907188e+01 1.743782e+01 4.140276e+01 2.061321e+01 1.984601e+01 1.228562e+01 3.343373e+01 3.431717e+01 4.580330e+01 5.465345e+01 1.227911e+01 1.737684e+01 7.020219e-01 1.567145e+00 1.542192e+00 1.124699e+00 2.817152e+00 2.427269e+00 2.786046e+00 1.484194e+00 2.522882e+00 2.062251e+00 3.053366e+00 9.790528e-01 2.619638e+00 2.313846e-01 1.459862e-01 2.359574e-01 3.399773e-01 2.865131e-01 2.102365e-01 2.096409e-01 2.866261e-01 4.055652e-01 2.897387e-01 2.307620e-01 1.454027e-01 3.553216e-01
<GCONST> 1.012551e+02
<STATE> 3
<MEAN> 39
 -8.826634e+00 -4.458035e+00 -3.902021e+00 1.543966e+00 -2.770882e+00 -3.805892e+00 -1.457713e+00 7.541957e-01 1.364840e+00 4.031848e+00 1.358977e+00 2.066045e+00 6.050012e+01 -4.445395e-01 -2.037619e-02 9.676044e-02 -1.383158e-01 1.558196e-01 2.273849e-01 6.008080e-01 1.907302e-01 -1.688698e-01 -3.114546e-02 -1.664549e-01 1.589648e-01 -2.634792e-01 -7.243501e-02 1.528619e-02 1.256756e-01 8.568970e-02 8.882556e-02 3.986671e-02 -2.935687e-02 4.318824e-02 6.109491e-02 -3.732085e-02 -5.384338e-02 -6.169919e-02 -1.699265e-01
<VARIANCE> 39
 5.650130e+01 2.830635e+01 1.379374e+01 2.316212e+01 2.225138e+01 4.222739e+01 6.424580e+01 3.423416e+01 4.728024e+01 1.948213e+01 3.548700e+01 2.259425e+01 2.325421e+01 6.197680e-01 1.748156e+00 5.936757e-01 6.238732e-01 1.541819e+00 2.062032e+00 2.150494e+00 1.622929e+00 2.037387e+00 1.119260e+00 1.170476e+00 9.007363e-01 1.420178e+00 1.558983e-01 2.958812e-01 1.257832e-01 2.214226e-01 2.687606e-01 4.325708e-01 4.191588e-01 3.648745e-01 4.614823e-01 1.904715e-01 3.148831e-01 1.710454e-01 3.242732e-01
<GCONST> 1.015771e+02
<STATE> 4
<MEAN> 39
 -6.420868e+00 -7.182039e+00 -4.221676e+00 -8.008023e+00 -7.206810e+00 -9.207535e+00 -7.190490e+00 -6.044518e+00 -9.447942e+00 -8.441042e+00 -1.292415e+01 -5.076364e+00 6.505804e+01 -3.595110e-02 2.615516e-01 2.728205e-02 -1.625822e-02 2.404159e-02 4.249287e-02 6.342854e-02 -1.036145e-01 -8.444909e-02 3.592262e-02 2.007694e-02 -1.427921e-02 -2.247075e-01 -5.295762e-02 1.209251e-01 -6.679152e-03 9.249964e-02 8.816262e-02 5.229560e-02 6.217498e-02 2.087830e-02 3.623636e-02 -1.754575e-02 2.277024e-02 -1.030470e-02 -1.353291e-01
<VARIANCE> 39
 2.597335e+01 6.544134e+01 3.970229e+01 5.809891e+01 3.904738e+01 3.296228e+01 5.404543e+01 3.244282e+01 4.429408e+01 5.948778e+01 4.925188e+01 2.066846e+01 3.203571e+01 1.777714e+00 3.394846e+00 1.055653e+00 2.813634e+00 1.680422e+00 2.733961e+00 2.131215e+00 1.490945e+00 2.303419e+00 2.284891e+00 2.359405e+00 1.184672e+00 3.036184e+00 2.831756e-01 4.134721e-01 1.880273e-01 4.232602e-01 4.486438e-01 5.105714e-01 3.916296e-01 3.040116e-01 3.925743e-01 3.325326e-01 4.778578e-01 2.206044e-01 5.622726e-01
<GCONST> 1.159845e+02
<TRANSP> 5
 0.000000e+00 1.000000e+00 0.000000e+00 0.000000e+00 0.000000e+00
 0.000000e+00 6.413462e-01 3.586538e-01 0.000000e+00 0.000000e+00
 0.000000e+00 0.000000e+00 7.410492e-01 2.589507e-01 0.000000e+00
 0.000000e+00 0.000000e+00 0.000000e+00 8.193887e-01 1.806113e-01
 0.000000e+00 0.000000e+00 0.000000e+00 0.000000e+00 0.000000e+00
<ENDHMM>
~h "I"
<BEGINHMM>
<NUMSTATES> 5
<STATE> 2
<MEAN> 39
 -8.751431e+00 1.374370e+00 9.552830e+00 7.289509e-01 -8.942558e+00 -1.041603e+01 -8.358794e+00 -4.405621e+00 -8.707878e+00 -4.069305e+00 -2.515353e+00 -2.560441e+00 6.320095e+01 2.065486e+00 -4.759412e-01 4.629202e-01 7.323978e-02 -1.201712e+00 -9.814116e-01 -9.984188e-01 -1.729063e-01 -6.803961e-01 -3.062150e-01 9.972051e-02 -7.335692e-02 4.116673e-01 -2.737180e-01 1.488355e-01 -6.092741e-01 -1.666837e-01 4.583979e-01 4.565432e-01 2.188364e-01 8.140493e-02 3.308617e-01 2.692238e-01 3.705256e-03 -3.906589e-02 -3.062004e-01
<VARIANCE> 39
 3.656848e+01 2.620712e+01 4.292035e+01 4.919665e+01 3.715736e+01 3.752682e+01 3.890296e+01 4.434974e+01 4.750259e+01 2.317439e+01 3.503653e+01 2.642138e+01 2.888467e+01 5.456903e+00 2.733445e+00 4.224339e+00 2.553945e+00 3.149615e+00 3.641008e+00 3.811322e+00 3.856697e+00 3.501317e+00 2.503972e+00 2.549291e+00 2.232462e+00 1.333495e+00 7.091039e-01 4.123402e-01 3.998550e-01 4.290332e-01 4.796139e-01 5.331152e-01 6.081981e-01 6.316624e-01 4.746180e-01 4.330709e-01 3.872379e-01 2.966609e-01 2.128052e-01
<GCONST> 1.218884e+02
<STATE> 3
<MEAN> 39
 -6.284930e+00 4.018847e-01 8.075831e+00 -2.690085e+00 -1.090786e+01 -1.188653e+01 -9.804667e+00 -5.077914e+00 -1.132450e+01 -3.876082e+00 -3.656806e+00 -4.129571e+00 6.149696e+01 3.139642e-01 5.437919e-01 -8.463820e-01 2.282805e-01 6.767315e-01 4.120807e-01 3.263377e-01 2.109583e-02 4.024003e-01 3.469968e-01 -5.555627e-02 -2.646052e-02 -9.639188e-01 -3.928633e-01 1.759017e-01 -3.707742e-01 -2.982763e-04 4.739650e-01 3.882209e-01 2.896923e-01 3.357581e-02 3.052415e-01 1.598540e-01 3.450856e-02 1.257062e-02 -3.501778e-01
<VARIANCE> 39
 2.082150e+01 2.873435e+01 4.305385e+01 6.200910e+01 3.802291e+01 3.801890e+01 4.620872e+01 5.900706e+01 6.440323e+01 2.812869e+01 5.261044e+01 4.572661e+01 3.672152e+01 2.122366e+00 2.077960e+00 2.284241e+00 2.196632e+00 2.722969e+00 2.335207e+00 2.925586e+00 2.920350e+00 2.779126e+00 2.204696e+00 2.123133e+00 1.939414e+00 1.907657e+00 4.326454e-01 4.309042e-01 4.379008e-01 4.967957e-01 5.518913e-01 5.228732e-01 5.499581e-01 6.344175e-01 6.212828e-01 4.673936e-01 4.787174e-01 3.897713e-01 2.345099e-01
<GCONST> 1.211383e+02
<STATE> 4
<MEAN> 39
 -1.004756e+01 7.682055e-02 2.317085e+00 -1.050010e+00 -3.579875e+00 -4.932244e+00 -3.475154e+00 -2.734400e+00 -5.186313e+00 -1.622269e+00 -1.522240e+00 -1.156583e+00 4.978257e+01 -1.370724e-01 4.407770e-02 -4.824334e-01 -1.110000e-02 3.821240e-01 3.729301e-01 1.745502e-01 5.783169e-02 2.695875e-01 1.753126e-01 3.795147e-02 3.030611e-02 -4.785292e-01 -9.118032e-02 -3.142448e-02 2.035040e-03 -4.572747e-02 -5.996644e-03 2.301851e-02 5.559394e-03 -2.068712e-03 -2.100006e-02 -3.355666e-03 -1.696405e-03 7.543351e-04 6.277742e-02
<VARIANCE> 39
 2.279732e+01 2.697633e+01 3.096492e+01 2.633232e+01 2.313305e+01 3.257875e+01 3.328262e+01 2.848991e+01 3.564719e+01 1.775906e+01 1.964465e+01 1.919694e+01 6.497010e+01 9.678483e-01 1.201895e+00 1.299464e+00 1.136124e+00 1.437909e+00 1.464405e+00 1.462524e+00 1.672701e+00 1.591215e+00 1.458888e+00 1.261422e+00 1.022646e+00 1.172300e+00 1.725476e-01 1.769973e-01 1.790132e-01 1.893781e-01 2.298502e-01 2.671206e-01 3.048387e-01 3.034432e-01 2.792941e-01 2.645791e-01 2.277717e-01 1.771390e-01 1.273758e-01
<GCONST> 9.835497e+01
<TRANSP> 5
 0.000000e+00 1.000000e+00 0.000000e+00 0.000000e+00 0.000000e+00
 0.000000e+00 3.879478e-01 6.120522e-01 0.000000e+00 0.000000e+00
 0.000000e+00 0.000000e+00 5.499312e-01 4.500688e-01 0.000000e+00
 0.000000e+00 0.000000e+00 0.000000e+00 8.014167e-01 1.985833e-01
 0.000000e+00 0.000000e+00 0.000000e+00 0.000000e+00 0.000000e+00
<ENDHMM>
~h "O"
<BEGINHMM>
<NUMSTATES> 5
<STATE> 2
<MEAN> 39
 3.855462e-01 5.284099e+00 8.941156e-01 -1.324654e+00 2.252054e+00 -3.434791e+00 -1.178070e+01 -5.081384e+00 -6.153481e+00 3.970715e+00 -3.826477e+00 -1.225014e+00 5.197387e+01 -4.787339e-01 2.420318e-01 5.887269e-01 4.283510e-01 5.132474e-01 1.606514e-01 -7.278929e-02 -5.736566e-01 1.445936e-01 -3.785468e-01 -2.326225e-01 1.181856e-01 -4.238974e-01 -1.221706e-01 6.445606e-02 -6.166276e-02 -2.419124e-01 -1.397630e-01 3.243743e-02 4.098199e-02 -8.114301e-02 6.819775e-02 4.113390e-02 -1.857513e-01 1.485544e-01 1.890008e-01
<VARIANCE> 39
 6.093729e+00 3.613750e+01 9.419178e+00 2.608575e+01 5.571911e+00 6.428381e+01 2.846937e+01 2.476546e+01 8.791862e+00 2.892325e+01 1.494801e+01 7.392754e+01 2.913001e+01 5.895712e-01 1.560443e+00 8.366951e-01 2.535106e+00 7.943618e-01 2.818673e+00 5.398396e+00 2.303585e+00 1.481362e+00 4.401149e+00 2.089279e+00 2.826033e+00 2.301968e+00 1.277855e-01 3.876942e-01 2.451323e-01 7.118964e-01 2.623973e-01 6.547484e-01 1.519274e+00 7.048502e-01 2.547907e-01 1.410852e+00 4.721792e-01 6.066282e-01 7.026053e-01
<GCONST> 1.103426e+02
<STATE> 3
<MEAN> 39
 -4.053137e+00 1.431356e+00 1.673647e+00 -2.612316e+00 1.059447e+00 -9.396680e+00 -1.580727e+01 -4.041471e-01 -4.249054e+00 8.505270e+00 -8.411729e+00 -2.712543e+00 5.845922e+01 -1.208263e-01 -1.954904e-01 -8.512810e-01 -7.700268e-01 -1.188661e+00 -3.311242e-01 -6.077501e-01 1.361481e+00 4.839951e-01 1.438973e+00 -9.822532e-01 3.068945e-01 1.312647e+00 2.719080e-01 2.905838e-01 -8.605188e-02 3.802538e-01 -6.690029e-02 2.575760e-01 7.306347e-01 1.092332e-02 -3.791280e-02 -3.723511e-01 1.732474e-01 -1.222770e-01 -4.565396e-01
<VARIANCE> 39
 9.406003e-01 2.527894e+01 6.876210e+00 3.665376e+00 2.237685e+01 6.937770e+01 4.023785e+01 1.487979e+02 1.584099e+01 3.278618e+01 2.120968e+01 2.087480e+01 4.160549e+01 3.378715e-01 1.371609e+00 2.183320e-01 1.472219e+00 1.858700e+00 3.803265e+00 6.308959e+00 4.684587e+00 1.535747e+00 4.770169e+00 6.920218e-01 5.600553e-01 2.619646e+00 3.003341e-02 2.410810e-01 7.444087e-02 1.235434e-01 5.738913e-01 7.586678e-01 9.474403e-01 9.518044e-01 1.730509e-01 8.525534e-01 2.449883e-01 1.531784e-01 3.430797e-01
<GCONST> 9.881821e+01
<STATE> 4
<MEAN> 39
 -3.187448e+00 5.287185e+00 4.186435e-01 -2.257958e+00 -2.003049e+00 -4.748382e+00 -1.847790e+01 -4.610804e+00 1.394191e+00 8.206535e+00 -6.302102e+00 -8.440973e-01 5.867834e+01 2.765769e-01 4.334249e-01 -3.712900e-01 1.003098e+00 -1.149019e-01 2.099806e-01 8.934605e-01 9.240409e-01 6.834765e-01 -8.789497e-01 5.436716e-01 -4.454039e-01 -9.792654e-01 -2.658657e-01 1.838849e-01 1.585646e-01 2.750861e-01 4.589011e-01 1.101435e-02 2.229603e-01 1.203477e-01 -5.052476e-02 -1.988301e-01 2.487985e-01 2.088258e-01 -3.960389e-01
<VARIANCE> 39
 1.374018e+00 6.552249e+00 5.822016e+00 6.906688e+00 5.578018e+00 7.410465e+00 2.475950e+01 5.157368e+01 3.154879e+01 1.403448e+01 1.094659e+01 3.225418e+01 5.273420e+01 1.730342e-01 1.375070e+00 1.735908e-01 6.613379e-01 6.928369e-01 4.050314e+00 5.278110e-01 2.085456e+00 1.858539e-01 5.768607e-01 5.570596e-01 5.837895e-01 6.860806e-01 1.620061e-01 2.225851e-01 9.467951e-02 1.087001e-01 3.207298e-01 3.491361e-01 1.861143e-01 5.253857e-01 1.169785e-01 3.869778e-02 9.184697e-02 2.079372e-01 8.978944e-02
<GCONST> 7.398270e+01
<TRANSP> 5
 0.000000e+00 1.000000e+00 0.000000e+00 0.000000e+00 0.000000e+00
 0.000000e+00 8.684065e-01 1.315935e-01 0.000000e+00 0.000000e+00
 0.000000e+00 0.000000e+00 7.855953e-01 2.144047e-01 0.000000e+00
 0.000000e+00 0.000000e+00 0.000000e+00 6.666479e-01 3.333521e-01
 0.000000e+00 0.000000e+00 0.000000e+00 0.000000e+00 0.000000e+00
<ENDHMM>
~h "R"
<BEGINHMM>
<NUMSTATES> 5
<STATE> 2
<MEAN> 39
 -2.292416e+00 -5.774176e+00 5.466222e-01 -1.593262e+00 -8.902668e+00 -1.042194e+01 -1.150606e+01 -1.075672e+00 -3.386106e+00 9.318931e-01 -2.631659e+00 -5.108330e+00 6.574013e+01 4.721397e-01 3.006209e-01 7.196666e-01 1.381529e+00 1.399182e-01 -2.579327e-01 -3.503209e-01 -5.345200e-01 9.245263e-02 -4.268159e-01 -3.531131e-01 2.633612e-02 -9.557073e-01 -2.675810e-01 2.758425e-01 1.672935e-02 -8.938473e-02 2.997818e-01 3.831608e-01 3.790067e-01 -4.671350e-02 -1.699017e-01 -1.189184e-01 -9.161440e-03 7.186838e-02 -3.961512e-01
<VARIANCE> 39
 1.344215e+01 2.634729e+01 4.207808e+01 4.545797e+01 3.938932e+01 5.155294e+01 4.312327e+01 6.167252e+01 8.010034e+01 4.141425e+01 4.649527e+01 2.939403e+01 2.865112e+01 1.960430e+00 2.610202e+00 2.036976e+00 2.723065e+00 4.214045e+00 3.262829e+00 3.563504e+00 3.981007e+00 3.565074e+00 2.660464e+00 2.304690e+00 2.075231e+00 2.528343e+00 3.134931e-01 3.084444e-01 2.731813e-01 4.612218e-01 5.028957e-01 4.544656e-01 5.430454e-01 6.082835e-01 5.576376e-01 4.364351e-01 3.868591e-01 3.354910e-01 3.337388e-01
<GCONST> 1.211051e+02
<STATE> 3
<MEAN> 39
 -2.802959e+00 -2.100870e+00 2.721684e+00 1.799730e+00 -5.238687e+00 -8.791853e+00 -9.289222e+00 -2.463497e+00 -4.015365e+00 -6.909999e-01 -3.935749e+00 -4.655469e+00 6.013141e+01 -4.176817e-01 4.498025e-01 3.872171e-01 3.848493e-01 5.558058e-01 3.781633e-01 3.255484e-01 -1.563276e-01 -1.817856e-01 -3.032033e-01 -2.978861e-02 2.202505e-01 -8.674458e-01 -2.183230e-01 -2.175722e-01 -1.787831e-01 -6.506265e-01 -2.756979e-01 9.109920e-02 2.350825e-02 2.521042e-01 -1.452897e-01 1.915248e-01 1.859108e-01 4.567498e-02 3.586054e-01
<VARIANCE> 39
 1.757577e+01 2.715451e+01 3.995231e+01 3.910358e+01 4.297968e+01 4.820803e+01 4.468767e+01 4.362437e+01 6.250373e+01 3.877913e+01 3.689022e+01 2.723489e+01 3.435972e+01 2.152439e+00 2.601073e+00 2.349076e+00 2.797344e+00 3.503881e+00 2.823850e+00 3.644157e+00 3.527279e+00 2.976782e+00 2.597669e+00 2.149346e+00 1.907771e+00 1.997425e+00 3.630768e-01 4.246202e-01 3.738697e-01 5.590488e-01 6.481463e-01 5.897882e-01 6.071644e-01 7.360885e-01 5.651643e-01 4.969253e-01 4.559883e-01 3.514374e-01 4.464245e-01
<GCONST> 1.221429e+02
<STATE> 4
<MEAN> 39
 -8.422393e+00 -2.184906e+00 3.001964e-01 8.419189e-01 -2.674690e+00 -4.558561e+00 -4.703157e+00 -2.460453e-01 -1.970925e+00 -2.297346e-01 -1.824218e+00 -1.611520e+00 5.263850e+01 -2.230492e-01 -4.822618e-03 4.052753e-02 -2.458287e-01 -1.000073e-01 1.499600e-01 -1.251107e-02 7.693554e-02 -1.265966e-01 3.534288e-02 9.584707e-02 7.493092e-02 -1.124606e-01 7.167001e-03 -6.997859e-03 -5.685015e-02 -1.675389e-01 -8.759641e-02 -9.292998e-03 -1.688130e-03 4.377439e-02 -5.617599e-02 3.950053e-02 1.319499e-02 -2.401579e-02 1.346265e-01
<VARIANCE> 39
 2.778761e+01 2.248007e+01 3.131726e+01 2.324056e+01 3.268982e+01 4.559977e+01 4.793094e+01 2.984797e+01 3.792176e+01 2.282327e+01 2.009828e+01 2.117256e+01 8.046230e+01 1.039162e+00 1.372420e+00 1.338901e+00 1.480910e+00 1.644011e+00 1.639325e+00 1.904029e+00 2.155066e+00 1.827617e+00 1.516088e+00 1.339316e+00 1.120549e+00 1.225797e+00 1.573752e-01 1.956704e-01 2.239368e-01 3.084524e-01 3.396853e-01 3.353469e-01 3.932198e-01 3.737312e-01 2.990095e-01 2.969669e-01 2.782702e-01 2.213535e-01 1.601459e-01
<GCONST> 1.042700e+02
<TRANSP> 5
 0.000000e+00 1.000000e+00 0.000000e+00 0.000000e+00 0.000000e+00
 0.000000e+00 4.146775e-01 5.853225e-01 0.000000e+00 0.000000e+00
 0.000000e+00 0.000000e+00 3.797210e-01 6.202790e-01 0.000000e+00
 0.000000e+00 0.000000e+00 0.000000e+00 6.716098e-01 3.283901e-01
 0.000000e+00 0.000000e+00 0.000000e+00 0.000000e+00 0.000000e+00
<ENDHMM>
~h "S"
<BEGINHMM>
<NUMSTATES> 5
<STATE> 2
<MEAN> 39
 -9.774034e+00 6.242536e+00 1.251777e-01 -1.425141e+00 -1.168480e+00 -8.636667e+00 -8.963649e+00 -4.525752e+00 -5.657890e+00 -7.611804e-01 -4.208614e+00 -3.222725e+00 6.233141e+01 -3.115070e+00 1.954565e+00 -5.539762e-01 5.959513e-01 1.715188e+00 2.639995e-01 9.670046e-01 8.331065e-01 7.024074e-01 -2.305801e-01 5.559720e-01 5.126338e-01 -4.686370e-01 -3.285573e-01 -4.344080e-01 -7.833034e-02 -2.851953e-01 -1.536512e-01 1.472755e-01 4.217438e-02 3.470333e-01 8.277623e-02 3.715465e-02 1.187956e-01 -1.514806e-02 5.392650e-02
<VARIANCE> 39
 3.574777e+01 3.522317e+01 4.539831e+01 3.276218e+01 5.079407e+01 5.625478e+01 5.069159e+01 4.020105e+01 4.455237e+01 4.364640e+01 3.925708e+01 2.683345e+01 3.044196e+01 2.676630e+00 3.090013e+00 2.628655e+00 2.782449e+00 2.798521e+00 3.230295e+00 3.390191e+00 3.901983e+00 3.119117e+00 2.396598e+00 2.443830e+00 1.934562e+00 5.714654e-01 5.826505e-01 5.050386e-01 3.576717e-01 3.557123e-01 4.467852e-01 4.560460e-01 5.078439e-01 4.924042e-01 3.919414e-01 4.230467e-01 3.523416e-01 2.911587e-01 8.530214e-02
<GCONST> 1.187405e+02
<STATE> 3
<MEAN> 39
 -2.258224e+01 6.824347e+00 -1.833329e+00 -2.702381e+00 4.011670e+00 -6.085575e+00 -6.908197e+00 1.704845e+00 -1.992191e+00 2.145172e-02 -8.757285e-01 -7.482479e-01 6.193985e+01 -6.396079e-01 -6.031846e-01 -2.049953e-01 -1.860195e-01 -2.663767e-02 3.854111e-01 5.050297e-02 1.980878e-01 3.174392e-01 4.890715e-02 1.358930e-01 1.340541e-01 -5.082658e-01 9.323411e-01 -2.621865e-01 1.790489e-01 7.809964e-02 -3.489023e-01 1.668684e-02 -8.302436e-02 -4.033118e-01 -1.555313e-01 3.653555e-02 -1.117623e-01 -9.938826e-02 -1.852951e-01
<VARIANCE> 39
 2.715813e+01 3.367827e+01 3.432501e+01 2.563194e+01 3.855696e+01 4.369050e+01 5.849871e+01 3.157465e+01 2.800800e+01 2.505931e+01 1.706372e+01 1.608917e+01 2.438352e+01 5.241969e+00 1.789128e+00 2.507751e+00 1.761660e+00 1.925520e+00 2.180358e+00 2.144558e+00 2.449438e+00 1.737880e+00 1.537691e+00 1.347603e+00 1.051118e+00 1.052326e+00 3.426867e-01 4.905567e-01 3.978299e-01 3.367276e-01 4.301755e-01 4.252919e-01 5.343773e-01 4.452446e-01 3.583049e-01 3.161229e-01 2.888057e-01 2.278272e-01 1.740927e-01
<GCONST> 1.102135e+02
<STATE> 4
<MEAN> 39
 -1.626869e+01 -1.688002e-01 -2.495638e+00 -1.438982e+00 8.043699e-01 -3.635735e+00 -3.769508e+00 3.419352e-01 -9.682697e-01 5.845499e-02 -9.256920e-01 -3.078125e-01 5.157085e+01 5.436548e-01 -1.345749e-01 6.252920e-02 1.044101e-01 -1.584516e-01 1.907687e-01 1.346000e-01 -2.191972e-01 -6.637121e-02 -1.203229e-02 -1.965128e-02 -1.031808e-02 -5.167673e-01 4.899291e-02 -4.368072e-03 4.804088e-03 -1.295455e-02 -2.728008e-02 -2.778431e-02 8.719890e-03 -1.004399e-02 -4.651517e-02 -1.288834e-02 -1.572227e-02 -1.868401e-02 4.928638e-02
<VARIANCE> 39
 3.270362e+01 3.080787e+01 1.860726e+01 1.934132e+01 2.177567e+01 3.363401e+01 3.377741e+01 2.232846e+01 2.746050e+01 1.775730e+01 1.382944e+01 1.226305e+01 5.286926e+01 1.547456e+00 1.064577e+00 8.508769e-01 9.517370e-01 1.222149e+00 1.358597e+00 1.461392e+00 1.414938e+00 1.243271e+00 1.099540e+00 9.843925e-01 8.085857e-01 1.328932e+00 1.561117e-01 1.717971e-01 1.625115e-01 1.792110e-01 2.121290e-01 2.564048e-01 2.635522e-01 2.563218e-01 2.505308e-01 2.179607e-01 2.034780e-01 1.634469e-01 1.553888e-01
<GCONST> 9.394749e+01
<TRANSP> 5
 0.000000e+00 1.000000e+00 0.000000e+00 0.000000e+00 0.000000e+00
 0.000000e+00 6.490761e-01 3.509239e-01 0.000000e+00 0.000000e+00
 0.000000e+00 0.000000e+00 7.753060e-01 2.246940e-01 0.000000e+00
 0.000000e+00 0.000000e+00 0.000000e+00 8.551949e-01 1.448051e-01
 0.000000e+00 0.000000e+00 0.000000e+00 0.000000e+00 0.000000e+00
<ENDHMM>
~h "U"
<BEGINHMM>
<NUMSTATES> 5
<STATE> 2
<MEAN> 39
 -2.581266e+00 -1.814985e-01 -1.291291e+00 -7.531406e+00 -3.607080e+00 -7.268666e+00 -1.277610e+01 -8.071434e+00 -1.021886e+01 -5.134398e-02 -5.635808e+00 -4.728823e+00 6.162632e+01 7.463432e-01 2.086149e-01 -2.631581e-01 -5.262293e-01 -2.714649e-01 3.198957e-01 -3.523098e-01 -6.170264e-01 -4.697918e-01 2.031629e-01 1.433233e-01 -1.254052e-02 2.513754e-01 -2.194786e-01 2.206073e-01 1.961793e-01 2.970371e-01 2.607361e-02 2.273851e-01 5.212368e-01 1.815811e-01 1.413266e-01 -1.309938e-01 1.213450e-02 7.479898e-02 -4.215926e-01
<VARIANCE> 39
 1.920280e+01 2.292006e+01 3.919510e+01 7.069625e+01 3.351901e+01 5.838923e+01 4.744794e+01 4.431412e+01 7.281355e+01 3.962798e+01 7.320112e+01 3.833666e+01 2.485484e+01 2.152541e+00 1.855170e+00 2.280279e+00 3.778696e+00 2.982193e+00 3.013651e+00 3.755338e+00 4.004551e+00 3.660552e+00 2.968989e+00 2.916391e+00 2.314105e+00 2.079495e+00 3.904046e-01 3.306106e-01 3.197810e-01 6.269439e-01 4.696354e-01 5.465136e-01 6.113485e-01 7.521675e-01 6.059514e-01 5.410647e-01 5.130639e-01 4.207112e-01 2.808707e-01
<GCONST> 1.238041e+02
<STATE> 3
<MEAN> 39
 -1.142721e+00 3.199055e+00 -9.563993e-01 -4.995814e+00 -4.298356e+00 -2.441046e+00 -8.426747e+00 -8.181365e+00 -8.713645e+00 -5.596104e-01 -1.688953e+00 -2.948456e+00 5.851756e+01 -3.906612e-01 2.568819e-01 1.031891e-01 4.716992e-01 2.459183e-01 2.072386e-01 6.094772e-01 4.032546e-01 4.664524e-01 -1.049710e-01 8.281180e-02 1.566363e-01 -9.002977e-01 -3.685701e-01 -1.186938e-01 7.708021e-02 1.986973e-01 1.633813e-01 -1.474320e-01 9.194778e-02 2.564314e-01 2.021710e-01 2.443630e-02 -7.995310e-02 -2.360228e-02 -1.503939e-01
<VARIANCE> 39
 1.939743e+01 2.670419e+01 2.947944e+01 3.984408e+01 3.559888e+01 4.941755e+01 5.854843e+01 3.632962e+01 4.610553e+01 3.829158e+01 4.840245e+01 3.018533e+01 4.983234e+01 1.527411e+00 1.956394e+00 1.342672e+00 2.469849e+00 2.575758e+00 2.390741e+00 3.037385e+00 2.628526e+00 2.752928e+00 2.355029e+00 2.166280e+00 1.738210e+00 2.134828e+00 2.780990e-01 3.460811e-01 2.700908e-01 4.791000e-01 4.950614e-01 4.551770e-01 5.656401e-01 5.594286e-01 5.125846e-01 4.793028e-01 4.247294e-01 3.459965e-01 2.739744e-01
<GCONST> 1.173023e+02
<STATE> 4
<MEAN> 39
 -9.875175e+00 -9.455594e-01 -2.159105e+00 -6.052786e-01 -6.052370e-01 -2.311582e+00 -4.025725e+00 -2.117779e+00 -2.917620e+00 -3.117155e-01 -1.396232e+00 -7.415131e-01 4.957087e+01 -3.055003e-01 -2.277249e-02 5.019744e-02 1.318623e-01 6.172173e-02 1.771693e-02 1.388657e-01 1.717799e-01 1.592338e-01 -2.724760e-02 -2.550647e-02 1.811030e-02 -2.286389e-01 -1.968938e-02 2.388535e-02 1.814252e-02 -1.486624e-02 -2.655885e-03 -1.594513e-02 1.052333e-02 3.060552e-03 -2.160797e-02 2.840829e-03 -1.165368e-02 -3.454258e-03 4.775452e-02
<VARIANCE> 39
 2.474297e+01 2.409911e+01 1.823885e+01 2.084585e+01 1.959026e+01 3.312388e+01 3.598829e+01 2.725310e+01 3.229100e+01 2.008032e+01 2.133870e+01 1.745912e+01 5.202332e+01 8.776250e-01 1.124725e+00 8.680122e-01 1.045014e+00 1.235234e+00 1.293877e+00 1.473546e+00 1.549480e+00 1.454693e+00 1.304692e+00 1.126324e+00 9.898151e-01 9.026043e-01 1.436117e-01 1.504756e-01 1.428084e-01 1.756608e-01 2.316808e-01 2.261686e-01 2.708668e-01 2.907013e-01 2.626828e-01 2.473920e-01 2.194663e-01 1.894234e-01 1.129210e-01
<GCONST> 9.444438e+01
<TRANSP> 5
 0.000000e+00 1.000000e+00 0.000000e+00 0.000000e+00 0.000000e+00
 0.000000e+00 5.002184e-01 4.997816e-01 0.000000e+00 0.000000e+00
 0.000000e+00 0.000000e+00 5.704404e-01 4.295596e-01 0.000000e+00
 0.000000e+00 0.000000e+00 0.000000e+00 8.194752e-01 1.805249e-01
 0.000000e+00 0.000000e+00 0.000000e+00 0.000000e+00 0.000000e+00
<ENDHMM>
~h "a"
<BEGINHMM>
<NUMSTATES> 5
<STATE> 2
<MEAN> 39
 -1.425090e+00 -5.563550e+00 -4.732398e+00 -7.560282e+00 -5.302370e+00 -5.115751e+00 -8.432014e+00 -2.021756e+00 -3.763460e+00 1.500932e+00 -3.832184e+00 -6.621050e+00 6.646471e+01 1.169457e+00 -2.085387e+00 -1.241091e+00 -1.746087e+00 -3.654420e-01 4.686172e-01 -5.943634e-01 1.109344e+00 4.776914e-01 5.596555e-01 -3.128805e-01 -1.587758e+00 2.168910e+00 -5.749400e-01 2.011992e-01 1.407944e-01 4.184192e-01 3.433080e-01 1.373894e-01 2.919388e-01 7.777797e-02 -9.876855e-03 -8.875983e-02 -3.622512e-02 7.049224e-02 -5.574300e-01
<VARIANCE> 39
 1.206171e+01 2.537824e+01 3.396030e+01 4.000475e+01 2.892406e+01 8.036184e+01 4.727129e+01 4.863456e+01 7.871221e+01 4.607442e+01 6.212554e+01 2.832465e+01 2.556352e+01 2.919540e+00 1.783663e+00 2.204720e+00 2.898796e+00 3.017194e+00 3.163219e+00 3.572007e+00 4.458162e+00 4.626161e+00 2.799382e+00 3.148922e+00 2.868033e+00 2.341961e+00 4.349255e-01 3.498552e-01 3.651051e-01 5.186872e-01 3.922536e-01 6.024314e-01 5.318217e-01 6.582561e-01 6.875260e-01 4.794247e-01 5.212692e-01 3.949396e-01 3.627719e-01
<GCONST> 1.234151e+02
<STATE> 3
<MEAN> 39
 -1.672569e+00 -8.830084e+00 -6.707703e+00 -8.955842e+00 -4.178489e+00 -3.390654e+00 -8.770926e+00 1.574315e+00 -1.316556e+00 2.745865e+00 -3.894351e+00 -1.040130e+01 6.963887e+01 -1.107706e-01 -4.325472e-01 -2.720214e-01 9.185078e-03 4.860674e-01 1.730195e-01 1.703158e-01 5.068440e-01 7.943866e-02 1.435396e-03 -3.299765e-01 -5.287897e-01 2.543289e-01 -2.195278e-01 7.509255e-01 4.526896e-01 5.719206e-01 9.181901e-02 -1.888104e-01 1.779348e-01 -5.258497e-01 -3.358776e-01 -1.973703e-01 9.445342e-02 5.720286e-01 -6.980811e-01
<VARIANCE> 39
 8.639960e+00 2.180396e+01 3.099016e+01 2.945370e+01 2.679261e+01 6.979969e+01 4.278221e+01 4.898685e+01 7.773136e+01 4.370978e+01 5.526597e+01 3.370199e+01 1.970831e+01 4.954965e-01 1.498903e+00 1.628550e+00 1.881002e+00 1.818549e+00 3.256162e+00 2.309533e+00 2.959417e+00 2.172463e+00 1.879379e+00 2.097044e+00 2.213462e+00 7.729377e-01 2.270086e-01 2.092591e-01 2.496685e-01 3.168773e-01 3.961512e-01 3.878060e-01 5.074675e-01 5.289835e-01 4.821225e-01 3.977706e-01 4.058940e-01 3.498377e-01 2.008675e-01
<GCONST> 1.107816e+02
<STATE> 4
<MEAN> 39
 -2.299331e+00 -1.011404e+01 -7.074181e+00 -8.548092e+00 -2.099857e+00 -3.370015e+00 -7.094180e+00 1.003192e+00 -4.768507e+00 2.709497e-01 -7.177861e+00 -9.920871e+00 6.818163e+01 9.298159e-02 5.053324e-01 3.035270e-01 2.749395e-01 -2.605125e-02 -2.457490e-01 -5.071883e-02 -3.174651e-01 -1.702283e-01 2.797064e-02 2.371764e-02 2.754976e-01 -4.819051e-01 -1.906841e-02 2.821691e-01 1.615011e-01 1.521435e-01 -3.738372e-02 -6.972516e-02 3.325578e-04 -1.822300e-01 -5.376685e-02 -3.669110e-02 6.023950e-02 1.581730e-01 -2.468674e-01
<VARIANCE> 39
 9.069722e+00 2.767758e+01 2.646391e+01 2.920596e+01 3.149653e+01 5.801763e+01 3.737743e+01 5.633364e+01 7.984872e+01 5.233218e+01 7.449397e+01 4.920547e+01 2.087196e+01 3.474900e-01 1.099260e+00 8.683342e-01 1.154238e+00 1.086325e+00 1.414293e+00 1.269321e+00 1.722783e+00 1.262558e+00 1.231638e+00 1.122533e+00 1.208614e+00 6.926478e-01 9.794106e-02 1.335940e-01 1.236442e-01 2.088454e-01 1.762656e-01 2.045746e-01 2.322350e-01 2.862445e-01 2.251046e-01 2.250914e-01 2.041397e-01 1.874986e-01 1.085133e-01
<GCONST> 9.673721e+01
<TRANSP> 5
 0.000000e+00 1.000000e+00 0.000000e+00 0.000000e+00 0.000000e+00
 0.000000e+00 4.401965e-01 5.598035e-01 0.000000e+00 0.000000e+00
 0.000000e+00 0.000000e+00 5.056590e-01 4.943410e-01 0.000000e+00
 0.000000e+00 0.000000e+00 0.000000e+00 8.105927e-01 1.894074e-01
 0.000000e+00 0.000000e+00 0.000000e+00 0.000000e+00 0.000000e+00
<ENDHMM>
~h "b"
<BEGINHMM>
<NUMSTATES> 5
<STATE> 2
<MEAN> 39
 1.483867e+00 2.717616e+00 -6.295588e-02 -1.675804e+00 -2.122348e+00 -3.467582e+00 -7.171223e+00 -7.109558e+00 -9.405236e+00 -2.262546e+00 -4.455598e+00 -7.264798e+00 5.465503e+01 2.771751e-01 1.414024e+00 6.200423e-01 1.196858e+00 7.275637e-01 2.985938e-01 7.522415e-01 -2.193703e-01 4.071702e-02 -5.121427e-01 -2.404539e-01 1.662070e-01 -1.802449e+00 -3.033934e-01 -3.100130e-01 -1.234339e-01 -2.485663e-01 -1.334992e-01 -1.067068e-01 -1.491601e-01 2.822295e-01 2.239629e-01 7.846223e-02 2.858088e-02 2.011361e-02 5.043854e-01
<VARIANCE> 39
 1.068941e+01 3.101381e+01 2.358528e+01 3.670055e+01 2.131960e+01 4.088437e+01 4.678023e+01 4.304584e+01 5.772031e+01 4.521831e+01 5.146398e+01 4.244354e+01 2.135684e+01 1.127461e+00 1.588661e+00 1.308143e+00 2.295915e+00 1.527298e+00 1.423224e+00 1.944640e+00 2.590248e+00 2.440238e+00 2.440622e+00 1.846948e+00 1.589495e+00 2.035458e+00 1.055903e-01 2.230706e-01 2.030053e-01 3.610147e-01 2.637633e-01 2.449693e-01 3.655729e-01 4.454656e-01 4.264018e-01 3.932432e-01 3.665832e-01 2.712922e-01 2.288851e-01
<GCONST> 1.084034e+02
<STATE> 3
<MEAN> 39
 6.258216e-02 8.213398e+00 2.991043e+00 2.774282e+00 2.982811e-01 -2.552944e-01 -4.315820e+00 -5.935480e+00 -6.411025e+00 -1.784286e+00 -1.960995e+00 -3.699690e+00 5.128266e+01 -6.125138e-01 -8.578348e-01 -3.679722e-02 -1.574050e-01 -2.746422e-01 -5.063141e-01 -4.511339e-01 4.639713e-01 5.153579e-01 -3.077183e-02 1.212167e-01 2.653794e-01 9.809080e-01 -1.082111e-01 -1.013367e+00 -2.037952e-01 -6.701344e-01 -7.188035e-01 -3.889427e-01 -5.449278e-01 1.894755e-01 1.548453e-01 1.720986e-01 1.845677e-01 6.364975e-03 1.279548e+00
<VARIANCE> 39
 1.583435e+01 2.017628e+01 2.362933e+01 1.758536e+01 1.710781e+01 2.484075e+01 2.211386e+01 2.189006e+01 2.714292e+01 2.332582e+01 2.550160e+01 2.041431e+01 1.699121e+01 1.346640e+00 3.224241e+00 1.712436e+00 2.647936e+00 2.192940e+00 2.500879e+00 2.545977e+00 2.149196e+00 2.158904e+00 1.982733e+00 1.898089e+00 1.432582e+00 3.771999e+00 3.276328e-01 2.761352e-01 3.619576e-01 4.987535e-01 3.230004e-01 3.925579e-01 4.374105e-01 4.821535e-01 5.358367e-01 5.155498e-01 3.394047e-01 3.533399e-01 2.432997e-01
<GCONST> 1.088526e+02
<STATE> 4
<MEAN> 39
 -2.282357e+00 5.575269e-02 8.282444e-01 -7.083700e-01 -3.548819e+00 -4.594134e+00 -8.914484e+00 -4.928015e+00 -4.900736e+00 -1.135415e+00 -1.522715e+00 -3.428017e+00 6.043652e+01 -2.806142e-01 -2.565412e+00 -2.970208e-01 -2.037760e+00 -2.339616e+00 -1.323503e+00 -1.752828e+00 1.075048e+00 7.108815e-01 5.336505e-01 7.930685e-01 1.521249e-01 3.586761e+00 1.894215e-01 2.250638e-01 1.615644e-01 -1.798304e-01 -2.338980e-01 1.560359e-01 2.203565e-01 1.322860e-01 -1.952335e-01 -1.302943e-02 -5.952425e-02 -2.185988e-01 -1.935659e-01
<VARIANCE> 39
 1.512177e+01 2.070324e+01 2.808803e+01 4.811433e+01 2.440075e+01 4.765896e+01 4.237859e+01 2.762064e+01 2.976733e+01 2.969415e+01 3.649846e+01 2.501705e+01 2.952456e+01 2.217989e+00 2.680771e+00 4.335999e+00 6.757453e+00 3.176340e+00 4.980565e+00 3.816135e+00 4.888097e+00 4.853248e+00 4.430992e+00 2.783212e+00 2.840412e+00 2.117586e+00 2.544759e-01 4.669531e-01 3.485520e-01 7.223773e-01 6.077136e-01 5.802562e-01 7.026228e-01 5.974627e-01 6.062645e-01 4.495670e-01 5.459054e-01 4.018491e-01 5.297388e-01
<GCONST> 1.236047e+02
<TRANSP> 5
 0.000000e+00 1.000000e+00 0.000000e+00 0.000000e+00 0.000000e+00
 0.000000e+00 6.987990e-01 3.012010e-01 0.000000e+00 0.000000e+00
 0.000000e+00 0.000000e+00 6.360078e-01 3.639921e-01 0.000000e+00
 0.000000e+00 0.000000e+00 0.000000e+00 4.432273e-01 5.567728e-01
 0.000000e+00 0.000000e+00 0.000000e+00 0.000000e+00 0.000000e+00
<ENDHMM>
~h "d"
<BEGINHMM>
<NUMSTATES> 5
<STATE> 2
<MEAN> 39
 -2.428202e+00 2.620286e+00 3.973035e+00 -7.271070e-01 -4.148651e+00 -7.409421e+00 -9.023677e+00 -6.555440e+00 -7.417328e+00 -1.596086e+00 -6.747789e+00 -6.164140e+00 5.753968e+01 1.042889e-01 1.381880e+00 5.643840e-01 9.073092e-01 7.544129e-01 6.714523e-01 5.994672e-01 5.139414e-02 1.958231e-01 -4.278403e-01 -1.480641e-01 -1.105246e-01 -1.808450e+00 -4.172280e-01 -2.755381e-01 -2.057819e-01 -3.827023e-01 -2.502456e-02 4.562555e-02 -7.774484e-02 2.701262e-01 1.232160e-01 2.765569e-02 1.860888e-01 6.639430e-02 4.930601e-01
<VARIANCE> 39
 2.346299e+01 3.048674e+01 4.323410e+01 4.271553e+01 3.676032e+01 4.263319e+01 4.793493e+01 5.830312e+01 7.153905e+01 5.391214e+01 6.550196e+01 3.535746e+01 3.444349e+01 1.947722e+00 1.685037e+00 1.755732e+00 2.033006e+00 2.146727e+00 1.912622e+00 2.897623e+00 3.411193e+00 2.621038e+00 2.222333e+00 2.137009e+00 1.954476e+00 2.316703e+00 3.417018e-01 3.556519e-01 2.640039e-01 3.678921e-01 4.563564e-01 4.546694e-01 6.819285e-01 6.362528e-01 4.581232e-01 4.628767e-01 3.846112e-01 3.381983e-01 4.993973e-01
<GCONST> 1.196723e+02
<STATE> 3
<MEAN> 39
 -3.347714e+00 6.518456e+00 5.706851e+00 1.616361e+00 -2.052910e+00 -4.507106e+00 -6.818931e+00 -4.627994e+00 -4.741296e+00 -1.294640e+00 -4.657346e+00 -5.281786e+00 5.377851e+01 -1.585555e+00 -2.839953e-01 -8.453687e-02 -5.560192e-01 5.838799e-01 1.872893e-01 -4.100179e-01 3.713712e-01 3.964788e-01 -5.217698e-02 4.166954e-01 3.007695e-01 9.252480e-01 -3.987625e-01 -6.730924e-01 -2.092777e-01 -4.954066e-01 -3.610766e-01 -3.674787e-01 -4.481432e-01 -8.390453e-02 -5.386227e-02 1.187692e-01 1.660302e-01 8.852879e-02 1.143676e+00
<VARIANCE> 39
 2.586956e+01 2.293737e+01 3.209074e+01 2.695684e+01 2.979191e+01 2.974440e+01 3.289305e+01 4.209963e+01 4.440927e+01 3.583086e+01 3.625338e+01 2.439825e+01 2.897223e+01 2.804580e+00 2.727462e+00 2.031641e+00 1.996173e+00 2.551828e+00 2.901946e+00 4.275090e+00 3.294426e+00 2.736890e+00 1.970057e+00 2.193626e+00 1.566701e+00 2.815576e+00 4.857584e-01 3.510107e-01 4.105777e-01 4.268370e-01 4.691669e-01 4.167541e-01 5.122275e-01 6.859148e-01 5.242227e-01 4.097482e-01 3.245377e-01 3.399954e-01 3.451170e-01
<GCONST> 1.174115e+02
<STATE> 4
<MEAN> 39
 -1.338600e+01 4.153811e+00 6.691779e+00 -7.373777e-01 -2.193865e+00 -4.892704e+00 -7.955861e+00 -4.701971e+00 -4.662712e+00 -2.320009e+00 -3.134891e+00 -3.784539e+00 6.164926e+01 -9.319416e-01 -8.521428e-01 -1.496343e-01 -5.425124e-01 -7.134784e-01 -9.373255e-01 -7.195135e-01 -1.958947e-01 1.531860e-02 1.748675e-01 4.382907e-01 2.533902e-01 1.913309e+00 9.263824e-01 -2.000465e-01 -1.101256e-01 3.094113e-02 -4.271463e-01 -2.559311e-01 -7.056009e-02 -6.411958e-02 -1.968184e-01 3.346216e-02 -8.233621e-02 -6.105739e-02 -1.382870e-01
<VARIANCE> 39
 5.587895e+01 2.554773e+01 5.376797e+01 2.926201e+01 3.106832e+01 3.925809e+01 5.263247e+01 3.502894e+01 4.184903e+01 3.387046e+01 2.583805e+01 2.356521e+01 2.585526e+01 5.580556e+00 2.536593e+00 3.022616e+00 3.059286e+00 2.819280e+00 2.965048e+00 3.692704e+00 3.690278e+00 3.086062e+00 2.245064e+00 1.807438e+00 1.689991e+00 2.390775e+00 6.492321e-01 4.564596e-01 4.576180e-01 4.215128e-01 4.792926e-01 6.444299e-01 6.840265e-01 6.111556e-01 4.772561e-01 3.971716e-01 4.018655e-01 3.293348e-01 2.967222e-01
<GCONST> 1.215730e+02
<TRANSP> 5
 0.000000e+00 1.000000e+00 0.000000e+00 0.000000e+00 0.000000e+00
 0.000000e+00 5.243899e-01 4.756100e-01 0.000000e+00 0.000000e+00
 0.000000e+00 0.000000e+00 4.884118e-01 5.115882e-01 0.000000e+00
 0.000000e+00 0.000000e+00 0.000000e+00 5.371007e-01 4.628992e-01
 0.000000e+00 0.000000e+00 0.000000e+00 0.000000e+00 0.000000e+00
<ENDHMM>
~h "e"
<BEGINHMM>
<NUMSTATES> 5
<STATE> 2
<MEAN> 39
 -4.953037e+00 -2.567347e+00 5.694355e+00 -1.831007e+00 -1.075783e+01 -1.323448e+01 -1.021873e+01 -2.371819e+00 -6.154961e+00 -1.831633e+00 -2.618366e+00 -2.665880e+00 6.544395e+01 9.043379e-01 -1.315530e+00 9.975104e-01 -8.275785e-01 -2.328046e+00 -1.683259e+00 -1.156386e+00 8.135835e-01 -6.605639e-01 -3.117414e-01 3.136025e-01 1.747519e-02 1.942139e+00 -4.039626e-01 2.019708e-01 -2.545477e-01 -7.369640e-02 3.405665e-01 5.134761e-01 3.805069e-01 1.730863e-02 3.417106e-02 1.355900e-01 4.523100e-02 1.897556e-02 -4.866080e-01
<VARIANCE> 39
 1.221398e+01 2.245527e+01 3.569860e+01 6.254219e+01 2.913960e+01 2.820193e+01 3.793769e+01 4.114175e+01 5.265807e+01 2.365471e+01 4.231000e+01 2.645598e+01 2.683423e+01 3.347614e+00 1.679639e+00 2.675334e+00 3.540703e+00 3.010894e+00 3.208392e+00 3.900104e+00 4.493060e+00 4.714935e+00 2.945571e+00 3.034103e+00 2.374318e+00 2.318874e+00 4.183269e-01 3.055824e-01 3.482113e-01 4.290979e-01 5.127740e-01 4.145977e-01 5.220647e-01 5.885698e-01 4.624070e-01 3.705091e-01 3.680316e-01 2.906946e-01 3.240911e-01
<GCONST> 1.192454e+02
<STATE> 3
<MEAN> 39
 -5.094015e+00 -4.944063e+00 6.368846e+00 -3.289524e+00 -1.364794e+01 -1.432596e+01 -1.109358e+01 2.765079e-01 -7.261428e+00 -1.959741e+00 -1.721811e+00 -2.996728e+00 6.782780e+01 -6.875487e-02 -2.420390e-01 2.805384e-01 -3.166244e-01 -6.392468e-01 -1.380784e-01 5.497191e-02 3.969314e-01 -2.854039e-01 1.340149e-01 1.266044e-01 3.204019e-02 3.281716e-01 -2.352027e-01 6.420469e-01 -2.957893e-01 3.450423e-01 9.067872e-01 5.727639e-01 4.135185e-01 -5.128230e-01 1.883517e-01 8.849051e-02 -2.043015e-01 -4.516004e-02 -7.497271e-01
<VARIANCE> 39
 8.730001e+00 1.919381e+01 3.723312e+01 6.061447e+01 2.575559e+01 2.953189e+01 2.978163e+01 4.579942e+01 7.336704e+01 2.628566e+01 5.377671e+01 3.120811e+01 2.081268e+01 7.225456e-01 1.072266e+00 1.646215e+00 1.797584e+00 2.328440e+00 1.800195e+00 2.416379e+00 2.185097e+00 1.880154e+00 1.716374e+00 1.758399e+00 1.456713e+00 8.596435e-01 3.429707e-01 2.154373e-01 3.104557e-01 4.391642e-01 3.933035e-01 4.282059e-01 5.618643e-01 6.853979e-01 6.468568e-01 4.462935e-01 4.197251e-01 3.388816e-01 2.318132e-01
<GCONST> 1.102980e+02
<STATE> 4
<MEAN> 39
 -5.679446e+00 -3.426328e+00 7.797247e+00 -4.289962e+00 -1.429866e+01 -1.392588e+01 -9.245849e+00 -1.338761e+00 -7.142837e+00 -1.539352e+00 -1.478609e+00 -2.170183e+00 6.710027e+01 2.538057e-02 3.990242e-01 -1.400852e-01 3.871203e-01 6.007215e-01 1.155758e-01 7.513946e-02 -2.504961e-01 5.673055e-02 -6.853046e-02 -3.005266e-01 -4.544925e-02 -4.956603e-01 -5.971162e-02 2.487843e-01 -1.187380e-01 1.996043e-01 3.957503e-01 1.514656e-01 5.719919e-02 -1.409299e-01 7.733066e-02 -4.064215e-02 -1.049185e-01 -3.641986e-02 -2.783395e-01
<VARIANCE> 39
 7.739405e+00 2.077268e+01 3.480935e+01 6.998982e+01 2.236393e+01 2.837360e+01 2.619295e+01 4.716976e+01 5.951618e+01 2.634645e+01 5.221673e+01 2.587010e+01 2.128304e+01 4.956852e-01 9.039934e-01 1.072422e+00 1.290787e+00 1.709035e+00 1.327223e+00 1.500131e+00 1.522049e+00 1.350313e+00 1.137542e+00 1.198720e+00 9.306126e-01 7.661660e-01 1.651520e-01 1.747975e-01 1.673045e-01 2.146594e-01 2.660365e-01 2.347384e-01 3.079055e-01 2.925704e-01 2.679933e-01 2.242694e-01 2.058968e-01 1.662263e-01 1.069117e-01
<GCONST> 9.671648e+01
<TRANSP> 5
 0.000000e+00 1.000000e+00 0.000000e+00 0.000000e+00 0.000000e+00
 0.000000e+00 3.463230e-01 6.536770e-01 0.000000e+00 0.000000e+00
 0.000000e+00 0.000000e+00 3.686399e-01 6.313601e-01 0.000000e+00
 0.000000e+00 0.000000e+00 0.000000e+00 7.419205e-01 2.580794e-01
 0.000000e+00 0.000000e+00 0.000000e+00 0.000000e+00 0.000000e+00
<ENDHMM>
~h "f"
<BEGINHMM>
<NUMSTATES> 5
<STATE> 2
<MEAN> 39
 -1.184285e+01 1.112387e+00 1.815492e+00 1.385334e+00 -1.979139e+00 -5.304763e+00 -6.153728e+00 -2.205280e+00 -4.306087e+00 -9.731963e-01 -3.004128e+00 -1.553764e+00 5.811240e+01 -2.634695e+00 -7.553631e-01 -1.039537e+00 5.303087e-01 6.612603e-01 4.467817e-01 3.142098e-01 6.956659e-01 1.182466e+00 4.366846e-01 3.381442e-01 5.317662e-01 -5.167242e-01 7.167567e-02 -3.652944e-01 -1.195210e-01 -4.112022e-01 -3.752781e-01 -1.316353e-01 -1.833520e-01 7.034703e-03 -1.596897e-01 4.045020e-02 7.623016e-02 -7.291154e-02 1.888000e-01
<VARIANCE> 39
 3.798869e+01 1.784601e+01 4.305227e+01 2.817250e+01 2.683369e+01 3.612380e+01 3.323377e+01 2.582234e+01 3.664165e+01 2.318007e+01 2.293896e+01 1.926860e+01 2.774150e+01 2.406472e+00 2.128827e+00 2.830346e+00 3.039969e+00 2.997912e+00 2.997584e+00 3.000159e+00 2.812667e+00 3.962037e+00 2.835741e+00 2.675182e+00 1.758473e+00 1.204967e+00 5.342124e-01 3.392168e-01 2.873892e-01 3.883690e-01 4.528892e-01 4.347992e-01 4.736865e-01 4.770766e-01 5.511645e-01 4.585558e-01 3.652884e-01 2.841395e-01 1.357831e-01
<GCONST> 1.147051e+02
<STATE> 3
<MEAN> 39
 -1.796289e+01 -3.588556e+00 -3.026959e+00 4.521404e-01 -2.207247e+00 -4.001641e+00 -5.059647e+00 -2.937979e-01 -1.912149e+00 4.572183e-01 -1.143587e+00 -6.276167e-04 5.509805e+01 -2.385319e-01 -3.658417e-01 -3.040434e-01 -7.764883e-02 1.191007e-01 1.755551e-01 1.655098e-01 1.685293e-01 1.600759e-01 1.360148e-01 6.899729e-02 5.990500e-02 -2.921811e-02 4.389154e-01 1.764707e-01 1.814350e-01 -1.488757e-02 2.428785e-02 -2.114263e-02 1.133495e-02 -7.990499e-02 -1.060199e-01 -5.711856e-02 -5.749531e-02 -7.257397e-02 5.700193e-02
<VARIANCE> 39
 1.968275e+01 1.128796e+01 1.728154e+01 1.521316e+01 1.515570e+01 1.981490e+01 2.965975e+01 1.853069e+01 2.176308e+01 1.609859e+01 1.282194e+01 1.181784e+01 4.430466e+01 9.452375e-01 7.473532e-01 9.065441e-01 8.939815e-01 9.800954e-01 1.092772e+00 1.186965e+00 1.179473e+00 1.235175e+00 1.174513e+00 9.703256e-01 9.005633e-01 7.584245e-01 3.036525e-01 1.787096e-01 1.955321e-01 2.059041e-01 1.999295e-01 2.513983e-01 2.704346e-01 2.647137e-01 3.156419e-01 2.778828e-01 2.385038e-01 2.068809e-01 1.305380e-01
<GCONST> 8.991302e+01
<STATE> 4
<MEAN> 39
 -1.580697e+01 -3.551321e+00 -2.610896e+00 4.883437e-01 -3.627087e-01 -3.455120e+00 -4.164555e+00 4.195788e-01 -1.072205e+00 1.354397e+00 -1.598746e+00 -6.608580e-01 5.762212e+01 3.837479e+00 9.438447e-01 7.806739e-01 -1.071433e+00 -8.128136e-01 -3.870826e-01 -5.900622e-01 -8.029867e-01 -1.038215e+00 -3.695630e-01 -2.227137e-01 -8.159035e-01 9.259397e-01 7.641715e-01 3.785925e-02 1.340468e-01 -5.371056e-01 -6.953937e-01 -1.932878e-01 -5.022450e-01 -2.523030e-01 -4.487938e-01 -1.354843e-01 4.017390e-02 -2.883327e-01 4.963462e-01
<VARIANCE> 39
 3.394715e+01 1.577323e+01 2.538287e+01 1.657762e+01 2.012372e+01 2.782860e+01 3.287812e+01 1.614130e+01 2.031484e+01 1.585699e+01 1.504020e+01 1.239343e+01 2.603854e+01 3.240878e+00 1.975520e+00 2.789431e+00 4.557827e+00 3.183552e+00 3.655252e+00 3.042052e+00 2.263952e+00 3.459022e+00 2.331253e+00 2.606389e+00 1.748481e+00 2.127069e+00 6.417382e-01 4.243743e-01 3.816746e-01 5.157945e-01 3.771835e-01 5.119865e-01 4.191062e-01 4.292307e-01 5.618209e-01 3.762661e-01 4.552196e-01 3.326028e-01 2.335486e-01
<GCONST> 1.128271e+02
<TRANSP> 5
 0.000000e+00 1.000000e+00 0.000000e+00 0.000000e+00 0.000000e+00
 0.000000e+00 6.628228e-01 3.371772e-01 0.000000e+00 0.000000e+00
 0.000000e+00 0.000000e+00 8.667759e-01 1.332241e-01 0.000000e+00
 0.000000e+00 0.000000e+00 0.000000e+00 6.138714e-01 3.861286e-01
 0.000000e+00 0.000000e+00 0.000000e+00 0.000000e+00 0.000000e+00
<ENDHMM>
~h "g"
<BEGINHMM>
<NUMSTATES> 5
<STATE> 2
<MEAN> 39
 -1.911885e+00 9.132878e-01 4.459503e+00 -4.333524e+00 -6.090554e+00 -8.054924e+00 -9.117885e+00 -3.925667e+00 -1.116212e+01 -8.521153e-01 -4.284461e+00 -5.456362e+00 5.891493e+01 3.966235e-01 1.589356e+00 2.703927e-01 1.304394e+00 8.561274e-01 3.827703e-01 6.735935e-01 -3.945128e-01 -1.997806e-01 -3.847016e-01 -1.637510e-01 -9.004840e-02 -2.200412e+00 -1.378784e-01 -1.723022e-01 -2.544912e-01 -1.740343e-01 -8.070350e-02 1.480619e-01 1.300627e-01 1.149068e-01 2.686564e-01 -7.463660e-03 8.212141e-02 8.044893e-02 2.226669e-01
<VARIANCE> 39
 1.563316e+01 2.633865e+01 5.106260e+01 9.067577e+01 5.053797e+01 6.562765e+01 4.796993e+01 7.251378e+01 5.947641e+01 5.045238e+01 6.399025e+01 4.318527e+01 2.981823e+01 1.269561e+00 1.408737e+00 2.271363e+00 2.913963e+00 2.336334e+00 2.796094e+00 2.773518e+00 3.193115e+00 3.259255e+00 3.226544e+00 2.231271e+00 1.886169e+00 1.575958e+00 1.693199e-01 2.799804e-01 3.329921e-01 4.749017e-01 4.611886e-01 5.314534e-01 5.617723e-01 7.051474e-01 5.136481e-01 5.064261e-01 4.213597e-01 3.487329e-01 3.836425e-01
<GCONST> 1.210514e+02
<STATE> 3
<MEAN> 39
 -1.403734e+00 6.337244e+00 5.010931e+00 2.422648e-01 -4.538362e+00 -5.041650e+00 -5.556658e+00 -4.072748e+00 -9.072203e+00 -1.179224e+00 -3.110847e+00 -5.116181e+00 5.286981e+01 -4.062013e-01 -2.374817e-01 -6.224881e-01 -1.101010e-02 5.279789e-01 1.753044e-02 -3.742072e-02 1.998480e-01 6.525260e-02 7.155942e-02 -9.132190e-02 4.628726e-01 2.007373e-01 -1.609535e-01 -7.189196e-01 -1.580662e-01 -5.099940e-01 -3.371332e-01 -2.605498e-01 -4.365565e-01 1.278787e-01 -5.010335e-03 1.585214e-01 1.315729e-01 1.237438e-01 1.077950e+00
<VARIANCE> 39
 1.566955e+01 1.861647e+01 3.675418e+01 4.309350e+01 3.630243e+01 4.380350e+01 3.088780e+01 3.480219e+01 3.638979e+01 2.909363e+01 3.629274e+01 2.604465e+01 2.446114e+01 1.210408e+00 2.146327e+00 2.313963e+00 3.414518e+00 3.066278e+00 3.015563e+00 2.967183e+00 3.004865e+00 2.637752e+00 2.480592e+00 2.040315e+00 1.655907e+00 2.776561e+00 2.564190e-01 3.443778e-01 3.472764e-01 4.764065e-01 5.278912e-01 4.137457e-01 4.525174e-01 6.292692e-01 5.646816e-01 5.893910e-01 4.052373e-01 3.104926e-01 3.342370e-01
<GCONST> 1.163640e+02
<STATE> 4
<MEAN> 39
 -4.047374e+00 2.587487e-01 2.649035e+00 -4.410325e-01 -5.004890e+00 -8.710045e+00 -8.567307e+00 -2.296517e+00 -8.263602e+00 -6.540368e-02 -2.468449e+00 -2.763800e+00 6.074393e+01 -9.117649e-03 -1.405330e+00 -5.704035e-01 -1.204891e+00 -1.513063e+00 -7.854372e-01 -6.775577e-01 4.953382e-01 7.147969e-01 4.980310e-01 4.874158e-01 2.316597e-01 2.403979e+00 2.669332e-01 2.139736e-02 3.205189e-02 -1.878637e-01 -2.668982e-01 2.114486e-01 9.069429e-02 -5.685012e-02 1.965472e-01 2.077409e-02 -2.163850e-02 -2.708404e-01 -2.391205e-02
<VARIANCE> 39
 1.531871e+01 2.274429e+01 4.560840e+01 5.031555e+01 5.784139e+01 6.082874e+01 4.110675e+01 4.332481e+01 4.166148e+01 3.274683e+01 4.091340e+01 2.464485e+01 3.407900e+01 1.744659e+00 2.036024e+00 2.406040e+00 3.415570e+00 4.811350e+00 3.188580e+00 3.095798e+00 5.041817e+00 4.722931e+00 3.347991e+00 2.852386e+00 2.067481e+00 1.945385e+00 2.254029e-01 3.313420e-01 4.479957e-01 5.416116e-01 1.117877e+00 6.570169e-01 5.660585e-01 5.781243e-01 6.613801e-01 5.623022e-01 6.215432e-01 3.458638e-01 5.322894e-01
<GCONST> 1.240425e+02
<TRANSP> 5
 0.000000e+00 1.000000e+00 0.000000e+00 0.000000e+00 0.000000e+00
 0.000000e+00 5.841981e-01 4.158019e-01 0.000000e+00 0.000000e+00
 0.000000e+00 0.000000e+00 6.052560e-01 3.947439e-01 0.000000e+00
 0.000000e+00 0.000000e+00 0.000000e+00 5.185587e-01 4.814413e-01
 0.000000e+00 0.000000e+00 0.000000e+00 0.000000e+00 0.000000e+00
<ENDHMM>
~h "i"
<BEGINHMM>
<NUMSTATES> 5
<STATE> 2
<MEAN> 39
 -1.047544e+01 3.803402e+00 1.134652e+01 5.010910e-01 -7.649033e+00 -8.649742e+00 -6.778418e+00 -5.060839e+00 -7.935335e+00 -3.794148e+00 -2.150517e+00 -2.372892e+00 6.153454e+01 2.186241e+00 -3.886560e-01 1.801949e+00 -5.328033e-02 -2.020335e+00 -1.183937e+00 -1.427595e+00 -5.146043e-01 -1.552329e+00 -6.843292e-01 2.309975e-01 -3.817883e-01 1.186901e+00 -9.683354e-02 -2.332852e-01 -4.608919e-01 -2.156801e-01 1.392241e-01 2.333717e-01 -1.973945e-02 2.479958e-01 1.637947e-01 1.816929e-01 4.504634e-02 -4.568124e-02 -1.283881e-01
<VARIANCE> 39
 2.848182e+01 2.977048e+01 4.138282e+01 4.295518e+01 3.074960e+01 3.774622e+01 3.759367e+01 3.698476e+01 3.387806e+01 2.252775e+01 2.624448e+01 2.114973e+01 4.292097e+01 5.086224e+00 2.891405e+00 3.840804e+00 3.711155e+00 2.965558e+00 3.278770e+00 3.167864e+00 3.396197e+00 3.373938e+00 2.566890e+00 2.800620e+00 2.117136e+00 2.095608e+00 5.246009e-01 3.525847e-01 3.912706e-01 3.188823e-01 4.394638e-01 4.011866e-01 4.156044e-01 4.639972e-01 3.789026e-01 3.349276e-01 3.033423e-01 2.376906e-01 2.132409e-01
<GCONST> 1.181975e+02
<STATE> 3
<MEAN> 39
 -6.988606e+00 2.670698e-01 1.315407e+01 -1.986535e+00 -1.187459e+01 -1.034421e+01 -1.015716e+01 -4.520735e+00 -1.201047e+01 -4.106718e+00 -2.118679e+00 -4.211536e+00 6.379847e+01 9.004343e-01 -4.527772e-01 6.325022e-02 -2.509032e-01 -5.010285e-01 -2.721979e-01 -6.574451e-01 9.958503e-02 -4.931330e-01 4.357242e-02 -6.496239e-02 -3.105301e-01 3.377202e-01 -4.740525e-01 2.925169e-01 -8.202334e-01 1.105141e-01 8.042213e-01 4.307032e-01 5.042163e-01 4.565493e-02 6.142962e-01 2.624503e-01 -1.281229e-01 8.962469e-02 -5.681422e-01
<VARIANCE> 39
 1.207114e+01 2.740865e+01 4.330512e+01 7.403391e+01 2.568156e+01 3.645815e+01 3.317432e+01 4.167653e+01 5.271044e+01 3.291872e+01 5.604997e+01 3.498273e+01 2.486852e+01 2.389862e+00 1.998312e+00 3.201250e+00 2.585122e+00 3.175484e+00 2.623514e+00 2.781256e+00 2.936575e+00 2.991989e+00 2.299565e+00 2.518821e+00 1.931691e+00 2.243789e+00 4.700301e-01 3.915569e-01 4.615130e-01 5.615631e-01 4.925277e-01 5.252325e-01 5.175031e-01 5.884968e-01 5.434874e-01 5.178056e-01 4.664049e-01 3.746245e-01 2.711065e-01
<GCONST> 1.201933e+02
<STATE> 4
<MEAN> 39
 -7.639251e+00 2.133937e+00 1.326822e+01 -4.068822e+00 -1.155734e+01 -1.013655e+01 -9.888298e+00 -6.465060e+00 -1.083362e+01 -4.187946e+00 -3.702501e+00 -3.962546e+00 6.299166e+01 1.855787e-01 -3.596963e-02 -5.895638e-01 1.242174e-01 2.254986e-01 -5.376832e-02 1.678485e-01 8.738691e-02 2.150446e-01 1.915000e-01 -6.496840e-02 2.418246e-02 -2.237560e-01 -9.657428e-02 6.417746e-02 -2.041831e-01 6.027972e-02 2.122464e-01 8.361988e-02 1.312091e-01 3.097925e-02 1.330651e-01 4.679646e-02 -1.642041e-02 2.070290e-02 -1.339041e-01
<VARIANCE> 39
 1.166556e+01 2.739080e+01 3.495292e+01 8.826901e+01 3.049792e+01 3.570684e+01 3.764529e+01 4.903202e+01 5.099048e+01 3.178831e+01 6.579074e+01 3.782774e+01 2.534539e+01 6.469612e-01 1.019339e+00 1.506124e+00 1.169889e+00 1.672631e+00 1.419739e+00 1.412710e+00 1.506123e+00 1.464265e+00 1.263697e+00 1.121802e+00 9.622591e-01 1.009947e+00 1.718539e-01 1.571778e-01 1.898330e-01 2.044960e-01 2.682716e-01 2.766685e-01 2.466227e-01 2.753905e-01 2.384807e-01 2.289270e-01 2.162947e-01 1.792116e-01 8.699225e-02
<GCONST> 1.001563e+02
<TRANSP> 5
 0.000000e+00 1.000000e+00 0.000000e+00 0.000000e+00 0.000000e+00
 0.000000e+00 3.793677e-01 6.206322e-01 0.000000e+00 0.000000e+00
 0.000000e+00 0.000000e+00 4.599172e-01 5.400828e-01 0.000000e+00
 0.000000e+00 0.000000e+00 0.000000e+00 7.786449e-01 2.213552e-01
 0.000000e+00 0.000000e+00 0.000000e+00 0.000000e+00 0.000000e+00
<ENDHMM>
~h "k"
<BEGINHMM>
<NUMSTATES> 5
<STATE> 2
<MEAN> 39
 -7.875866e+00 7.232315e-01 -1.677898e+00 -2.734379e+00 -2.645566e+00 -5.343878e+00 -5.156571e+00 -2.787017e+00 -5.949903e+00 6.395385e-02 -2.714236e+00 -2.145536e+00 5.054300e+01 -6.648520e-01 -5.038776e-01 -8.763358e-01 -5.561407e-01 3.273601e-01 2.798313e-01 3.532349e-01 4.889747e-01 4.021559e-01 2.432436e-01 1.814944e-02 3.692803e-01 -8.992310e-01 -8.212717e-02 -2.583601e-01 -1.040592e-01 -2.838764e-01 -6.503399e-02 2.096813e-02 -1.005104e-01 1.598254e-01 -2.098749e-02 1.246106e-01 -4.773898e-02 -1.428254e-02 8.022728e-01
<VARIANCE> 39
 2.982088e+01 2.529415e+01 4.313295e+01 3.799618e+01 4.618850e+01 5.361678e+01 3.587030e+01 3.590924e+01 4.596614e+01 2.938935e+01 3.317776e+01 2.407503e+01 4.043032e+01 2.384728e+00 2.853938e+00 3.216093e+00 3.820846e+00 3.807831e+00 3.233603e+00 2.996471e+00 3.562659e+00 3.729037e+00 2.855203e+00 2.568732e+00 1.856949e+00 5.693608e+00 3.643836e-01 4.640269e-01 4.947008e-01 5.757775e-01 6.611034e-01 5.890913e-01 5.464101e-01 6.588061e-01 6.319997e-01 5.348612e-01 4.327720e-01 3.404377e-01 6.744227e-01
<GCONST> 1.248519e+02
<STATE> 3
<MEAN> 39
 -1.187263e+01 -3.740470e+00 -6.514399e+00 -8.001214e+00 -5.960451e-01 -3.536656e+00 -4.362423e+00 1.523963e+00 -4.299056e+00 3.008703e+00 -3.024625e+00 -1.084349e-01 5.587959e+01 -9.249897e-03 2.515584e-01 1.252522e-01 -2.829798e-01 1.609734e-01 2.290799e-01 2.076851e-02 1.356660e-01 -6.123545e-02 1.866025e-01 -1.628781e-01 1.764441e-01 1.808306e+00 6.883479e-01 5.831177e-01 7.676023e-01 5.019519e-01 -5.495929e-01 -2.831991e-01 -1.790241e-01 -6.321454e-01 -3.028113e-01 -4.976123e-01 -6.693840e-03 -3.202672e-01 -2.102797e-02
<VARIANCE> 39
 3.477492e+01 2.829778e+01 5.550805e+01 4.424429e+01 3.259927e+01 3.726782e+01 3.908479e+01 3.741409e+01 3.547676e+01 2.942633e+01 2.311361e+01 1.749113e+01 2.786176e+01 3.256301e+00 3.212233e+00 4.351221e+00 4.699752e+00 3.475252e+00 3.209937e+00 3.043622e+00 4.104253e+00 3.211267e+00 2.785919e+00 2.023183e+00 2.088351e+00 2.989461e+00 4.594826e-01 5.248868e-01 6.187409e-01 9.579331e-01 8.361139e-01 6.757542e-01 7.063000e-01 8.400619e-01 8.619781e-01 5.144235e-01 5.994915e-01 5.204437e-01 5.195984e-01
<GCONST> 1.264045e+02
<STATE> 4
<MEAN> 39
 -8.988274e+00 5.017743e-01 -1.761471e+00 -4.244462e+00 -1.815158e+00 -4.746469e+00 -4.480256e+00 -1.542371e+00 -5.422784e+00 6.246195e-01 -4.168847e+00 -1.109428e+00 5.782159e+01 2.610638e+00 9.629122e-01 1.808672e+00 1.990645e-01 -2.300884e+00 -9.723669e-01 -9.929233e-01 -1.619159e+00 -1.408837e+00 -1.264143e+00 -3.099005e-01 -1.246884e+00 1.746897e+00 3.117967e-01 -3.678594e-01 -9.635649e-02 -2.745493e-01 -4.969262e-01 -1.221901e-01 -2.717801e-01 -8.392783e-02 -1.945809e-01 -7.443356e-02 1.379026e-01 -3.355175e-01 8.088424e-02
<VARIANCE> 39
 4.297040e+01 2.775140e+01 5.447425e+01 3.471809e+01 3.193632e+01 4.869240e+01 3.796992e+01 3.497198e+01 3.742859e+01 3.116821e+01 2.644839e+01 1.917943e+01 2.971203e+01 1.676869e+00 2.266277e+00 3.146554e+00 5.242234e+00 3.084323e+00 3.648958e+00 4.286857e+00 4.140300e+00 6.535999e+00 2.927455e+00 4.437546e+00 2.970497e+00 1.790369e+00 4.959205e-01 4.299625e-01 5.417338e-01 6.279536e-01 6.544930e-01 5.969021e-01 5.627840e-01 6.991521e-01 8.026801e-01 5.493217e-01 5.256270e-01 4.758073e-01 3.247326e-01
<GCONST> 1.252511e+02
<TRANSP> 5
 0.000000e+00 1.000000e+00 0.000000e+00 0.000000e+00 0.000000e+00
 0.000000e+00 7.853678e-01 2.146322e-01 0.000000e+00 0.000000e+00
 0.000000e+00 0.000000e+00 6.497223e-01 3.502777e-01 0.000000e+00
 0.000000e+00 0.000000e+00 0.000000e+00 4.015415e-01 5.984585e-01
 0.000000e+00 0.000000e+00 0.000000e+00 0.000000e+00 0.000000e+00
<ENDHMM>
~h "l"
<BEGINHMM>
<NUMSTATES> 5
<STATE> 2
<MEAN> 39
 -3.156128e+00 -1.715319e+00 1.917723e+00 -5.964083e+00 -5.784048e+00 -6.652081e+00 -1.103098e+01 -5.475750e+00 -6.326663e+00 -4.396030e-01 -2.867250e+00 -6.011011e+00 6.390173e+01 2.237613e-01 9.692895e-01 8.021365e-01 1.914999e-01 9.401681e-01 7.002903e-01 -5.330664e-01 -1.450245e+00 -6.829045e-01 -3.291613e-01 -4.572020e-02 5.630070e-02 -9.957997e-01 -1.286598e-01 -5.299624e-02 -5.807777e-02 -1.361816e-01 -1.226155e-01 -6.542181e-02 1.819600e-01 2.341848e-01 5.522674e-04 -8.035903e-02 -1.122492e-02 9.449008e-02 1.251346e-01
<VARIANCE> 39
 2.003063e+01 2.748347e+01 6.395062e+01 7.326469e+01 3.476702e+01 6.538117e+01 4.201212e+01 6.022543e+01 6.616109e+01 4.850166e+01 6.190740e+01 3.507862e+01 2.611468e+01 1.014448e+00 1.322391e+00 2.316787e+00 3.037901e+00 3.183468e+00 3.090892e+00 2.935134e+00 3.330757e+00 3.306001e+00 3.089607e+00 2.737553e+00 2.935981e+00 8.995121e-01 1.605797e-01 2.144463e-01 3.446648e-01 4.166170e-01 5.113470e-01 5.044779e-01 4.960227e-01 6.354281e-01 5.853297e-01 4.591538e-01 4.230044e-01 4.149399e-01 1.592623e-01
<GCONST> 1.194280e+02
<STATE> 3
<MEAN> 39
 -3.361208e+00 1.107296e+00 5.241062e+00 -5.562561e+00 -4.315545e+00 -5.953212e+00 -1.223153e+01 -7.532086e+00 -8.104727e+00 -2.198171e+00 -3.427079e+00 -5.424261e+00 6.163060e+01 -1.389141e-01 -8.826236e-02 5.061294e-02 -2.431624e-01 -2.121110e-01 -2.206584e-01 2.071073e-01 2.801108e-01 -1.088415e-01 -1.607892e-02 -7.033056e-02 9.897855e-02 1.902064e-01 -9.353252e-02 -4.375693e-01 -3.544036e-01 -1.340062e-01 -5.320874e-01 -2.948259e-01 2.834798e-01 5.309408e-01 2.099047e-01 2.244041e-01 1.601677e-01 5.326802e-02 4.686741e-01
<VARIANCE> 39
 2.127707e+01 2.596766e+01 5.734370e+01 7.309697e+01 3.000838e+01 6.939301e+01 3.911393e+01 5.380162e+01 4.590959e+01 4.942529e+01 5.828841e+01 3.844886e+01 2.169427e+01 4.725249e-01 1.043055e+00 1.463317e+00 1.518628e+00 2.164721e+00 2.432558e+00 2.117929e+00 2.723916e+00 2.493657e+00 1.791340e+00 1.707739e+00 1.452575e+00 8.029379e-01 1.330148e-01 1.948567e-01 2.939451e-01 4.237815e-01 6.059157e-01 6.703718e-01 6.005024e-01 7.311645e-01 6.932566e-01 5.385415e-01 5.614566e-01 5.783225e-01 1.301710e-01
<GCONST> 1.142263e+02
<STATE> 4
<MEAN> 39
 -6.448548e+00 -2.291731e-01 8.409007e+00 -9.823407e+00 -9.632104e+00 -1.085991e+01 -9.830091e+00 -6.636512e+00 -1.225944e+01 -3.106660e+00 -6.128711e+00 -5.823648e+00 6.325028e+01 -7.939926e-03 -1.371456e-01 -1.072588e-01 -5.471068e-02 -2.723585e-01 -5.442857e-02 2.008351e-01 2.188133e-01 5.896085e-02 1.591522e-01 8.443758e-02 8.137424e-02 1.354495e-01 5.183191e-03 -1.405077e-02 -5.564070e-02 5.112720e-02 4.593773e-03 2.652676e-02 8.119469e-03 3.590895e-02 6.280553e-02 7.693060e-03 -4.294650e-03 -4.643553e-03 -6.305224e-03
<VARIANCE> 39
 2.243031e+01 2.856493e+01 5.711909e+01 8.154490e+01 4.929605e+01 4.317134e+01 3.227099e+01 6.105891e+01 6.618353e+01 5.434243e+01 7.798452e+01 5.763503e+01 1.951700e+01 2.985555e-01 7.017447e-01 8.006109e-01 1.151713e+00 1.468166e+00 1.380568e+00 1.265756e+00 1.635749e+00 1.520789e+00 1.391282e+00 1.293263e+00 1.153232e+00 5.493177e-01 4.131323e-02 9.227767e-02 9.824286e-02 1.628775e-01 1.735066e-01 1.634908e-01 1.883328e-01 1.976293e-01 1.920771e-01 1.941680e-01 1.912183e-01 1.596842e-01 5.150412e-02
<GCONST> 9.544314e+01
<TRANSP> 5
 0.000000e+00 1.000000e+00 0.000000e+00 0.000000e+00 0.000000e+00
 0.000000e+00 4.749432e-01 5.250569e-01 0.000000e+00 0.000000e+00
 0.000000e+00 0.000000e+00 5.294740e-01 4.705260e-01 0.000000e+00
 0.000000e+00 0.000000e+00 0.000000e+00 7.907297e-01 2.092703e-01
 0.000000e+00 0.000000e+00 0.000000e+00 0.000000e+00 0.000000e+00
<ENDHMM>
~h "m"
<BEGINHMM>
<NUMSTATES> 5
<STATE> 2
<MEAN> 39
 -2.406509e-01 2.020601e+00 1.367351e+00 -1.226198e-01 -4.915917e+00 -3.238065e+00 -3.589939e+00 -1.016789e+01 -1.052356e+01 -1.365080e+00 -3.494145e+00 -5.017943e+00 5.912568e+01 4.251617e-01 5.863113e-01 7.385333e-01 1.723729e+00 -1.386001e-02 -1.809634e-01 1.092415e+00 -2.148583e+00 -1.510041e+00 -4.191351e-02 -3.216756e-01 -1.226797e-01 -4.863604e-01 -2.267508e-01 -2.771250e-01 -7.710482e-02 -2.996828e-01 -1.416509e-01 -4.915746e-02 -2.616188e-01 4.191525e-01 2.858613e-01 7.163497e-03 9.270222e-02 8.030690e-02 3.471822e-01
<VARIANCE> 39
 1.420391e+01 2.661651e+01 2.248279e+01 4.072146e+01 3.541719e+01 4.857843e+01 5.771152e+01 4.127993e+01 5.043670e+01 2.826623e+01 5.649421e+01 3.396032e+01 3.153926e+01 2.377694e+00 1.974597e+00 2.486004e+00 3.627465e+00 3.967379e+00 2.657161e+00 4.366375e+00 3.095507e+00 3.342071e+00 2.600949e+00 2.949161e+00 2.185825e+00 1.995573e+00 2.423385e-01 2.780308e-01 3.482293e-01 4.594243e-01 5.429146e-01 3.270799e-01 5.474327e-01 5.917213e-01 5.435581e-01 3.564954e-01 3.858926e-01 3.017859e-01 1.611012e-01
<GCONST> 1.183501e+02
<STATE> 3
<MEAN> 39
 3.412786e-01 1.335253e+00 2.936361e+00 1.029491e+00 -6.008771e+00 -4.479810e+00 -3.246016e+00 -1.330495e+01 -1.378092e+01 -2.000622e+00 -6.367626e+00 -5.541960e+00 5.923064e+01 3.952072e-02 -2.674085e-01 -5.279868e-03 4.323428e-04 -3.731674e-02 -8.608925e-02 -3.148435e-02 9.098687e-02 5.636210e-02 -5.734697e-02 1.108487e-01 9.076997e-03 2.490374e-01 -4.413458e-02 -2.914489e-01 -2.807395e-01 -6.583432e-01 4.672819e-04 4.465207e-02 -3.526495e-01 7.421083e-01 3.929464e-01 2.714418e-02 1.370731e-01 -6.057531e-02 2.957415e-01
<VARIANCE> 39
 7.008805e+00 2.338476e+01 1.931094e+01 3.889399e+01 3.375819e+01 4.836118e+01 6.487057e+01 3.117836e+01 5.056933e+01 3.072710e+01 8.996400e+01 4.520272e+01 1.860641e+01 2.527041e-01 6.340149e-01 8.624568e-01 1.333762e+00 1.092070e+00 1.203442e+00 1.097901e+00 1.453082e+00 1.223206e+00 1.244622e+00 1.367918e+00 1.100456e+00 4.625592e-01 1.088148e-01 1.530179e-01 3.275652e-01 3.265976e-01 3.899578e-01 2.572610e-01 4.832527e-01 4.151796e-01 4.799908e-01 3.568441e-01 4.153814e-01 3.443769e-01 8.801015e-02
<GCONST> 9.972274e+01
<STATE> 4
<MEAN> 39
 3.471121e-01 -4.360769e-01 5.014699e-01 -1.319230e+00 -5.927996e+00 -3.527743e+00 -3.801286e+00 -1.054986e+01 -1.148388e+01 -1.962786e+00 -2.943791e+00 -5.883991e+00 6.169507e+01 -1.776319e-01 -1.467711e+00 -7.859332e-01 -2.230719e+00 -4.853220e-03 2.282762e-01 -1.438577e+00 2.501309e+00 1.470175e+00 5.900213e-02 3.678347e-01 -2.978849e-01 1.447999e+00 -2.166214e-01 -1.438078e-01 1.075737e-01 -2.387774e-01 -2.195815e-02 3.607644e-02 -2.164496e-01 5.256417e-01 2.220269e-01 5.464214e-02 -1.554411e-01 -5.967536e-03 1.572368e-01
<VARIANCE> 39
 8.194962e+00 2.348725e+01 2.469687e+01 5.311022e+01 2.753233e+01 5.276586e+01 6.310447e+01 4.037626e+01 5.837659e+01 2.472472e+01 6.260080e+01 3.765250e+01 2.399465e+01 7.627313e-01 1.181654e+00 3.770202e+00 2.675685e+00 3.144277e+00 2.479142e+00 3.234401e+00 3.582119e+00 3.688122e+00 2.819748e+00 3.167633e+00 3.128085e+00 7.082802e-01 1.018396e-01 2.000393e-01 4.017007e-01 6.599815e-01 5.113837e-01 3.368309e-01 5.050941e-01 6.434106e-01 6.631460e-01 3.853726e-01 4.389677e-01 4.056945e-01 1.517608e-01
<GCONST> 1.153800e+02
<TRANSP> 5
 0.000000e+00 1.000000e+00 0.000000e+00 0.000000e+00 0.000000e+00
 0.000000e+00 4.957556e-01 5.042445e-01 0.000000e+00 0.000000e+00
 0.000000e+00 0.000000e+00 6.718906e-01 3.281093e-01 0.000000e+00
 0.000000e+00 0.000000e+00 0.000000e+00 4.827480e-01 5.172520e-01
 0.000000e+00 0.000000e+00 0.000000e+00 0.000000e+00 0.000000e+00
<ENDHMM>
~h "n"
<BEGINHMM>
<NUMSTATES> 5
<STATE> 2
<MEAN> 39
 -2.545582e+00 2.165390e+00 2.078926e+00 -2.282334e-02 -5.803616e+00 -6.915845e+00 -5.205151e+00 -9.384288e+00 -8.192862e+00 -8.428670e-02 -6.521602e+00 -4.878977e+00 5.971990e+01 1.089816e+00 6.643778e-01 6.574078e-01 1.065022e+00 -5.793717e-01 -1.353960e-01 1.056216e+00 -2.664093e+00 -9.058341e-01 6.743046e-01 -1.035420e+00 2.069257e-01 -4.814784e-01 -1.717345e-01 -3.041293e-01 -1.041048e-01 -3.482098e-01 -1.152803e-01 9.016873e-02 -1.979149e-01 2.971750e-01 1.870595e-01 -2.131016e-02 1.356246e-01 3.785798e-02 3.405724e-01
<VARIANCE> 39
 1.644658e+01 3.142002e+01 2.700624e+01 3.789897e+01 3.411840e+01 4.270635e+01 4.870042e+01 5.564062e+01 5.122966e+01 4.527651e+01 6.260222e+01 3.015784e+01 4.687070e+01 1.887331e+00 2.246216e+00 3.360993e+00 2.540735e+00 3.271996e+00 3.243358e+00 4.523507e+00 3.836138e+00 3.133617e+00 3.260822e+00 2.957550e+00 3.011118e+00 3.095026e+00 2.459599e-01 2.912523e-01 3.758365e-01 3.540041e-01 4.663748e-01 3.965612e-01 6.591569e-01 9.654123e-01 4.615988e-01 4.900187e-01 3.913090e-01 3.206281e-01 2.235232e-01
<GCONST> 1.217766e+02
<STATE> 3
<MEAN> 39
 -5.374610e-01 1.745114e+00 3.442671e+00 1.749136e-01 -8.150880e+00 -7.620939e+00 -4.338230e+00 -1.446717e+01 -1.070613e+01 7.624353e-01 -9.836221e+00 -4.134376e+00 5.978620e+01 -1.600903e-02 -5.378786e-01 -1.897807e-01 -4.146045e-01 2.463673e-01 2.886092e-02 -4.568828e-01 3.591700e-01 8.914715e-02 -1.584701e-02 4.759312e-02 -1.198430e-01 4.719084e-01 -2.623295e-01 -4.049236e-01 -3.240143e-01 -6.219433e-01 2.978600e-01 7.678508e-02 -5.237391e-01 1.175831e+00 2.000674e-01 -2.762101e-01 2.843930e-01 -2.450354e-01 4.149245e-01
<VARIANCE> 39
 7.825901e+00 1.972624e+01 1.885016e+01 3.448196e+01 2.079232e+01 4.749756e+01 5.678712e+01 3.791444e+01 4.142571e+01 4.120988e+01 8.437742e+01 5.099120e+01 1.625466e+01 4.373419e-01 1.225207e+00 1.256311e+00 1.658072e+00 1.657685e+00 1.512253e+00 2.353568e+00 3.637666e+00 1.560570e+00 1.720540e+00 1.812088e+00 1.790445e+00 1.021772e+00 1.550737e-01 2.193613e-01 4.213686e-01 3.859169e-01 4.026700e-01 3.594958e-01 7.134777e-01 7.146664e-01 4.326148e-01 4.475644e-01 4.395711e-01 4.627939e-01 1.385053e-01
<GCONST> 1.087091e+02
<STATE> 4
<MEAN> 39
 -1.819496e+00 -1.502366e+00 1.263692e+00 -3.165962e+00 -4.850385e+00 -7.303156e+00 -8.135893e+00 -7.916118e+00 -8.916818e+00 -1.896294e-01 -7.750810e+00 -6.126558e+00 6.342524e+01 -3.396910e-01 -1.350072e+00 -9.587523e-01 -1.874814e+00 5.318618e-01 4.036650e-01 -1.356412e+00 2.726347e+00 4.271016e-01 -5.986802e-01 5.369586e-01 -5.193079e-01 1.298865e+00 -1.079805e-02 1.209524e-01 -5.536181e-02 -6.540412e-02 -2.461223e-01 1.962017e-01 2.389206e-01 3.796084e-02 -1.851519e-02 -3.341392e-02 8.121087e-02 8.863887e-02 -8.807409e-02
<VARIANCE> 39
 8.402091e+00 2.087923e+01 2.524631e+01 4.264103e+01 2.577304e+01 4.090553e+01 4.583099e+01 4.629450e+01 6.219467e+01 4.275524e+01 6.764291e+01 3.028291e+01 2.169371e+01 8.118410e-01 1.437521e+00 2.528437e+00 2.568905e+00 2.757639e+00 1.948908e+00 3.780178e+00 4.428421e+00 3.173640e+00 2.469275e+00 2.209549e+00 2.395541e+00 8.932208e-01 9.276627e-02 1.834106e-01 2.332907e-01 3.516955e-01 3.242879e-01 3.087158e-01 5.015777e-01 6.895140e-01 3.658490e-01 3.816428e-01 2.929324e-01 2.608689e-01 1.376951e-01
<GCONST> 1.107110e+02
<TRANSP> 5
 0.000000e+00 1.000000e+00 0.000000e+00 0.000000e+00 0.000000e+00
 0.000000e+00 4.990734e-01 5.009266e-01 0.000000e+00 0.000000e+00
 0.000000e+00 0.000000e+00 6.168560e-01 3.831440e-01 0.000000e+00
 0.000000e+00 0.000000e+00 0.000000e+00 4.059944e-01 5.940057e-01
 0.000000e+00 0.000000e+00 0.000000e+00 0.000000e+00 0.000000e+00
<ENDHMM>
~h "o"
<BEGINHMM>
<NUMSTATES> 5
<STATE> 2
<MEAN> 39
 -1.078335e+00 1.943955e+00 -2.637741e+00 -8.584830e+00 -5.906037e+00 -2.572294e+00 -1.002780e+01 -6.778722e+00 -7.377891e+00 1.673655e-01 -1.907069e+00 -3.207217e+00 6.238174e+01 2.331742e+00 -2.115718e-01 -3.783461e-01 -2.276192e+00 -2.150082e+00 7.103972e-01 -8.922046e-01 -1.353585e+00 -1.085562e+00 5.334224e-02 6.442971e-01 -3.440802e-01 1.604763e+00 -6.037493e-01 -2.165101e-01 2.130376e-02 1.441388e-01 1.735444e-01 1.261546e-01 2.977364e-01 3.624832e-01 1.403428e-01 3.891030e-02 1.350316e-01 8.549560e-02 -2.990415e-01
<VARIANCE> 39
 1.791281e+01 2.838650e+01 2.630856e+01 4.454579e+01 3.594163e+01 5.758590e+01 5.446400e+01 3.352071e+01 4.416654e+01 2.959774e+01 4.726026e+01 3.428209e+01 3.363153e+01 2.806296e+00 3.025385e+00 3.142932e+00 4.643303e+00 4.176396e+00 4.217336e+00 4.417193e+00 4.875344e+00 5.126548e+00 3.298284e+00 3.936090e+00 3.333357e+00 1.931218e+00 4.665126e-01 4.183342e-01 3.543318e-01 5.373976e-01 5.382226e-01 3.934356e-01 5.783393e-01 5.454195e-01 4.966788e-01 4.995754e-01 4.247328e-01 3.595948e-01 3.068712e-01
<GCONST> 1.245666e+02
<STATE> 3
<MEAN> 39
 -3.199783e-02 -6.216836e-01 -3.820129e+00 -1.176903e+01 -8.327019e+00 -5.694758e-01 -1.128687e+01 -7.730251e+00 -8.938400e+00 1.042638e+00 3.902754e-01 -3.628765e+00 6.512470e+01 2.842006e-01 -5.555239e-01 -1.400849e-01 -5.956109e-01 -4.246036e-01 4.554847e-01 -3.280869e-01 -1.748709e-01 -2.947699e-01 3.389003e-01 6.309950e-01 -2.208645e-01 5.546758e-01 -5.895263e-01 1.377210e-01 2.300173e-01 8.005334e-01 6.505598e-01 -3.305953e-01 3.125298e-01 4.195058e-01 3.304247e-01 -1.004661e-01 -2.992601e-01 3.655526e-02 -5.603191e-01
<VARIANCE> 39
 1.142688e+01 3.079856e+01 2.683297e+01 5.229485e+01 3.638102e+01 7.334150e+01 5.623891e+01 4.104671e+01 6.332437e+01 3.555349e+01 7.098801e+01 5.289189e+01 2.007726e+01 7.640841e-01 1.666006e+00 1.475230e+00 3.732466e+00 3.024786e+00 2.804133e+00 3.680082e+00 2.887233e+00 2.890478e+00 2.840642e+00 2.285264e+00 2.237860e+00 1.287597e+00 2.935988e-01 4.016553e-01 3.255928e-01 5.653080e-01 6.265084e-01 6.262059e-01 5.729954e-01 7.439907e-01 7.472977e-01 6.429700e-01 6.023477e-01 5.093938e-01 2.237801e-01
<GCONST> 1.207790e+02
<STATE> 4
<MEAN> 39
 3.893487e-01 6.392527e-02 -3.812282e+00 -1.472796e+01 -8.666152e+00 4.938026e-01 -9.797297e+00 -6.127783e+00 -9.742578e+00 -3.480642e-01 3.855903e-01 -4.057254e+00 6.406690e+01 -6.880103e-02 -6.718696e-02 1.609818e-01 5.115045e-01 3.560436e-01 -2.977752e-01 -4.849052e-02 6.930329e-02 1.257614e-01 3.239487e-02 -1.328145e-01 -1.526643e-01 -2.415268e-01 -1.186174e-01 8.448426e-02 1.330743e-01 3.791248e-01 1.878219e-01 -1.854757e-01 3.825634e-02 1.752697e-02 7.003048e-02 -4.781393e-02 -1.152730e-01 -3.735783e-03 -2.034471e-01
<VARIANCE> 39
 9.956225e+00 3.652002e+01 2.556105e+01 5.614745e+01 3.777574e+01 6.202784e+01 5.221174e+01 4.680898e+01 7.216255e+01 4.229449e+01 5.781636e+01 6.076937e+01 2.620913e+01 3.561075e-01 9.197671e-01 8.924044e-01 2.390570e+00 1.522317e+00 1.829390e+00 1.751851e+00 1.971075e+00 1.860189e+00 1.856849e+00 1.580970e+00 1.358960e+00 7.601919e-01 1.014320e-01 1.409340e-01 1.409298e-01 2.223460e-01 2.845326e-01 2.805725e-01 3.221930e-01 3.603882e-01 3.376006e-01 3.736888e-01 2.829829e-01 2.568041e-01 1.122906e-01
<GCONST> 1.042216e+02
<TRANSP> 5
 0.000000e+00 1.000000e+00 0.000000e+00 0.000000e+00 0.000000e+00
 0.000000e+00 3.618778e-01 6.381221e-01 0.000000e+00 0.000000e+00
 0.000000e+00 0.000000e+00 4.383048e-01 5.616951e-01 0.000000e+00
 0.000000e+00 0.000000e+00 0.000000e+00 7.932853e-01 2.067147e-01
 0.000000e+00 0.000000e+00 0.000000e+00 0.000000e+00 0.000000e+00
<ENDHMM>
~h "p"
<BEGINHMM>
<NUMSTATES> 5
<STATE> 2
<MEAN> 39
 -4.558337e+00 2.551636e+00 -4.942165e-01 -2.797754e+00 -3.796174e+00 -4.643583e+00 -4.642378e+00 -4.446888e+00 -6.002038e+00 -1.218138e+00 -3.377135e+00 -2.807488e+00 5.090929e+01 -9.410473e-01 3.637585e-01 -2.479487e-01 4.954629e-01 2.335815e-01 7.156633e-02 4.037174e-01 2.728084e-01 4.298113e-01 -1.120483e-01 1.205043e-01 3.473606e-01 -2.037236e+00 -2.619138e-01 -3.831510e-01 4.130445e-03 -3.751646e-02 6.577049e-03 -1.909432e-02 -1.248032e-01 1.967179e-01 1.242045e-01 1.083032e-01 8.080500e-02 -7.652059e-03 6.089146e-01
<VARIANCE> 39
 3.341002e+01 3.890030e+01 3.975020e+01 4.069721e+01 3.024593e+01 4.354239e+01 3.326872e+01 2.787657e+01 4.274292e+01 3.049142e+01 3.430577e+01 2.488691e+01 3.519786e+01 2.040265e+00 2.687637e+00 2.144888e+00 2.974538e+00 2.351947e+00 2.336959e+00 2.586550e+00 2.488708e+00 2.817610e+00 2.272262e+00 1.857638e+00 1.385969e+00 3.160544e+00 3.028250e-01 4.566697e-01 4.245015e-01 4.931508e-01 5.204481e-01 4.334047e-01 4.530394e-01 4.673379e-01 4.601848e-01 4.353490e-01 3.525057e-01 2.766568e-01 5.601893e-01
<GCONST> 1.177102e+02
<STATE> 3
<MEAN> 39
 -1.104622e+01 2.389029e+00 -3.291406e-01 2.316413e-01 -1.022982e+00 -1.773479e+00 -2.786928e+00 -2.037772e+00 -2.956775e+00 -1.174888e+00 -1.499966e+00 -1.105989e+00 4.549322e+01 -2.214001e-01 -9.910439e-01 -1.408126e-01 2.100645e-01 2.560712e-01 -5.254211e-02 -7.136948e-02 5.548050e-01 5.785453e-01 4.354899e-01 1.980898e-01 9.600808e-02 1.320973e+00 6.310421e-01 -2.473411e-01 1.380170e-01 -1.955877e-01 -2.240544e-01 -1.661948e-01 -3.031106e-01 -4.122934e-02 -7.860764e-02 1.186761e-01 2.779385e-02 -1.257873e-01 1.256452e+00
<VARIANCE> 39
 1.167507e+01 1.446748e+01 1.676796e+01 2.187119e+01 2.087751e+01 2.497720e+01 1.862608e+01 1.495373e+01 1.810152e+01 1.494826e+01 1.321747e+01 1.205195e+01 2.554873e+01 2.790891e+00 1.862114e+00 2.061570e+00 2.244058e+00 1.915309e+00 2.236985e+00 2.113958e+00 2.100257e+00 2.296527e+00 1.893414e+00 1.591825e+00 1.358103e+00 5.470726e+00 3.517243e-01 3.563378e-01 4.285344e-01 5.458501e-01 3.574358e-01 4.913268e-01 3.873700e-01 3.829129e-01 3.861966e-01 3.677821e-01 2.793914e-01 2.727979e-01 5.076819e-01
<GCONST> 1.061939e+02
<STATE> 4
<MEAN> 39
 -8.845473e+00 -2.004772e+00 -4.184525e-02 4.292200e-01 -7.480879e-01 -3.998010e+00 -4.676386e+00 -8.084068e-02 -8.994667e-01 1.495548e+00 -8.792321e-01 -8.040165e-01 5.774877e+01 2.261956e+00 -9.439380e-01 4.757385e-01 -6.000397e-01 -1.087763e+00 -6.224036e-01 -1.291961e+00 -1.642269e-01 -4.049779e-01 2.025160e-01 8.620796e-02 -5.464385e-01 3.955833e+00 4.529193e-01 1.187241e-01 1.667617e-02 -5.108729e-01 -6.496006e-01 -1.397351e-01 -3.354090e-01 -3.965881e-01 -6.247327e-01 -2.780364e-01 -2.053270e-01 -3.401535e-01 -2.624359e-01
<VARIANCE> 39
 2.527899e+01 2.016340e+01 2.256329e+01 2.057414e+01 1.918797e+01 2.731627e+01 3.404659e+01 2.278416e+01 2.024179e+01 1.814000e+01 1.645521e+01 1.371440e+01 2.847126e+01 3.570141e+00 3.576009e+00 4.065905e+00 5.745286e+00 3.713969e+00 5.430149e+00 3.861088e+00 3.707713e+00 4.386234e+00 3.218011e+00 2.973599e+00 2.476511e+00 4.691930e+00 5.993494e-01 6.476034e-01 5.132754e-01 6.861485e-01 5.761646e-01 8.195736e-01 6.899456e-01 6.722215e-01 8.464135e-01 5.367165e-01 6.276243e-01 4.340632e-01 7.286223e-01
<GCONST> 1.232792e+02
<TRANSP> 5
 0.000000e+00 1.000000e+00 0.000000e+00 0.000000e+00 0.000000e+00
 0.000000e+00 7.136782e-01 2.863218e-01 0.000000e+00 0.000000e+00
 0.000000e+00 0.000000e+00 6.648974e-01 3.351026e-01 0.000000e+00
 0.000000e+00 0.000000e+00 0.000000e+00 5.157232e-01 4.842768e-01
 0.000000e+00 0.000000e+00 0.000000e+00 0.000000e+00 0.000000e+00
<ENDHMM>
~h "r"
<BEGINHMM>
<NUMSTATES> 5
<STATE> 2
<MEAN> 39
 -5.185875e+00 -8.116615e-01 -2.561291e-01 6.732063e-01 -1.963450e+00 -6.416220e+00 -5.732562e+00 -5.050478e-01 -2.297651e+00 8.078364e-01 -5.011091e+00 -2.813169e+00 6.233905e+01 -3.252790e-01 4.461598e-01 5.041689e-01 1.122547e+00 1.026432e+00 2.289421e-01 8.617551e-01 2.411078e-01 -2.238778e-01 -5.733771e-01 -3.974364e-01 2.953407e-01 -6.077181e-01 -1.211034e-03 2.961826e-03 2.461562e-01 -3.495410e-01 -4.126006e-01 1.103839e-01 9.716030e-02 -1.341463e-01 -4.374627e-01 -1.184268e-01 3.265367e-01 -3.736305e-02 1.134827e-01
<VARIANCE> 39
 2.958642e+01 2.776684e+01 4.154813e+01 3.008867e+01 5.821309e+01 5.560123e+01 3.921651e+01 5.123887e+01 7.958344e+01 4.248178e+01 4.372418e+01 2.815685e+01 2.798076e+01 2.433995e+00 2.245686e+00 3.396795e+00 2.691479e+00 5.225894e+00 5.246402e+00 2.877576e+00 4.248016e+00 3.754220e+00 3.001290e+00 2.169729e+00 1.728696e+00 1.356471e+00 2.502971e-01 3.074833e-01 2.832706e-01 3.062323e-01 6.450897e-01 5.019962e-01 4.475482e-01 6.119854e-01 6.014698e-01 5.449039e-01 4.589154e-01 2.783325e-01 1.416562e-01
<GCONST> 1.209957e+02
<STATE> 3
<MEAN> 39
 -6.590510e+00 2.339559e-01 3.633451e+00 2.444991e+00 -8.547260e-01 -4.113637e+00 -1.664244e+00 4.988017e-01 -4.221791e+00 -6.058823e-01 -3.795661e+00 -1.903646e+00 6.131600e+01 2.375080e-01 3.526859e-01 6.117352e-01 -2.059331e-01 -7.151070e-01 -3.531758e-02 3.392355e-01 -3.255159e-01 -8.797801e-01 -2.957532e-01 4.818935e-01 -8.716885e-02 -2.452782e-03 2.905504e-01 -1.445120e-01 -2.115224e-01 -3.872411e-01 -5.258868e-01 -2.308546e-01 -3.570602e-01 -1.137127e-01 -2.510174e-02 8.608594e-02 3.531267e-02 -1.380717e-01 2.657731e-01
<VARIANCE> 39
 1.645441e+01 2.349846e+01 6.033381e+01 2.566409e+01 3.747964e+01 4.557275e+01 4.508258e+01 4.223140e+01 5.271939e+01 2.408300e+01 4.097893e+01 2.800743e+01 2.601360e+01 1.745857e+00 1.224418e+00 2.212318e+00 1.639469e+00 3.431877e+00 2.218601e+00 1.836426e+00 1.811242e+00 2.377556e+00 1.751309e+00 2.024747e+00 1.164646e+00 4.655617e-01 1.957151e-01 2.303700e-01 2.913029e-01 2.918655e-01 3.873698e-01 3.347163e-01 3.886130e-01 3.692408e-01 3.941444e-01 3.417348e-01 3.125690e-01 2.273081e-01 7.972704e-02
<GCONST> 1.074982e+02
<STATE> 4
<MEAN> 39
 -6.044240e+00 4.410349e-01 3.438474e+00 -2.462532e+00 -7.566114e+00 -9.016581e+00 -4.188263e+00 -6.966616e+00 -1.218431e+01 -5.172225e+00 -9.681655e+00 -5.455649e+00 6.123056e+01 6.395697e-01 -4.692904e-01 -1.928567e-01 -6.472262e-01 -1.071427e+00 -3.952689e-01 -4.015838e-01 1.212906e-01 -2.559189e-01 1.708312e-01 5.972258e-02 -1.214721e-01 5.303146e-01 -2.859310e-02 -2.749258e-01 -1.251751e-01 -8.933347e-02 9.315569e-03 -5.274002e-02 -1.808105e-01 2.440462e-01 1.901705e-01 1.981669e-01 1.078784e-01 3.233163e-02 1.236259e-01
<VARIANCE> 39
 1.096484e+01 2.832304e+01 5.687629e+01 4.256001e+01 5.017604e+01 3.943884e+01 2.634851e+01 7.022697e+01 6.149868e+01 4.100766e+01 6.235167e+01 2.789568e+01 1.615047e+01 1.168137e+00 1.488656e+00 2.068070e+00 1.883613e+00 2.769496e+00 1.784598e+00 1.833038e+00 2.321697e+00 1.956981e+00 1.840117e+00 1.595267e+00 1.297754e+00 5.370476e-01 1.261489e-01 1.742609e-01 2.407922e-01 2.786612e-01 2.754010e-01 2.523007e-01 2.383890e-01 3.337743e-01 3.230127e-01 2.721946e-01 2.444420e-01 1.946044e-01 7.633759e-02
<GCONST> 1.049769e+02
<TRANSP> 5
 0.000000e+00 1.000000e+00 0.000000e+00 0.000000e+00 0.000000e+00
 0.000000e+00 4.925950e-01 5.074051e-01 0.000000e+00 0.000000e+00
 0.000000e+00 0.000000e+00 5.952321e-01 4.047679e-01 0.000000e+00
 0.000000e+00 0.000000e+00 0.000000e+00 6.060761e-01 3.939240e-01
 0.000000e+00 0.000000e+00 0.000000e+00 0.000000e+00 0.000000e+00
<ENDHMM>
~h "s"
<BEGINHMM>
<NUMSTATES> 5
<STATE> 2
<MEAN> 39
 -1.296350e+01 6.021751e+00 -1.728933e-01 -7.644923e-01 -1.451333e+00 -8.388683e+00 -5.699727e+00 -3.029107e+00 -5.553855e+00 -1.850937e+00 -3.664122e+00 -2.676062e+00 6.285360e+01 -3.837217e+00 1.499949e+00 -1.080025e+00 4.547619e-01 1.484504e+00 3.103013e-01 9.936864e-01 1.115090e+00 1.099578e+00 -1.330890e-01 7.454917e-01 7.824305e-01 -3.941280e-01 -1.626809e-01 -5.367115e-01 -2.268990e-01 -3.545930e-01 -3.396722e-01 1.080985e-01 -9.087075e-02 1.540849e-01 1.872978e-02 1.601449e-01 1.074864e-01 -2.275238e-02 7.244543e-02
<VARIANCE> 39
 5.664575e+01 3.567231e+01 4.325717e+01 3.154168e+01 5.498381e+01 4.879440e+01 5.389761e+01 4.147089e+01 5.228130e+01 3.990491e+01 3.991930e+01 2.668160e+01 2.592574e+01 2.337169e+00 3.761184e+00 2.931590e+00 3.113650e+00 3.492918e+00 3.465301e+00 4.162609e+00 3.732778e+00 3.389921e+00 2.889516e+00 2.906257e+00 1.824118e+00 7.332653e-01 8.967624e-01 5.220326e-01 3.508627e-01 3.871340e-01 5.272286e-01 4.696800e-01 5.967988e-01 5.886738e-01 5.098584e-01 4.689301e-01 4.514866e-01 3.098851e-01 9.413251e-02
<GCONST> 1.222863e+02
<STATE> 3
<MEAN> 39
 -2.556252e+01 5.358184e+00 -5.639419e+00 -1.449321e+00 -5.302644e-03 -6.222202e+00 -2.664330e+00 9.382082e-01 -1.714381e+00 -6.039853e-01 -5.721920e-01 5.448505e-02 6.190203e+01 -4.956271e-01 -5.141012e-01 -1.014741e-01 -1.444157e-01 -3.591334e-02 2.001433e-01 3.172335e-01 2.490236e-01 2.243734e-01 1.421241e-01 8.229823e-02 1.217544e-01 -1.238011e-01 7.147492e-01 -9.299786e-02 3.627625e-01 6.684045e-02 -1.150965e-01 -1.049763e-01 -1.243094e-01 -1.870620e-01 -1.196551e-01 -2.899417e-02 -1.458484e-01 -1.286261e-01 1.198673e-02
<VARIANCE> 39
 1.114831e+01 2.013853e+01 2.180346e+01 2.007983e+01 4.381100e+01 3.289806e+01 4.533764e+01 2.683987e+01 2.546749e+01 2.044712e+01 1.604017e+01 1.507173e+01 2.515377e+01 1.410646e+00 9.478989e-01 1.510069e+00 1.042458e+00 1.189164e+00 1.318944e+00 1.333822e+00 1.370921e+00 1.289236e+00 1.224753e+00 1.142477e+00 9.363734e-01 2.832657e-01 2.963710e-01 1.909987e-01 2.091143e-01 2.198136e-01 2.508589e-01 2.801746e-01 3.098839e-01 3.047509e-01 2.906879e-01 2.648484e-01 2.616372e-01 1.986734e-01 6.155460e-02
<GCONST> 9.430385e+01
<STATE> 4
<MEAN> 39
 -2.060495e+01 2.509945e+00 -1.924719e+00 -1.512369e+00 -3.019100e-01 -6.671767e+00 -2.820439e+00 7.202784e-01 -1.337756e+00 1.026407e-01 -1.904003e+00 -8.059363e-01 6.129597e+01 4.319310e+00 -5.476229e-01 1.497060e+00 1.495774e-01 -1.281392e+00 -8.160408e-01 -1.407722e+00 -1.454732e+00 -7.815330e-01 -1.833473e-01 -8.601046e-01 -9.041393e-01 3.244548e-01 7.417769e-01 -3.168931e-03 3.582759e-03 -1.674855e-01 -4.436399e-01 -8.728630e-02 -4.999856e-01 -3.943175e-01 -3.410301e-01 -7.223371e-02 -5.101448e-02 -2.194072e-01 3.288777e-01
<VARIANCE> 39
 4.755802e+01 1.958254e+01 2.781012e+01 1.859425e+01 4.037959e+01 3.840554e+01 5.388356e+01 3.380112e+01 2.902492e+01 2.371370e+01 2.189342e+01 1.732558e+01 2.247650e+01 3.624595e+00 2.229364e+00 3.295420e+00 2.928034e+00 2.888000e+00 3.052839e+00 3.289723e+00 3.028787e+00 3.341346e+00 2.314213e+00 2.345341e+00 1.632749e+00 1.423353e+00 9.072159e-01 3.653116e-01 4.278028e-01 4.423580e-01 4.214456e-01 5.416993e-01 6.031731e-01 5.743758e-01 5.642464e-01 4.081025e-01 4.556462e-01 3.267654e-01 1.862270e-01
<GCONST> 1.174140e+02
<TRANSP> 5
 0.000000e+00 1.000000e+00 0.000000e+00 0.000000e+00 0.000000e+00
 0.000000e+00 7.278207e-01 2.721793e-01 0.000000e+00 0.000000e+00
 0.000000e+00 0.000000e+00 8.535119e-01 1.464880e-01 0.000000e+00
 0.000000e+00 0.000000e+00 0.000000e+00 6.342129e-01 3.657871e-01
 0.000000e+00 0.000000e+00 0.000000e+00 0.000000e+00 0.000000e+00
<ENDHMM>
~h "t"
<BEGINHMM>
<NUMSTATES> 5
<STATE> 2
<MEAN> 39
 -7.569598e+00 3.113147e+00 5.842263e-01 -2.500114e+00 -3.395259e+00 -4.910773e+00 -4.995644e+00 -4.396180e+00 -6.094976e+00 -1.133183e+00 -3.515769e+00 -2.382920e+00 5.097050e+01 -1.473689e+00 -5.663509e-01 -5.544971e-01 -3.242329e-01 3.069475e-01 3.899821e-01 6.059873e-02 6.531546e-01 8.940119e-01 4.620670e-02 4.135910e-01 3.893552e-01 -6.354884e-01 -2.751665e-01 -3.148467e-01 1.437177e-02 -1.509993e-01 -1.182862e-01 -9.205142e-02 -1.285285e-01 1.109745e-01 1.167315e-01 8.105615e-02 7.170466e-02 -3.924797e-02 9.582622e-01
<VARIANCE> 39
 3.204903e+01 2.340471e+01 4.369259e+01 3.962920e+01 2.995531e+01 3.249128e+01 3.377502e+01 3.300184e+01 4.128459e+01 2.899308e+01 3.449961e+01 2.396883e+01 4.284513e+01 3.123262e+00 2.664520e+00 2.527574e+00 2.629731e+00 2.704351e+00 2.519274e+00 3.070230e+00 3.406237e+00 2.907324e+00 2.600599e+00 2.496851e+00 1.636460e+00 6.001729e+00 4.798731e-01 4.738565e-01 4.469225e-01 4.852149e-01 5.548680e-01 4.782493e-01 4.955430e-01 5.773544e-01 4.688543e-01 4.929162e-01 4.004109e-01 3.296708e-01 7.424623e-01
<GCONST> 1.213405e+02
<STATE> 3
<MEAN> 39
 -2.203018e+01 -4.516271e-01 2.380332e+00 -4.399475e+00 -3.254893e+00 -2.486686e+00 -4.032993e+00 -1.139081e+00 -1.762413e+00 -2.002212e-01 -7.861773e-01 -1.109698e+00 5.930399e+01 -1.033771e+00 -5.502059e-01 3.016005e-01 3.231905e-01 -7.348934e-02 -2.410943e-01 3.220330e-01 4.644941e-01 5.808394e-01 2.604559e-01 1.180384e-01 7.102696e-02 1.809417e+00 1.067990e+00 2.236405e-01 1.024940e-01 2.418635e-01 -1.093451e-01 -3.198353e-01 -2.259606e-01 -2.545086e-01 -2.955922e-01 -9.778687e-02 -2.277077e-01 -2.212239e-01 -1.132856e-01
<VARIANCE> 39
 5.086493e+01 1.862152e+01 3.932823e+01 2.564234e+01 2.633024e+01 2.540103e+01 4.023672e+01 2.360692e+01 2.456831e+01 1.898606e+01 1.509550e+01 1.205475e+01 3.838644e+01 5.876159e+00 1.963267e+00 2.255840e+00 2.306161e+00 2.376112e+00 2.531599e+00 2.677887e+00 2.523816e+00 2.263411e+00 1.898005e+00 1.658973e+00 1.312811e+00 4.743930e+00 5.795193e-01 4.290435e-01 4.711079e-01 4.315113e-01 4.349707e-01 4.885953e-01 6.098877e-01 5.479333e-01 4.476607e-01 3.917467e-01 4.052884e-01 3.049048e-01 5.577773e-01
<GCONST> 1.153529e+02
<STATE> 4
<MEAN> 39
 -1.529640e+01 -8.179552e-01 -1.583416e-01 -1.345752e+00 -1.906009e+00 -6.584234e+00 -4.818118e+00 -3.529089e-01 -1.125668e+00 4.505267e-01 -2.454644e+00 -1.345619e+00 6.126271e+01 3.000351e+00 2.094401e-01 2.183060e-01 2.178458e-02 -6.255394e-01 -1.130726e+00 -1.566712e+00 -1.116542e+00 -6.206528e-01 -1.843316e-01 -7.617420e-01 -9.627921e-01 1.640051e+00 8.674540e-01 1.024303e-01 1.587899e-02 -4.238243e-01 -4.663090e-01 1.862112e-01 -2.739217e-01 -5.406407e-01 -6.063765e-01 -1.165057e-01 -6.958178e-02 -2.840134e-01 -4.371924e-01
<VARIANCE> 39
 4.429254e+01 1.998282e+01 3.401051e+01 2.814584e+01 3.185812e+01 3.307789e+01 5.172408e+01 3.027773e+01 2.959307e+01 2.571004e+01 2.281621e+01 1.578626e+01 2.425044e+01 3.832537e+00 3.038373e+00 3.799559e+00 3.964489e+00 3.784496e+00 3.948338e+00 3.705878e+00 4.313370e+00 5.051777e+00 3.399569e+00 3.388880e+00 2.317326e+00 6.265842e+00 8.357672e-01 5.850028e-01 4.447936e-01 5.825163e-01 6.506955e-01 7.025470e-01 9.316388e-01 9.177269e-01 7.170340e-01 5.422119e-01 7.776552e-01 5.302594e-01 5.363982e-01
<GCONST> 1.272763e+02
<TRANSP> 5
 0.000000e+00 1.000000e+00 0.000000e+00 0.000000e+00 0.000000e+00
 0.000000e+00 7.654676e-01 2.345324e-01 0.000000e+00 0.000000e+00
 0.000000e+00 0.000000e+00 6.431647e-01 3.568352e-01 0.000000e+00
 0.000000e+00 0.000000e+00 0.000000e+00 4.682603e-01 5.317397e-01
 0.000000e+00 0.000000e+00 0.000000e+00 0.000000e+00 0.000000e+00
<ENDHMM>
~h "u"
<BEGINHMM>
<NUMSTATES> 5
<STATE> 2
<MEAN> 39
 -2.047863e+00 2.094139e+00 -1.284519e-01 -3.798326e+00 -4.739506e+00 -4.911485e+00 -1.102976e+01 -7.415079e+00 -7.756674e+00 -5.215513e-01 -2.785627e+00 -4.638466e+00 6.012422e+01 1.939938e+00 5.128664e-01 -3.326592e-01 -1.476024e+00 -1.132334e+00 4.722339e-01 -6.008990e-01 -1.377860e+00 -1.494901e+00 -3.230945e-02 1.818951e-01 -3.557778e-01 9.005812e-01 -4.201561e-01 -2.965635e-02 9.063636e-02 6.851492e-03 -3.468981e-02 2.575682e-01 4.095322e-01 2.155756e-01 8.239247e-02 -6.688459e-02 2.787739e-02 1.683601e-01 -2.210364e-01
<VARIANCE> 39
 1.950886e+01 3.318644e+01 2.374943e+01 5.034476e+01 3.732821e+01 5.194688e+01 5.734575e+01 3.697944e+01 4.741033e+01 3.365255e+01 4.747001e+01 3.824458e+01 4.831923e+01 3.477251e+00 2.364576e+00 2.613690e+00 3.891499e+00 4.524994e+00 4.008674e+00 4.608934e+00 4.359426e+00 4.592871e+00 3.497474e+00 3.633680e+00 2.731272e+00 3.067418e+00 4.774437e-01 4.742984e-01 3.437609e-01 5.787471e-01 5.911527e-01 4.749392e-01 6.314625e-01 5.860714e-01 5.518671e-01 4.781830e-01 4.645025e-01 3.649788e-01 3.119554e-01
<GCONST> 1.261041e+02
<STATE> 3
<MEAN> 39
 -9.055153e-02 1.960662e+00 -1.064671e+00 -6.819118e+00 -7.252253e+00 -1.190952e+00 -1.051081e+01 -9.190523e+00 -1.082438e+01 -1.022796e+00 -7.162284e-01 -4.264047e+00 6.226865e+01 3.855350e-01 1.795847e-01 -3.282610e-02 -3.890180e-01 -4.001660e-01 5.066236e-01 2.505849e-01 -5.034837e-01 -5.277256e-01 -1.504062e-01 -5.543952e-03 2.216892e-02 8.855630e-02 -6.370522e-01 -2.411753e-02 1.953379e-01 6.700386e-01 4.420423e-01 -3.293853e-01 2.717795e-01 4.535340e-01 5.861005e-01 -2.231282e-03 -2.431833e-01 1.000372e-01 -3.826194e-01
<VARIANCE> 39
 1.343830e+01 3.094141e+01 2.608188e+01 4.761291e+01 3.561744e+01 5.749587e+01 5.809436e+01 3.983034e+01 5.992584e+01 4.424826e+01 6.375945e+01 4.628069e+01 2.491967e+01 1.041635e+00 2.042734e+00 1.376404e+00 3.300090e+00 3.013436e+00 2.862533e+00 4.510332e+00 3.372940e+00 3.227232e+00 2.528866e+00 2.721939e+00 1.938499e+00 1.836249e+00 3.459948e-01 3.908293e-01 3.942761e-01 5.971617e-01 7.020070e-01 5.684296e-01 7.086852e-01 7.599216e-01 8.149504e-01 5.835989e-01 6.349551e-01 4.310068e-01 2.685666e-01
<GCONST> 1.224689e+02
<STATE> 4
<MEAN> 39
 7.150630e-01 3.955471e+00 -1.085742e+00 -9.165038e+00 -7.786424e+00 -2.140171e+00 -8.523389e+00 -7.741197e+00 -1.118445e+01 -2.374242e+00 -3.046686e+00 -4.254202e+00 6.018690e+01 -1.992675e-01 -1.822484e-02 1.849601e-01 4.211466e-01 2.870117e-01 -1.988496e-01 3.916771e-02 3.584298e-02 1.462087e-01 1.907202e-03 -7.945085e-02 6.684541e-02 -1.367288e-01 -2.126137e-01 -5.008041e-02 9.571852e-02 2.388433e-01 1.784109e-01 -1.078811e-01 -3.737294e-02 1.058761e-01 1.490387e-01 2.224785e-02 1.068816e-02 2.031567e-02 -4.373567e-02
<VARIANCE> 39
 1.017461e+01 2.750564e+01 2.036448e+01 5.156083e+01 4.153449e+01 4.474284e+01 5.806487e+01 3.949040e+01 6.334459e+01 4.167739e+01 6.087951e+01 6.525653e+01 2.517146e+01 5.528641e-01 1.012181e+00 9.169127e-01 1.905900e+00 1.753365e+00 1.483513e+00 2.132556e+00 1.992362e+00 1.953773e+00 1.665386e+00 1.569673e+00 1.230720e+00 6.703562e-01 1.543847e-01 1.563661e-01 1.616137e-01 2.540837e-01 2.616881e-01 2.857533e-01 3.671831e-01 4.055474e-01 3.464158e-01 3.030123e-01 3.078247e-01 2.389058e-01 9.644645e-02
<GCONST> 1.041263e+02
<TRANSP> 5
 0.000000e+00 1.000000e+00 0.000000e+00 0.000000e+00 0.000000e+00
 0.000000e+00 3.466373e-01 6.533628e-01 0.000000e+00 0.000000e+00
 0.000000e+00 0.000000e+00 3.652167e-01 6.347833e-01 0.000000e+00
 0.000000e+00 0.000000e+00 0.000000e+00 7.499228e-01 2.500772e-01
 0.000000e+00 0.000000e+00 0.000000e+00 0.000000e+00 0.000000e+00
<ENDHMM>
~h "v"
<BEGINHMM>
<NUMSTATES> 5
<STATE> 2
<MEAN> 39
 -9.841368e-01 -2.604643e+00 -4.154223e+00 -5.716287e+00 -3.321887e+00 -3.362146e+00 -8.785990e+00 -5.259660e+00 -7.364090e+00 -2.443802e-01 -1.630637e+00 -6.602785e+00 6.268373e+01 -6.564551e-01 1.899547e+00 4.957082e-01 1.611191e+00 9.350706e-01 4.248655e-01 4.470391e-01 -8.296379e-01 -4.868699e-01 -6.105890e-01 -1.085125e-01 9.915975e-01 -1.748768e+00 -4.065605e-01 -1.385723e-01 3.276759e-02 6.159158e-02 -7.812095e-02 -4.366072e-02 7.937938e-02 4.225443e-01 1.788819e-01 -3.866730e-02 -2.657841e-01 -1.239502e-01 2.212138e-01
<VARIANCE> 39
 1.151582e+01 2.863629e+01 2.782173e+01 3.974071e+01 2.095305e+01 4.943787e+01 3.278265e+01 3.139491e+01 6.126958e+01 4.322513e+01 6.951225e+01 3.684597e+01 2.750197e+01 1.470723e+00 1.203095e+00 1.643236e+00 2.035880e+00 1.948430e+00 2.203353e+00 2.145965e+00 2.837450e+00 2.533902e+00 2.014447e+00 2.784585e+00 2.491600e+00 6.629668e-01 1.353049e-01 2.240429e-01 1.952635e-01 3.498776e-01 3.177584e-01 2.578341e-01 2.929393e-01 3.142155e-01 3.325169e-01 3.205365e-01 3.752753e-01 2.765277e-01 1.600208e-01
<GCONST> 1.082015e+02
<STATE> 3
<MEAN> 39
 -6.588717e+00 2.143893e+00 -1.300397e+00 7.204115e-01 -1.369070e+00 -2.671131e+00 -5.627325e+00 -3.349844e+00 -5.803292e+00 -1.453664e+00 -3.031094e+00 -3.848875e+00 5.924803e+01 -6.422638e-01 1.890858e-01 2.979598e-01 2.882345e-01 -2.528775e-02 -9.680488e-02 1.235873e-01 1.347127e-01 1.206904e-01 -8.164498e-02 -1.192171e-01 1.348211e-01 -5.622619e-02 5.189252e-01 -5.837088e-01 -4.800972e-02 -6.433543e-01 -4.995818e-01 -2.767470e-01 -3.210888e-01 -1.103013e-01 1.165321e-02 1.903615e-01 1.936095e-01 -1.578456e-01 5.676964e-01
<VARIANCE> 39
 2.146965e+01 1.965172e+01 2.847942e+01 2.891704e+01 1.739237e+01 3.109242e+01 3.536047e+01 2.935042e+01 4.403744e+01 3.547008e+01 3.341392e+01 2.613360e+01 2.399759e+01 2.007867e+00 1.095438e+00 1.153219e+00 1.823372e+00 1.390311e+00 1.634188e+00 1.784416e+00 1.951351e+00 1.681658e+00 1.350186e+00 1.522194e+00 9.785736e-01 6.055887e-01 2.954084e-01 2.372699e-01 2.890916e-01 4.151821e-01 3.238734e-01 4.330947e-01 3.419322e-01 5.134910e-01 4.376863e-01 3.858284e-01 4.286138e-01 2.910329e-01 1.388631e-01
<GCONST> 1.049779e+02
<STATE> 4
<MEAN> 39
 -3.890464e+00 1.075770e-01 -2.668491e+00 -3.568858e+00 -3.006245e+00 -3.804372e+00 -8.735190e+00 -6.635822e+00 -7.619658e+00 -1.470587e+00 -2.443678e+00 -5.049300e+00 6.114380e+01 1.022839e+00 -1.335946e+00 -1.438961e-01 -1.623167e+00 -1.100616e+00 -7.234679e-01 -8.751370e-01 4.866330e-02 3.684098e-01 8.413748e-01 4.229411e-01 -2.949124e-01 1.279226e+00 8.461284e-02 -3.114583e-01 6.846306e-02 -2.250675e-01 -1.746004e-01 -2.203169e-01 -7.736880e-02 3.674089e-01 9.421832e-02 1.244012e-01 -1.249972e-01 -1.373698e-01 2.789743e-01
<VARIANCE> 39
 1.795922e+01 1.588276e+01 2.748806e+01 3.820228e+01 1.596282e+01 4.730975e+01 3.792137e+01 2.829814e+01 4.074503e+01 3.644070e+01 4.803764e+01 3.067658e+01 2.429498e+01 1.847492e+00 1.383885e+00 2.179165e+00 3.254952e+00 1.969455e+00 3.245690e+00 2.172034e+00 3.389245e+00 2.419820e+00 2.440585e+00 2.710168e+00 1.807575e+00 8.020213e-01 2.356315e-01 2.008098e-01 1.982887e-01 4.123142e-01 3.177554e-01 3.407861e-01 3.269209e-01 4.214515e-01 3.864366e-01 3.470380e-01 3.476072e-01 2.760041e-01 1.264347e-01
<GCONST> 1.093937e+02
<TRANSP> 5
 0.000000e+00 1.000000e+00 0.000000e+00 0.000000e+00 0.000000e+00
 0.000000e+00 5.934446e-01 4.065555e-01 0.000000e+00 0.000000e+00
 0.000000e+00 0.000000e+00 6.289722e-01 3.710278e-01 0.000000e+00
 0.000000e+00 0.000000e+00 0.000000e+00 4.420944e-01 5.579056e-01
 0.000000e+00 0.000000e+00 0.000000e+00 0.000000e+00 0.000000e+00
<ENDHMM>
~h "z"
<BEGINHMM>
<NUMSTATES> 5
<STATE> 2
<MEAN> 39
 -7.706773e+00 4.222997e+00 -1.638614e+00 -5.253679e-02 -3.369367e+00 -1.234481e+01 -1.094088e+01 -6.690223e+00 -4.886392e+00 -4.250784e-01 -5.848082e+00 -4.941128e+00 6.420407e+01 -1.958187e+00 2.942673e+00 -7.549379e-01 1.042122e+00 1.624973e+00 -1.437672e-01 5.764264e-01 -2.518126e-01 5.104721e-01 -3.922621e-01 -3.084589e-01 5.274242e-01 -7.582590e-01 -2.947604e-01 -7.800075e-02 1.426378e-02 -2.556157e-01 -1.130945e-01 3.132007e-01 2.162646e-01 4.667892e-01 2.103267e-02 -2.331743e-02 1.685199e-01 -4.845447e-03 5.520709e-02
<VARIANCE> 39
 2.063131e+01 3.631929e+01 4.093171e+01 3.973476e+01 3.990861e+01 3.911175e+01 3.642619e+01 2.830548e+01 5.583569e+01 5.748912e+01 4.578471e+01 3.449123e+01 2.845244e+01 1.408163e+00 1.777850e+00 1.899301e+00 2.224109e+00 2.144906e+00 3.390895e+00 2.895259e+00 3.697019e+00 2.640926e+00 2.367462e+00 2.348306e+00 2.241985e+00 5.867337e-01 2.343058e-01 5.154516e-01 2.054242e-01 2.723670e-01 3.134567e-01 3.494007e-01 4.674649e-01 4.038142e-01 3.761390e-01 3.803529e-01 3.172857e-01 3.267652e-01 6.607759e-02
<GCONST> 1.126391e+02
<STATE> 3
<MEAN> 39
 -1.666550e+01 1.245501e+01 -9.447705e-01 2.455497e+00 1.951769e+00 -1.003798e+01 -6.777832e+00 -2.472066e+00 -2.798221e+00 -1.706023e+00 -4.039516e+00 -1.879275e+00 6.264055e+01 -9.923173e-01 2.173736e-01 1.294330e-01 -2.531072e-03 2.659805e-01 3.351727e-01 3.874377e-01 4.456149e-01 1.174992e-01 -1.185428e-01 1.800658e-01 1.803888e-01 -9.077089e-02 6.807611e-01 -7.582716e-01 2.917914e-01 -1.396020e-01 -4.971215e-01 -1.454470e-01 -2.410733e-01 -2.412055e-01 -1.380846e-01 1.048987e-01 2.340209e-02 -1.122873e-01 1.982315e-01
<VARIANCE> 39
 2.174494e+01 1.978563e+01 3.145143e+01 3.282946e+01 4.242081e+01 4.528775e+01 4.446996e+01 3.244685e+01 3.936264e+01 3.235501e+01 2.360044e+01 2.273521e+01 2.516982e+01 1.600812e+00 1.454107e+00 1.596307e+00 9.572638e-01 1.517737e+00 1.889001e+00 2.023086e+00 1.951588e+00 1.700829e+00 1.357926e+00 1.052287e+00 1.207099e+00 2.616171e-01 2.452185e-01 3.480001e-01 1.961228e-01 2.462313e-01 2.752802e-01 3.908460e-01 3.772196e-01 3.661615e-01 3.000682e-01 2.533073e-01 2.199150e-01 2.493829e-01 6.459701e-02
<GCONST> 1.016872e+02
<STATE> 4
<MEAN> 39
 -1.398252e+01 8.110974e+00 -4.634930e-01 1.644415e+00 -1.078665e+00 -1.117798e+01 -8.060213e+00 -4.531882e+00 -2.904572e+00 -9.939657e-01 -4.504135e+00 -2.673113e+00 6.372370e+01 2.385307e+00 -2.545206e+00 7.104769e-01 -7.626814e-01 -1.715927e+00 -4.778472e-01 -9.324135e-01 -3.182777e-01 3.765788e-02 4.882687e-01 -3.093745e-02 -3.026599e-01 8.029991e-01 4.928046e-01 -5.247444e-01 3.092252e-02 -3.070579e-01 -3.099464e-01 1.803438e-01 -9.312817e-02 2.108603e-01 -4.134889e-02 4.004686e-02 1.605414e-02 -1.313053e-01 1.514884e-01
<VARIANCE> 39
 3.297665e+01 2.501312e+01 3.444185e+01 2.338812e+01 4.327851e+01 4.506062e+01 5.304338e+01 3.126711e+01 4.180983e+01 3.362915e+01 2.534431e+01 2.558906e+01 2.536526e+01 2.523508e+00 2.373574e+00 2.444307e+00 2.557142e+00 2.406567e+00 2.485772e+00 3.097699e+00 3.480534e+00 2.538601e+00 2.362361e+00 1.345025e+00 1.875784e+00 6.359244e-01 5.251596e-01 4.180220e-01 2.624310e-01 2.656649e-01 3.973556e-01 4.790150e-01 5.800952e-01 5.403454e-01 3.841755e-01 3.354019e-01 2.975105e-01 2.682136e-01 9.064928e-02
<GCONST> 1.131065e+02
<TRANSP> 5
 0.000000e+00 1.000000e+00 0.000000e+00 0.000000e+00 0.000000e+00
 0.000000e+00 6.883957e-01 3.116043e-01 0.000000e+00 0.000000e+00
 0.000000e+00 0.000000e+00 7.450395e-01 2.549605e-01 0.000000e+00
 0.000000e+00 0.000000e+00 0.000000e+00 6.092771e-01 3.907229e-01
 0.000000e+00 0.000000e+00 0.000000e+00 0.000000e+00 0.000000e+00
<ENDHMM>
~h "Z"
<BEGINHMM>
<NUMSTATES> 5
<STATE> 2
<MEAN> 39
 -7.706773e+00 4.222997e+00 -1.638614e+00 -5.253679e-02 -3.369367e+00 -1.234481e+01 -1.094088e+01 -6.690223e+00 -4.886392e+00 -4.250784e-01 -5.848082e+00 -4.941128e+00 6.420407e+01 -1.958187e+00 2.942673e+00 -7.549379e-01 1.042122e+00 1.624973e+00 -1.437672e-01 5.764264e-01 -2.518126e-01 5.104721e-01 -3.922621e-01 -3.084589e-01 5.274242e-01 -7.582590e-01 -2.947604e-01 -7.800075e-02 1.426378e-02 -2.556157e-01 -1.130945e-01 3.132007e-01 2.162646e-01 4.667892e-01 2.103267e-02 -2.331743e-02 1.685199e-01 -4.845447e-03 5.520709e-02
<VARIANCE> 39
 2.063131e+01 3.631929e+01 4.093171e+01 3.973476e+01 3.990861e+01 3.911175e+01 3.642619e+01 2.830548e+01 5.583569e+01 5.748912e+01 4.578471e+01 3.449123e+01 2.845244e+01 1.408163e+00 1.777850e+00 1.899301e+00 2.224109e+00 2.144906e+00 3.390895e+00 2.895259e+00 3.697019e+00 2.640926e+00 2.367462e+00 2.348306e+00 2.241985e+00 5.867337e-01 2.343058e-01 5.154516e-01 2.054242e-01 2.723670e-01 3.134567e-01 3.494007e-01 4.674649e-01 4.038142e-01 3.761390e-01 3.803529e-01 3.172857e-01 3.267652e-01 6.607759e-02
<GCONST> 1.126391e+02
<STATE> 3
<MEAN> 39
 -1.666550e+01 1.245501e+01 -9.447705e-01 2.455497e+00 1.951769e+00 -1.003798e+01 -6.777832e+00 -2.472066e+00 -2.798221e+00 -1.706023e+00 -4.039516e+00 -1.879275e+00 6.264055e+01 -9.923173e-01 2.173736e-01 1.294330e-01 -2.531072e-03 2.659805e-01 3.351727e-01 3.874377e-01 4.456149e-01 1.174992e-01 -1.185428e-01 1.800658e-01 1.803888e-01 -9.077089e-02 6.807611e-01 -7.582716e-01 2.917914e-01 -1.396020e-01 -4.971215e-01 -1.454470e-01 -2.410733e-01 -2.412055e-01 -1.380846e-01 1.048987e-01 2.340209e-02 -1.122873e-01 1.982315e-01
<VARIANCE> 39
 2.174494e+01 1.978563e+01 3.145143e+01 3.282946e+01 4.242081e+01 4.528775e+01 4.446996e+01 3.244685e+01 3.936264e+01 3.235501e+01 2.360044e+01 2.273521e+01 2.516982e+01 1.600812e+00 1.454107e+00 1.596307e+00 9.572638e-01 1.517737e+00 1.889001e+00 2.023086e+00 1.951588e+00 1.700829e+00 1.357926e+00 1.052287e+00 1.207099e+00 2.616171e-01 2.452185e-01 3.480001e-01 1.961228e-01 2.462313e-01 2.752802e-01 3.908460e-01 3.772196e-01 3.661615e-01 3.000682e-01 2.533073e-01 2.199150e-01 2.493829e-01 6.459701e-02
<GCONST> 1.016872e+02
<STATE> 4
<MEAN> 39
 -1.398252e+01 8.110974e+00 -4.634930e-01 1.644415e+00 -1.078665e+00 -1.117798e+01 -8.060213e+00 -4.531882e+00 -2.904572e+00 -9.939657e-01 -4.504135e+00 -2.673113e+00 6.372370e+01 2.385307e+00 -2.545206e+00 7.104769e-01 -7.626814e-01 -1.715927e+00 -4.778472e-01 -9.324135e-01 -3.182777e-01 3.765788e-02 4.882687e-01 -3.093745e-02 -3.026599e-01 8.029991e-01 4.928046e-01 -5.247444e-01 3.092252e-02 -3.070579e-01 -3.099464e-01 1.803438e-01 -9.312817e-02 2.108603e-01 -4.134889e-02 4.004686e-02 1.605414e-02 -1.313053e-01 1.514884e-01
<VARIANCE> 39
 3.297665e+01 2.501312e+01 3.444185e+01 2.338812e+01 4.327851e+01 4.506062e+01 5.304338e+01 3.126711e+01 4.180983e+01 3.362915e+01 2.534431e+01 2.558906e+01 2.536526e+01 2.523508e+00 2.373574e+00 2.444307e+00 2.557142e+00 2.406567e+00 2.485772e+00 3.097699e+00 3.480534e+00 2.538601e+00 2.362361e+00 1.345025e+00 1.875784e+00 6.359244e-01 5.251596e-01 4.180220e-01 2.624310e-01 2.656649e-01 3.973556e-01 4.790150e-01 5.800952e-01 5.403454e-01 3.841755e-01 3.354019e-01 2.975105e-01 2.682136e-01 9.064928e-02
<GCONST> 1.131065e+02
<TRANSP> 5
 0.000000e+00 1.000000e+00 0.000000e+00 0.000000e+00 0.000000e+00
 0.000000e+00 6.883957e-01 3.116043e-01 0.000000e+00 0.000000e+00
