~o
<STREAMINFO> 1 39
<VECSIZE> 39<NULLD><MFCC_D_A_0><DIAGC>
~s "silst"
<MEAN> 39
 -1.524033e+01 1.869912e-01 -2.600722e+00 9.576182e-01 2.249464e-01 1.236677e+00 -7.522999e-01 -4.226171e-01 -6.833046e-01 -7.613975e-01 -9.696333e-01 -8.829927e-01 5.445581e+01 -1.599679e-01 1.733493e-01 2.399213e-01 5.268223e-02 1.069163e-01 1.863815e-02 2.572141e-02 8.084970e-04 2.613097e-03 -7.421358e-02 2.404349e-02 3.682781e-02 -1.083092e-02 1.535133e-01 -7.228997e-02 1.298653e-01 -2.333086e-02 -2.581792e-02 -1.968942e-01 -1.502345e-01 -1.307791e-01 -1.191390e-01 -1.095967e-01 -2.110613e-02 -8.919796e-02 3.563741e-01
<VARIANCE> 39
 1.135926e+01 1.692322e+01 1.699305e+01 2.073688e+01 1.633181e+01 1.897922e+01 2.346404e+01 2.043805e+01 1.973652e+01 2.331239e+01 1.747883e+01 1.520269e+01 1.820402e+01 1.141014e+00 2.069669e+00 1.865979e+00 1.703656e+00 1.890587e+00 2.004925e+00 2.082740e+00 1.773072e+00 2.235862e+00 1.912192e+00 1.653621e+00 1.636036e+00 1.293770e+00 3.228082e-01 3.390468e-01 3.551176e-01 3.811557e-01 4.018909e-01 4.693776e-01 4.401524e-01 3.662967e-01 4.655930e-01 4.174094e-01 3.430324e-01 3.589792e-01 3.100156e-01
<GCONST> 1.040772e+02
~h "A"
<BEGINHMM>
<NUMSTATES> 5
<STATE> 2
<MEAN> 39
 -2.374500e+00 -6.806525e+00 -4.469490e+00 -6.986023e+00 -4.513861e+00 -1.130276e+01 -6.782715e+00 -1.138931e+01 -6.290196e+00 -1.430366e-01 -5.831292e-01 -3.387984e-01 7.938729e+01 3.066715e-01 -3.623446e-02 -4.575091e-01 -5.208237e-01 1.368562e-01 1.012539e-01 1.246907e-01 -3.257136e-01 -8.378533e-03 4.772634e-01 4.644502e-01 1.300881e-01 5.894028e-02 -3.506489e-01 5.676868e-01 4.165849e-01 3.747115e-01 2.884226e-01 4.262778e-01 1.765210e-01 3.463787e-01 -3.815362e-02 -4.107520e-01 -1.639036e-01 -2.479316e-01 -5.317898e-01
<VARIANCE> 39
 1.297100e+01 2.482237e+01 3.378973e+01 6.277387e+01 4.927962e+01 7.873663e+01 8.529329e+01 5.245020e+01 1.067944e+02 7.153284e+01 4.740130e+01 5.738062e+01 2.954109e+01 1.013695e+00 1.808830e+00 1.971885e+00 2.751203e+00 2.067599e+00 3.420217e+00 3.014437e+00 2.419615e+00 3.417649e+00 3.024943e+00 2.527518e+00 2.324119e+00 1.157616e+00 3.806708e-01 3.132347e-01 2.922016e-01 4.258207e-01 4.407888e-01 6.724112e-01 5.619196e-01 5.357535e-01 8.502583e-01 6.105400e-01 5.089123e-01 4.419231e-01 2.177616e-01
<GCONST> 1.222101e+02
<STATE> 3
<MEAN> 39
 -2.577647e+00 -1.971341e+00 -3.317214e+00 -5.387472e+00 -3.075570e+00 -8.009498e+00 -6.047073e+00 -1.022562e+01 -6.863984e+00 -2.185331e+00 -8.270797e-01 -1.349084e+00 7.389062e+01 -7.264087e-01 1.471613e+00 7.725100e-01 8.670950e-01 6.799161e-01 1.281720e+00 2.247819e-01 9.312322e-01 2.031247e-01 -4.483480e-01 -5.752757e-02 -5.291020e-01 -1.784931e+00 -4.450732e-01 9.296328e-02 2.093079e-01 1.472316e-01 1.605770e-02 1.340383e-01 5.985752e-02 2.831475e-01 2.104439e-01 -4.980682e-02 -2.593481e-02 -3.265806e-02 -2.784992e-01
<VARIANCE> 39
 1.617277e+01 3.204771e+01 3.329628e+01 5.586274e+01 5.249599e+01 7.079828e+01 7.621794e+01 6.269260e+01 8.092164e+01 7.470861e+01 6.019621e+01 5.568353e+01 5.122680e+01 1.796179e+00 2.047483e+00 1.951922e+00 3.082937e+00 2.624501e+00 3.871304e+00 2.901657e+00 2.836684e+00 4.532136e+00 3.501848e+00 3.015237e+00 2.498496e+00 2.051168e+00 3.934990e-01 4.550084e-01 4.611147e-01 5.211051e-01 4.933260e-01 7.662269e-01 6.104426e-01 6.457506e-01 7.669376e-01 6.492984e-01 5.288122e-01 5.003803e-01 3.035938e-01
<GCONST> 1.276662e+02
<STATE> 4
<MEAN> 39
 -1.267886e+01 -7.553402e-01 -2.439129e+00 -9.247501e-01 -3.265843e-02 -5.874257e-01 -2.733870e+00 -2.530635e+00 -1.792189e+00 -4.896421e-01 5.958676e-01 -7.862114e-01 6.059223e+01 -4.496793e-01 1.784439e-01 1.561684e-01 1.643451e-01 7.636526e-02 1.837238e-01 1.072384e-01 2.530445e-01 1.011305e-01 -9.936120e-02 -5.841472e-02 -4.227161e-02 -4.689672e-01 -1.359898e-02 -4.097769e-02 1.818862e-02 -4.208068e-02 -1.406153e-02 -7.009391e-02 -8.194882e-03 -2.596351e-02 -6.193944e-03 -6.307776e-03 -1.041919e-02 -2.419999e-03 1.037690e-01
<VARIANCE> 39
 3.356428e+01 3.111658e+01 2.014295e+01 2.463409e+01 2.610252e+01 3.748399e+01 4.066444e+01 4.017653e+01 4.020317e+01 3.344362e+01 2.428930e+01 2.294322e+01 6.920587e+01 1.453566e+00 1.460664e+00 1.435459e+00 1.494820e+00 1.637593e+00 2.141845e+00 1.730452e+00 1.879155e+00 2.225656e+00 1.904119e+00 1.518028e+00 1.502105e+00 1.324588e+00 2.015855e-01 1.895128e-01 2.262205e-01 2.519601e-01 2.727397e-01 3.524282e-01 3.021339e-01 3.285736e-01 3.970251e-01 3.041182e-01 2.872919e-01 2.725397e-01 1.330281e-01
<GCONST> 1.059238e+02
<TRANSP> 5
 0.000000e+00 1.000000e+00 0.000000e+00 0.000000e+00 0.000000e+00
 0.000000e+00 6.303022e-01 3.696978e-01 0.000000e+00 0.000000e+00
 0.000000e+00 0.000000e+00 5.387901e-01 4.612099e-01 0.000000e+00
 0.000000e+00 0.000000e+00 0.000000e+00 8.576184e-01 1.423816e-01
 0.000000e+00 0.000000e+00 0.000000e+00 0.000000e+00 0.000000e+00
<ENDHMM>
~h "E"
<BEGINHMM>
<NUMSTATES> 5
<STATE> 2
<MEAN> 39
 -6.930451e+00 4.748487e-01 -1.600946e+00 -2.759174e+00 1.170141e+00 -8.272922e+00 -8.015660e+00 -1.020479e+01 -1.680922e+00 -1.960668e+00 3.847560e+00 5.328475e-01 7.443023e+01 -5.009943e-01 5.789359e-01 3.312950e-01 -4.282033e-01 -6.141552e-02 7.183467e-01 4.616211e-01 4.360200e-01 -2.131227e-01 -5.615748e-01 -1.308768e-02 1.050873e-01 -8.101621e-01 -2.215804e-01 5.124125e-02 4.913755e-03 -5.788659e-03 5.383310e-02 3.260025e-01 2.490434e-01 2.935389e-01 9.863330e-02 7.984291e-02 -1.250468e-02 3.312278e-02 -2.947626e-01
<VARIANCE> 39
 1.138602e+02 2.826884e+01 5.624118e+01 5.470110e+01 1.903680e+01 5.606350e+01 4.937088e+01 4.696318e+01 5.539707e+01 8.564134e+01 4.093461e+01 3.261474e+01 1.827164e+01 5.280186e+00 2.098957e+00 1.576071e+00 3.167734e+00 1.709195e+00 4.082082e+00 3.144245e+00 3.410126e+00 2.350698e+00 3.022295e+00 1.635119e+00 1.808605e+00 2.216999e+00 6.845198e-01 4.118198e-01 2.629316e-01 6.850128e-01 3.443498e-01 6.197729e-01 6.648342e-01 7.086816e-01 4.591787e-01 6.245781e-01 2.612577e-01 4.222241e-01 3.343304e-01
<GCONST> 1.234167e+02
<STATE> 3
<MEAN> 39
 -1.376522e+01 1.058752e+00 -3.623287e+00 -2.357407e+00 2.463390e+00 1.266590e+00 -4.120342e+00 -4.536037e+00 -2.386703e+00 -1.849048e+00 1.989549e+00 3.039335e-01 6.388949e+01 -3.724892e-01 -1.221270e+00 -3.195407e-01 2.413418e-01 3.268136e-02 2.616783e-02 -1.378210e-01 2.801017e-02 3.274371e-01 7.283050e-01 5.839249e-02 -2.471786e-01 -3.821732e-01 1.286051e-02 -7.857476e-02 3.296627e-02 -8.295761e-02 -2.239174e-02 -1.959077e-01 -2.324448e-02 -6.946106e-02 4.447146e-02 -2.092831e-04 3.934779e-02 5.999953e-04 2.249490e-01
<VARIANCE> 39
 9.355405e+01 3.114358e+01 2.895414e+01 3.500405e+01 2.507667e+01 5.072200e+01 4.774966e+01 2.937976e+01 5.720857e+01 3.010874e+01 2.967286e+01 1.883562e+01 6.549475e+01 2.271116e+00 2.135580e+00 1.458377e+00 1.652029e+00 1.920842e+00 2.657485e+00 2.896111e+00 3.557651e+00 2.354523e+00 2.375433e+00 2.795231e+00 1.643795e+00 2.912434e+00 2.396885e-01 4.601966e-01 2.448603e-01 2.853322e-01 3.702764e-01 7.183952e-01 5.377387e-01 6.103448e-01 4.086902e-01 3.486473e-01 5.570382e-01 3.555748e-01 4.571749e-01
<GCONST> 1.180116e+02
<STATE> 4
<MEAN> 39
 -1.525951e+01 -8.054161e+00 -2.702361e+00 -3.311852e+00 1.164209e+00 -2.878747e+00 -5.498984e+00 -3.401716e+00 1.046372e+00 3.968477e-01 2.170181e+00 -1.033182e+00 6.511502e+01 1.303512e-02 1.340461e-01 1.332277e-01 1.226552e-01 -2.026286e-01 -6.764680e-02 2.631688e-01 1.725770e-01 -3.872877e-02 -1.248450e-01 -2.099789e-01 -2.048391e-02 -2.385159e-01 4.938076e-02 2.189440e-01 -5.797634e-02 3.113405e-02 2.459181e-03 8.790153e-02 7.393952e-02 1.368024e-02 -3.598255e-02 -7.656118e-02 -3.015291e-02 1.171368e-02 -1.357650e-01
<VARIANCE> 39
 1.882754e+01 2.873923e+01 1.939603e+01 1.553938e+01 2.779515e+01 3.094865e+01 3.604266e+01 4.907678e+01 4.756519e+01 2.675923e+01 2.462796e+01 1.325097e+01 5.781993e+01 4.980776e-01 7.546958e-01 1.003670e+00 1.055354e+00 9.999734e-01 1.801434e+00 1.025109e+00 1.321070e+00 1.343255e+00 1.560726e+00 1.482813e+00 9.830685e-01 7.698552e-01 7.557085e-02 1.113347e-01 1.137124e-01 1.288711e-01 1.886758e-01 3.183476e-01 2.166525e-01 2.252697e-01 2.788891e-01 2.636670e-01 3.155484e-01 1.805057e-01 6.344993e-02
<GCONST> 9.266912e+01
<TRANSP> 5
 0.000000e+00 1.000000e+00 0.000000e+00 0.000000e+00 0.000000e+00
 0.000000e+00 8.003043e-01 1.996957e-01 0.000000e+00 0.000000e+00
 0.000000e+00 0.000000e+00 7.815460e-01 2.184540e-01 0.000000e+00
 0.000000e+00 0.000000e+00 0.000000e+00 8.598171e-01 1.401829e-01
 0.000000e+00 0.000000e+00 0.000000e+00 0.000000e+00 0.000000e+00
<ENDHMM>
~h "I"
<BEGINHMM>
<NUMSTATES> 5
<STATE> 2
<MEAN> 39
 -1.221234e+01 -3.157866e+00 9.283722e+00 6.055418e+00 -1.439919e-01 -1.159705e+01 -8.561123e+00 -8.220347e+00 -4.430149e+00 -6.661062e+00 -5.874812e+00 -4.905983e+00 7.468279e+01 1.725352e+00 1.855693e-01 -1.115580e-01 9.370680e-01 -1.724686e-01 -1.017153e+00 -1.147891e+00 -6.939663e-01 -6.319869e-01 -5.040209e-01 -7.144353e-01 -3.757725e-01 2.432695e-01 -3.696035e-02 1.895085e-01 -3.103421e-01 -3.029867e-01 2.171682e-02 2.556324e-01 2.198679e-01 1.359676e-01 3.244770e-02 2.057623e-01 2.132848e-01 1.000146e-01 -2.088600e-01
<VARIANCE> 39
 5.678888e+01 3.410122e+01 5.148366e+01 4.163629e+01 5.611308e+01 7.134044e+01 5.514059e+01 5.628387e+01 5.763777e+01 4.100609e+01 2.829459e+01 5.070691e+01 5.209649e+01 7.348990e+00 3.194715e+00 4.191719e+00 3.116092e+00 3.395274e+00 5.393633e+00 4.334970e+00 4.340096e+00 4.993154e+00 3.075147e+00 2.627503e+00 3.300085e+00 2.508138e+00 1.010641e+00 5.585154e-01 5.868952e-01 5.280450e-01 6.456059e-01 8.997769e-01 7.820348e-01 7.733095e-01 8.243641e-01 5.562891e-01 5.183411e-01 5.509213e-01 4.913591e-01
<GCONST> 1.340869e+02
<STATE> 3
<MEAN> 39
 -7.609339e+00 -2.387620e+00 7.973457e+00 7.040568e+00 -2.672536e+00 -1.365859e+01 -1.215478e+01 -1.069474e+01 -4.826814e+00 -8.674272e+00 -7.724431e+00 -4.887866e+00 7.433837e+01 4.121580e-01 9.218308e-01 -6.265842e-01 -3.729818e-01 3.147698e-01 6.629224e-01 1.875993e-01 1.657977e-01 -2.475131e-01 3.509375e-01 4.988693e-01 1.238577e-01 -8.441309e-01 -6.121667e-01 1.733902e-01 -1.335192e-01 -5.140370e-01 1.725173e-01 6.240548e-01 5.758561e-01 3.031892e-01 1.332889e-01 2.374660e-01 4.419487e-01 2.086976e-01 -3.144231e-01
<VARIANCE> 39
 2.240005e+01 3.255354e+01 4.321804e+01 5.244111e+01 7.705679e+01 5.883665e+01 4.300986e+01 5.204182e+01 6.665887e+01 4.986703e+01 3.581519e+01 6.635078e+01 3.720475e+01 4.245811e+00 2.371016e+00 3.591520e+00 2.575469e+00 3.256496e+00 4.667675e+00 2.976253e+00 3.509261e+00 4.296093e+00 2.901512e+00 2.505083e+00 2.337086e+00 2.375909e+00 5.894716e-01 5.097072e-01 4.600885e-01 5.671747e-01 7.232816e-01 9.024139e-01 6.540951e-01 6.216090e-01 8.543612e-01 6.351098e-01 5.150887e-01 5.535249e-01 2.950404e-01
<GCONST> 1.294241e+02
<STATE> 4
<MEAN> 39
 -1.219420e+01 -6.429485e-01 2.566108e+00 3.593222e+00 1.232157e-01 -4.312916e+00 -5.360484e+00 -4.029386e+00 -3.953984e+00 -3.702442e+00 -2.840744e+00 -3.172358e+00 6.302451e+01 -3.757095e-01 2.717350e-01 -5.336405e-01 -5.275153e-01 5.046151e-02 5.647041e-01 5.074603e-01 2.493942e-01 4.672490e-02 2.511557e-01 4.127980e-01 2.700273e-01 -6.071602e-01 -1.212788e-01 -1.499239e-01 -1.960168e-03 -8.151996e-02 -7.289594e-02 -4.993133e-02 3.198434e-02 1.214495e-03 5.317136e-02 -3.786478e-02 -3.882075e-02 2.153306e-02 1.444694e-01
<VARIANCE> 39
 3.031123e+01 4.579640e+01 4.066457e+01 3.587462e+01 3.342964e+01 5.216265e+01 4.542953e+01 4.978401e+01 3.901421e+01 4.088524e+01 2.801202e+01 3.336772e+01 8.016113e+01 2.375453e+00 2.210838e+00 2.398962e+00 2.386375e+00 2.328347e+00 3.129448e+00 2.335376e+00 2.185027e+00 2.865231e+00 2.316501e+00 2.107557e+00 2.002363e+00 2.346374e+00 3.647828e-01 3.293509e-01 3.822868e-01 3.549519e-01 3.697245e-01 4.968577e-01 4.676643e-01 4.456306e-01 4.929853e-01 3.806416e-01 3.668258e-01 3.630517e-01 2.399962e-01
<GCONST> 1.186940e+02
<TRANSP> 5
 0.000000e+00 1.000000e+00 0.000000e+00 0.000000e+00 0.000000e+00
 0.000000e+00 4.422769e-01 5.577231e-01 0.000000e+00 0.000000e+00
 0.000000e+00 0.000000e+00 5.131194e-01 4.868806e-01 0.000000e+00
 0.000000e+00 0.000000e+00 0.000000e+00 7.190698e-01 2.809302e-01
 0.000000e+00 0.000000e+00 0.000000e+00 0.000000e+00 0.000000e+00
<ENDHMM>
~h "O"
<BEGINHMM>
<NUMSTATES> 5
<STATE> 2
<MEAN> 39
 -6.463805e-01 7.749382e+00 3.307026e+00 -4.368161e+00 -2.286628e+00 1.942875e+00 -2.136092e+00 -9.826533e+00 -6.495796e+00 -4.101007e+00 -2.163803e+00 -3.952663e+00 6.395025e+01 -3.286340e-01 -3.234987e-01 1.851187e-02 -1.373284e-01 -2.469198e-01 -3.725136e-01 1.078580e+00 6.045986e-02 -1.045637e+00 -8.606017e-01 6.015989e-01 5.777032e-01 2.497927e-01 -1.794369e-01 2.459833e-01 3.551091e-01 -4.789059e-01 -4.647322e-01 8.427864e-02 -1.983605e-04 -4.417180e-02 -1.111244e-01 -2.944667e-01 4.217936e-01 2.172183e-01 2.559800e-01
<VARIANCE> 39
 6.737208e+00 3.498561e+01 1.160514e+01 5.323195e+00 9.787645e+00 2.358213e+01 1.275161e+01 2.227001e+01 1.963541e+01 3.732818e+00 1.068067e+01 1.378381e+01 6.481923e+01 1.318464e+00 8.968628e-01 3.220532e+00 5.478549e+00 1.127782e+00 5.648105e-01 9.779685e-01 6.951923e-01 1.781740e+00 9.655707e-01 3.497229e-01 1.639289e+00 1.822956e+00 1.629914e-01 4.383436e-01 5.240580e-01 1.026552e+00 5.814067e-01 4.225287e-01 2.236932e-01 6.100924e-01 3.263534e-01 8.060250e-02 2.529206e-01 3.416038e-01 4.189199e-01
<GCONST> 9.498862e+01
<STATE> 3
<MEAN> 39
 -3.993931e-01 1.744347e+00 -1.885723e+00 -2.413622e+00 -3.443886e+00 -7.113665e-02 4.704373e-02 -1.017067e+01 -1.677934e+01 -1.016572e+01 1.151064e+00 -1.030415e-01 7.170959e+01 -3.106588e-01 1.271016e+00 -4.938994e-01 8.517992e-01 1.268301e-01 1.755082e+00 1.797655e-01 -3.450947e-01 -1.048714e+00 -6.673965e-01 9.858262e-01 2.239049e-01 -4.249782e-01 -7.603772e-01 8.584775e-01 5.582925e-01 5.910658e-01 4.853167e-01 4.874167e-01 -3.598914e-01 5.779208e-01 1.065033e+00 5.271699e-01 -5.458072e-01 -1.811962e-01 -5.766627e-01
<VARIANCE> 39
 1.334356e+01 1.290841e+01 3.093358e+01 1.803646e+01 8.282545e+00 1.804920e+01 5.767638e+00 5.094530e+01 2.493933e+01 1.521585e+01 1.334847e+01 4.430539e+00 5.088729e+01 1.962314e+00 2.797851e+00 1.726637e+00 1.816576e+00 2.505529e+00 1.163466e+00 1.390841e+00 4.324545e+00 6.898934e+00 3.369680e+00 4.017956e+00 1.815580e+00 1.243845e+00 5.003200e-01 2.257479e-01 2.867851e-01 3.666353e-01 2.748612e-01 7.679026e-01 7.056439e-01 6.254740e-01 4.380988e-01 3.461811e-01 6.598780e-01 1.897932e-02 5.353668e-02
<GCONST> 1.028504e+02
<STATE> 4
<MEAN> 39
 -4.879190e+00 9.366826e+00 5.117482e+00 -5.109192e-01 -6.682811e-01 6.532671e+00 -2.707863e+00 -1.498271e+01 -1.153715e+01 -4.614874e+00 3.004710e+00 6.662700e-01 6.320350e+01 -7.961331e-01 3.915513e-01 3.442930e-01 7.051945e-01 3.279896e-01 1.967593e-01 -9.942492e-01 -8.651362e-02 1.138469e+00 1.135045e+00 2.249716e-01 -4.265298e-01 -1.361004e-01 -4.876583e-02 -2.733960e-01 -9.778508e-02 -2.517642e-02 9.727933e-03 -2.573726e-01 -1.284218e-01 1.822171e-01 1.430799e-01 2.915294e-02 6.217545e-02 -1.204671e-01 9.313766e-02
<VARIANCE> 39
 3.519734e+00 5.567228e+00 1.318349e+01 3.871172e+01 1.725083e+01 2.022487e+01 3.559853e+01 9.262849e+01 1.527898e+01 2.927048e+01 4.689830e+01 1.200417e+01 3.942133e+01 1.742611e+00 2.926690e+00 1.112280e+00 4.365241e+00 2.136057e+00 3.623219e+00 2.244124e+00 1.002276e+01 3.617625e+00 1.659466e+00 4.013465e+00 1.456903e+00 3.716716e+00 2.215230e-01 2.807505e-01 1.175496e-01 1.263435e+00 5.136616e-01 3.474570e-01 2.578480e-01 2.016875e+00 7.088969e-01 4.227531e-01 8.892562e-01 4.461616e-01 9.240347e-01
<GCONST> 1.149237e+02
<TRANSP> 5
 0.000000e+00 1.000000e+00 0.000000e+00 0.000000e+00 0.000000e+00
 0.000000e+00 6.666641e-01 3.333359e-01 0.000000e+00 0.000000e+00
 0.000000e+00 0.000000e+00 6.272475e-01 3.727526e-01 0.000000e+00
 0.000000e+00 0.000000e+00 0.000000e+00 8.122414e-01 1.877586e-01
 0.000000e+00 0.000000e+00 0.000000e+00 0.000000e+00 0.000000e+00
<ENDHMM>
~h "R"
<BEGINHMM>
<NUMSTATES> 5
<STATE> 2
<MEAN> 39
 -3.290082e+00 -4.859031e+00 -2.595523e+00 1.021621e+00 1.473231e-01 -1.182547e+01 -9.858305e+00 -1.251624e+01 -6.805407e+00 -1.861241e+00 -4.693393e-01 -1.017285e+00 7.688131e+01 6.570016e-01 3.289064e-01 4.780694e-02 1.398359e+00 5.202067e-01 3.365598e-01 -4.859240e-01 -2.019404e-01 -2.153058e-01 -2.980204e-01 -2.771270e-01 -4.718365e-01 -8.587586e-01 -3.452727e-01 1.582586e-01 1.346636e-01 -1.350948e-01 -2.637556e-01 4.413216e-01 3.640302e-01 4.458679e-01 3.165315e-01 -1.278908e-01 -7.922115e-02 -6.293334e-03 -3.063574e-01
<VARIANCE> 39
 2.085877e+01 2.459517e+01 4.508834e+01 5.500627e+01 5.701588e+01 7.334885e+01 7.329866e+01 5.825336e+01 1.044592e+02 6.702785e+01 5.187675e+01 5.078584e+01 3.302836e+01 2.924783e+00 2.736105e+00 2.638041e+00 4.136829e+00 3.845547e+00 6.745700e+00 4.278799e+00 4.105690e+00 4.571891e+00 3.892207e+00 3.092050e+00 2.770362e+00 2.669405e+00 4.923791e-01 3.591975e-01 4.894170e-01 6.182605e-01 5.718781e-01 8.701527e-01 6.904701e-01 6.701100e-01 7.662371e-01 7.102311e-01 5.461991e-01 4.766298e-01 4.747158e-01
<GCONST> 1.321638e+02
<STATE> 3
<MEAN> 39
 -3.019377e+00 -3.299490e+00 -1.910350e+00 3.902431e+00 1.377927e+00 -8.963939e+00 -1.030049e+01 -1.138335e+01 -6.119407e+00 -2.783620e+00 -9.736914e-01 -2.060719e+00 7.404893e+01 -1.314158e-01 5.146412e-01 3.393362e-01 6.527284e-01 -7.123458e-02 9.909039e-01 2.225542e-01 4.280335e-01 4.333120e-01 -4.168826e-01 -3.103735e-01 -2.424054e-01 -8.595411e-01 -3.285474e-01 -9.128162e-02 7.256241e-02 -5.670025e-01 -4.255993e-01 -9.474222e-02 3.313758e-01 1.880700e-01 1.979945e-01 2.100813e-02 -1.204814e-02 1.834988e-01 2.337658e-01
<VARIANCE> 39
 1.938180e+01 2.591247e+01 4.255317e+01 5.185546e+01 5.471317e+01 6.574362e+01 7.385284e+01 5.607702e+01 8.695734e+01 5.538028e+01 4.546416e+01 4.477105e+01 3.169072e+01 1.893762e+00 2.513828e+00 3.279210e+00 3.400231e+00 3.799381e+00 5.148617e+00 3.546686e+00 4.075651e+00 4.477367e+00 3.641489e+00 2.968871e+00 2.951183e+00 2.067997e+00 3.657258e-01 3.991265e-01 4.794398e-01 6.702058e-01 6.813066e-01 9.572051e-01 7.020178e-01 6.710686e-01 8.600988e-01 6.495461e-01 5.612876e-01 5.546718e-01 4.705277e-01
<GCONST> 1.302283e+02
<STATE> 4
<MEAN> 39
 -7.234854e+00 -2.011202e+00 -1.172330e+00 2.733683e+00 7.329654e-01 -5.550511e+00 -6.981788e+00 -7.206903e+00 -3.177884e+00 -2.179121e+00 -2.990240e-02 -1.701625e+00 6.974261e+01 -3.551813e-01 -5.059732e-02 1.546927e-01 -2.654003e-01 -4.091186e-01 -4.427558e-02 3.557168e-01 2.147811e-01 1.359788e-01 -1.315412e-01 -1.248754e-01 5.298825e-02 -1.088586e-01 -1.407929e-02 -1.302085e-01 -6.202041e-02 -2.924122e-01 -1.465190e-01 -3.159025e-01 1.617617e-02 -5.447102e-02 -1.107022e-01 4.305217e-02 7.890105e-03 3.688860e-02 2.593210e-01
<VARIANCE> 39
 4.168437e+01 3.659095e+01 3.996379e+01 4.745905e+01 4.787352e+01 6.866843e+01 7.074309e+01 7.073107e+01 8.167888e+01 5.089330e+01 4.597513e+01 4.040967e+01 6.518021e+01 2.086341e+00 2.450554e+00 2.830332e+00 2.687949e+00 2.962326e+00 4.804599e+00 3.269311e+00 3.274812e+00 4.219797e+00 2.975348e+00 2.493484e+00 2.360270e+00 2.539608e+00 3.536387e-01 4.362141e-01 4.517795e-01 5.907956e-01 5.885316e-01 9.461274e-01 6.211631e-01 6.115633e-01 7.919710e-01 5.541374e-01 4.469892e-01 4.682837e-01 3.820150e-01
<GCONST> 1.290364e+02
<TRANSP> 5
 0.000000e+00 1.000000e+00 0.000000e+00 0.000000e+00 0.000000e+00
 0.000000e+00 2.200313e-01 7.799687e-01 0.000000e+00 0.000000e+00
 0.000000e+00 0.000000e+00 2.203802e-01 7.796198e-01 0.000000e+00
 0.000000e+00 0.000000e+00 0.000000e+00 5.340874e-01 4.659127e-01
 0.000000e+00 0.000000e+00 0.000000e+00 0.000000e+00 0.000000e+00
<ENDHMM>
~h "S"
<BEGINHMM>
<NUMSTATES> 5
<STATE> 2
<MEAN> 39
 -1.735320e+01 3.696320e+00 8.379373e+00 -5.842970e+00 3.886643e+00 -1.942312e+00 -6.005243e+00 -1.035202e+01 -3.898985e+00 -4.692416e+00 -4.391852e-01 -2.948631e+00 7.658260e+01 -4.268110e+00 6.060349e-01 1.251258e+00 -9.594682e-01 1.059722e+00 1.248939e+00 3.946998e-01 4.634351e-01 1.884206e+00 3.590625e-01 4.120601e-01 2.115696e-01 2.621197e-01 1.995711e-01 -5.672334e-01 -5.218795e-01 7.816957e-02 -4.466369e-01 -3.826135e-01 7.723930e-02 2.379145e-02 -7.270447e-02 1.555071e-01 -3.444215e-02 9.089849e-02 3.525600e-03
<VARIANCE> 39
 5.827185e+01 4.941779e+01 5.195400e+01 4.726900e+01 3.740731e+01 6.371449e+01 9.186402e+01 6.927995e+01 6.666064e+01 4.018997e+01 4.828371e+01 3.980669e+01 2.729242e+01 3.658221e+00 4.486210e+00 3.416059e+00 3.812257e+00 3.334462e+00 3.598206e+00 4.437713e+00 3.865262e+00 3.941046e+00 3.014140e+00 2.903809e+00 2.382838e+00 7.402601e-01 1.077476e+00 4.812899e-01 4.925421e-01 5.824227e-01 4.626657e-01 5.333140e-01 5.783484e-01 6.171598e-01 8.002432e-01 4.859712e-01 5.147398e-01 3.881526e-01 1.366567e-01
<GCONST> 1.286643e+02
<STATE> 3
<MEAN> 39
 -2.938147e+01 -5.311939e-01 7.320474e+00 -8.955924e+00 4.013209e+00 -7.568982e-01 -3.986361e+00 -7.719803e+00 1.660537e+00 -2.135335e+00 1.673195e+00 -1.412265e+00 7.621389e+01 -2.239558e-01 -5.421860e-01 -3.077164e-01 1.423191e-01 -2.236914e-01 1.036287e-01 1.958579e-01 1.200593e-01 1.297650e-01 2.145399e-01 4.603563e-02 1.549881e-01 -4.346445e-01 9.910679e-01 -2.151000e-02 -1.253410e-01 3.618634e-01 -1.242869e-01 -9.712349e-02 -3.462990e-02 -1.802037e-02 -3.399372e-01 -5.627926e-02 -9.723759e-02 -1.846711e-02 -3.109470e-01
<VARIANCE> 39
 3.128571e+01 6.993929e+01 4.506366e+01 3.103372e+01 3.515984e+01 5.576705e+01 1.038069e+02 5.843774e+01 5.887224e+01 3.494975e+01 3.633622e+01 2.109531e+01 2.432896e+01 3.709549e+00 1.561580e+00 1.840111e+00 2.203474e+00 1.657810e+00 1.833616e+00 2.080145e+00 2.241120e+00 2.013829e+00 1.809584e+00 1.616870e+00 1.395469e+00 8.494982e-01 5.458563e-01 3.660766e-01 3.493683e-01 3.479592e-01 3.538914e-01 4.280628e-01 4.603597e-01 4.298033e-01 4.708984e-01 3.548450e-01 3.484199e-01 2.832243e-01 1.635034e-01
<GCONST> 1.149759e+02
<STATE> 4
<MEAN> 39
 -1.916133e+01 -1.931485e+00 2.158728e+00 -3.542656e+00 1.725199e+00 -2.011341e-01 -3.821218e+00 -5.842168e+00 -4.976996e-02 -1.382369e+00 3.171701e-01 -5.771261e-01 6.517783e+01 1.542213e+00 1.074285e-01 -5.151471e-01 6.086971e-01 -3.028556e-01 -2.121636e-01 1.161578e-01 3.684427e-01 -5.238726e-01 -9.877346e-02 -2.076160e-01 -2.656726e-02 -1.272861e+00 1.762123e-02 4.553858e-03 -2.481798e-02 -9.824853e-02 -4.698776e-02 -1.629323e-01 -4.674515e-02 1.481245e-02 -3.143094e-02 -1.103513e-01 -3.341267e-02 -6.841170e-02 1.762652e-01
<VARIANCE> 39
 4.002026e+01 4.991726e+01 4.843838e+01 3.722393e+01 3.202152e+01 4.188019e+01 6.843813e+01 5.219933e+01 4.558645e+01 3.524957e+01 2.897678e+01 1.893340e+01 8.892519e+01 3.701635e+00 2.513940e+00 2.018367e+00 2.397748e+00 2.136490e+00 3.008778e+00 3.022413e+00 2.511266e+00 2.701218e+00 2.280250e+00 1.904093e+00 1.705441e+00 4.059632e+00 4.987496e-01 4.411503e-01 3.358869e-01 3.993601e-01 4.591029e-01 5.043871e-01 5.256707e-01 4.813413e-01 5.024802e-01 4.457093e-01 3.737293e-01 3.351388e-01 5.430444e-01
<GCONST> 1.218812e+02
<TRANSP> 5
 0.000000e+00 1.000000e+00 0.000000e+00 0.000000e+00 0.000000e+00
 0.000000e+00 6.474199e-01 3.525801e-01 0.000000e+00 0.000000e+00
 0.000000e+00 0.000000e+00 7.748322e-01 2.251678e-01 0.000000e+00
 0.000000e+00 0.000000e+00 0.000000e+00 7.651449e-01 2.348550e-01
 0.000000e+00 0.000000e+00 0.000000e+00 0.000000e+00 0.000000e+00
<ENDHMM>
~h "U"
<BEGINHMM>
<NUMSTATES> 5
<STATE> 2
<MEAN> 39
 -4.171435e+00 -4.256345e-01 6.627113e-02 -5.309761e+00 -4.560358e+00 -1.014415e+01 -2.895653e+00 -9.731305e+00 -1.291871e+01 -7.502542e+00 -4.183589e+00 -4.043734e+00 7.436311e+01 5.823404e-01 3.640206e-01 -7.634418e-02 -3.006946e-01 -3.308614e-01 -2.347539e-01 5.136783e-01 -1.016642e-01 -5.332162e-01 -2.260412e-01 -1.081334e-01 9.508288e-02 -3.183067e-02 -3.273382e-01 1.274438e-01 1.435980e-01 3.658371e-01 2.026253e-01 3.948871e-01 1.700374e-02 3.193531e-01 4.655304e-01 1.132576e-01 1.512063e-01 -4.668900e-02 -3.984931e-01
<VARIANCE> 39
 2.758848e+01 3.407910e+01 3.909676e+01 5.383860e+01 5.464592e+01 8.273980e+01 6.935981e+01 8.732978e+01 8.820420e+01 5.340381e+01 4.752748e+01 9.143047e+01 3.310613e+01 2.603916e+00 2.434414e+00 1.786111e+00 3.412736e+00 3.300698e+00 5.324749e+00 3.547898e+00 4.016922e+00 5.211767e+00 3.228890e+00 2.932251e+00 3.183972e+00 2.418361e+00 4.857182e-01 4.909157e-01 3.678645e-01 6.475915e-01 5.420278e-01 9.653868e-01 6.925182e-01 7.455712e-01 1.040927e+00 6.475359e-01 5.752566e-01 6.417795e-01 4.212471e-01
<GCONST> 1.323204e+02
<STATE> 3
<MEAN> 39
 -3.778760e+00 2.586089e+00 5.156963e-01 -3.204579e+00 -3.762558e+00 -5.563176e+00 -2.645272e+00 -9.837214e+00 -1.034041e+01 -7.986641e+00 -2.878799e+00 -1.758276e+00 7.056969e+01 -6.417204e-01 3.353916e-01 1.669011e-01 5.684152e-01 4.817142e-01 6.831778e-01 1.162160e-02 4.940587e-01 7.817686e-01 3.986739e-01 3.602123e-01 1.483268e-02 -9.589912e-01 -4.429572e-01 -1.699475e-01 7.494807e-02 8.888995e-02 1.331274e-01 2.786119e-03 -1.177491e-01 1.657584e-01 3.516314e-01 1.835002e-01 8.763174e-02 -5.943857e-02 -8.838515e-02
<VARIANCE> 39
 2.843726e+01 3.491526e+01 3.521938e+01 4.874554e+01 5.360559e+01 5.296635e+01 5.659181e+01 8.120894e+01 5.651991e+01 4.721762e+01 5.039703e+01 5.594929e+01 5.122279e+01 2.366646e+00 2.787294e+00 1.934863e+00 2.931624e+00 2.689634e+00 4.365567e+00 3.454210e+00 4.178728e+00 4.226061e+00 3.394284e+00 2.797908e+00 3.090467e+00 2.888951e+00 3.503164e-01 4.551100e-01 3.905570e-01 5.352777e-01 5.698874e-01 7.843955e-01 6.270263e-01 7.380310e-01 7.903888e-01 5.586276e-01 5.392795e-01 5.196995e-01 2.848421e-01
<GCONST> 1.284942e+02
<STATE> 4
<MEAN> 39
 -1.314734e+01 -8.914475e-01 -1.995091e+00 -3.556521e-01 3.188923e-01 -8.577512e-01 -1.696450e+00 -3.443178e+00 -2.663898e+00 -2.146437e+00 -2.845750e-01 -1.261859e+00 6.109167e+01 -3.032307e-01 -2.683656e-02 4.641356e-02 1.125964e-01 8.590010e-02 9.282825e-02 3.905026e-02 1.544076e-01 2.608215e-01 1.446917e-01 7.811548e-02 -2.631528e-05 -2.110523e-01 2.373802e-04 -1.350676e-02 3.304828e-02 -2.364029e-02 -1.781340e-02 -5.014663e-02 -2.149227e-02 -5.498070e-03 -1.406301e-02 -2.400535e-02 -1.273383e-02 -1.272073e-02 8.770735e-02
<VARIANCE> 39
 3.789840e+01 4.063743e+01 2.716585e+01 2.587591e+01 2.825951e+01 3.498491e+01 4.200349e+01 4.453514e+01 4.867023e+01 3.315684e+01 2.809341e+01 2.515435e+01 6.658131e+01 1.419067e+00 1.604298e+00 1.373875e+00 1.468059e+00 1.508408e+00 2.000781e+00 1.835418e+00 1.815484e+00 2.148623e+00 1.714471e+00 1.634081e+00 1.498231e+00 1.348322e+00 2.110892e-01 2.352851e-01 2.190023e-01 2.303003e-01 2.669288e-01 3.402404e-01 3.099560e-01 3.241915e-01 3.568778e-01 3.052649e-01 3.083054e-01 2.866696e-01 1.668795e-01
<GCONST> 1.073588e+02
<TRANSP> 5
 0.000000e+00 1.000000e+00 0.000000e+00 0.000000e+00 0.000000e+00
 0.000000e+00 5.262399e-01 4.737601e-01 0.000000e+00 0.000000e+00
 0.000000e+00 0.000000e+00 4.433503e-01 5.566497e-01 0.000000e+00
 0.000000e+00 0.000000e+00 0.000000e+00 8.420323e-01 1.579677e-01
 0.000000e+00 0.000000e+00 0.000000e+00 0.000000e+00 0.000000e+00
<ENDHMM>
~h "Z"
<BEGINHMM>
<NUMSTATES> 5
<STATE> 2
<MEAN> 39
 -9.536180e+00 -2.069821e+00 1.042822e+00 -1.833695e+00 -2.093409e+00 -7.111848e+00 -4.800930e+00 -6.481472e+00 -4.497173e+00 -4.223818e+00 -2.040410e+00 -2.297827e+00 7.175011e+01 2.135107e-04 1.628429e-03 1.702974e-03 -5.927195e-04 -3.241916e-04 9.766237e-04 -1.718810e-03 -1.841840e-03 -4.052263e-05 -3.867827e-04 5.285112e-05 5.401023e-04 -5.345276e-04 3.548435e-05 -4.863441e-04 -3.334734e-04 -2.365990e-05 3.998334e-05 -1.501578e-04 -2.847855e-04 -3.000457e-04 1.909890e-04 2.454228e-04 3.126643e-05 7.620145e-05 1.093506e-04
<VARIANCE> 39
 9.070612e+01 4.787637e+01 6.430106e+01 7.107455e+01 6.621440e+01 8.800159e+01 6.888425e+01 6.174739e+01 7.718762e+01 6.221650e+01 4.727208e+01 5.489891e+01 9.060205e+01 4.160689e+00 2.516382e+00 2.476319e+00 2.991242e+00 2.971693e+00 4.129748e+00 3.146216e+00 3.043755e+00 3.712363e+00 3.008409e+00 2.494550e+00 2.251590e+00 2.791247e+00 5.787384e-01 4.181464e-01 3.967754e-01 4.879972e-01 5.116270e-01 7.071534e-01 5.491386e-01 5.416850e-01 6.604081e-01 5.282443e-01 4.545386e-01 4.067214e-01 4.152826e-01
<GCONST> 1.317243e+02
<STATE> 3
<MEAN> 39
 -9.536180e+00 -2.069821e+00 1.042822e+00 -1.833695e+00 -2.093409e+00 -7.111848e+00 -4.800930e+00 -6.481472e+00 -4.497173e+00 -4.223818e+00 -2.040410e+00 -2.297827e+00 7.175011e+01 2.135107e-04 1.628429e-03 1.702974e-03 -5.927195e-04 -3.241916e-04 9.766237e-04 -1.718810e-03 -1.841840e-03 -4.052263e-05 -3.867827e-04 5.285112e-05 5.401023e-04 -5.345276e-04 3.548435e-05 -4.863441e-04 -3.334734e-04 -2.365990e-05 3.998334e-05 -1.501578e-04 -2.847855e-04 -3.000457e-04 1.909890e-04 2.454228e-04 3.126643e-05 7.620145e-05 1.093506e-04
<VARIANCE> 39
 9.070612e+01 4.787637e+01 6.430106e+01 7.107455e+01 6.621440e+01 8.800159e+01 6.888425e+01 6.174739e+01 7.718762e+01 6.221650e+01 4.727208e+01 5.489891e+01 9.060205e+01 4.160689e+00 2.516382e+00 2.476319e+00 2.991242e+00 2.971693e+00 4.129748e+00 3.146216e+00 3.043755e+00 3.712363e+00 3.008409e+00 2.494550e+00 2.251590e+00 2.791247e+00 5.787384e-01 4.181464e-01 3.967754e-01 4.879972e-01 5.116270e-01 7.071534e-01 5.491386e-01 5.416850e-01 6.604081e-01 5.282443e-01 4.545386e-01 4.067214e-01 4.152826e-01
<GCONST> 1.317243e+02
<STATE> 4
<MEAN> 39
 -9.536180e+00 -2.069821e+00 1.042822e+00 -1.833695e+00 -2.093409e+00 -7.111848e+00 -4.800930e+00 -6.481472e+00 -4.497173e+00 -4.223818e+00 -2.040410e+00 -2.297827e+00 7.175011e+01 2.135107e-04 1.628429e-03 1.702974e-03 -5.927195e-04 -3.241916e-04 9.766237e-04 -1.718810e-03 -1.841840e-03 -4.052263e-05 -3.867827e-04 5.285112e-05 5.401023e-04 -5.345276e-04 3.548435e-05 -4.863441e-04 -3.334734e-04 -2.365990e-05 3.998334e-05 -1.501578e-04 -2.847855e-04 -3.000457e-04 1.909890e-04 2.454228e-04 3.126643e-05 7.620145e-05 1.093506e-04
<VARIANCE> 39
 9.070612e+01 4.787637e+01 6.430106e+01 7.107455e+01 6.621440e+01 8.800159e+01 6.888425e+01 6.174739e+01 7.718762e+01 6.221650e+01 4.727208e+01 5.489891e+01 9.060205e+01 4.160689e+00 2.516382e+00 2.476319e+00 2.991242e+00 2.971693e+00 4.129748e+00 3.146216e+00 3.043755e+00 3.712363e+00 3.008409e+00 2.494550e+00 2.251590e+00 2.791247e+00 5.787384e-01 4.181464e-01 3.967754e-01 4.879972e-01 5.116270e-01 7.071534e-01 5.491386e-01 5.416850e-01 6.604081e-01 5.282443e-01 4.545386e-01 4.067214e-01 4.152826e-01
<GCONST> 1.317243e+02
<TRANSP> 5
 0.000000e+00 1.000000e+00 0.000000e+00 0.000000e+00 0.000000e+00
 0.000000e+00 6.000000e-01 4.000000e-01 0.000000e+00 0.000000e+00
 0.000000e+00 0.000000e+00 6.000000e-01 4.000000e-01 0.000000e+00
 0.000000e+00 0.000000e+00 0.000000e+00 6.000000e-01 4.000000e-01
 0.000000e+00 0.000000e+00 0.000000e+00 0.000000e+00 0.000000e+00
<ENDHMM>
~h "a"
<BEGINHMM>
<NUMSTATES> 5
<STATE> 2
<MEAN> 39
 -1.579632e+00 -6.629042e+00 -7.087453e+00 -8.912333e+00 -5.460323e+00 -7.682137e+00 -4.024001e+00 -9.485036e+00 -3.653650e+00 5.625140e-01 -1.016810e-01 1.140136e+00 7.997154e+01 1.170000e+00 -1.665170e+00 -1.499943e+00 -1.549073e+00 -8.883448e-01 3.837437e-02 7.306580e-01 -9.646976e-02 6.375599e-01 1.005959e+00 3.100693e-03 6.558428e-01 1.519482e+00 -6.466426e-01 2.977763e-01 4.087262e-01 4.150675e-01 4.643612e-01 3.677130e-01 4.521390e-02 3.134212e-01 4.031369e-05 -3.366747e-01 -7.480615e-02 -1.935509e-01 -5.848787e-01
<VARIANCE> 39
 1.381557e+01 2.705450e+01 2.560763e+01 4.684451e+01 4.145541e+01 6.151897e+01 7.460275e+01 5.200110e+01 8.272102e+01 6.867805e+01 4.864799e+01 5.506081e+01 2.991625e+01 3.165915e+00 2.032213e+00 2.188511e+00 3.419659e+00 3.537265e+00 4.205308e+00 3.737695e+00 3.689170e+00 4.532925e+00 4.121653e+00 3.539178e+00 3.221345e+00 1.986046e+00 5.628615e-01 4.583574e-01 3.818810e-01 5.572917e-01 4.864584e-01 7.773341e-01 6.976220e-01 6.295848e-01 8.716076e-01 7.890371e-01 5.892307e-01 5.620052e-01 3.799064e-01
<GCONST> 1.288349e+02
<STATE> 3
<MEAN> 39
 -8.805480e-01 -1.021140e+01 -9.205670e+00 -1.170918e+01 -4.583357e+00 -4.852430e+00 -8.694154e-01 -6.742375e+00 -2.837574e+00 -7.007387e-02 -2.075177e+00 8.808326e-01 8.090352e+01 2.050117e-02 1.003282e-01 3.038962e-02 2.484488e-02 4.025159e-02 5.266836e-03 -5.922847e-02 -1.036355e-02 -9.280039e-02 -5.391918e-02 9.188171e-02 3.678484e-02 -1.299362e-01 -8.083568e-02 3.306136e-01 2.553787e-01 2.634571e-01 7.088827e-02 -1.033014e-01 -1.625257e-01 -5.905789e-02 -1.389829e-01 -1.423468e-01 3.062297e-02 -9.948099e-02 -2.439704e-01
<VARIANCE> 39
 8.875694e+00 2.856607e+01 1.979786e+01 3.941500e+01 4.426210e+01 6.108043e+01 5.693407e+01 4.207268e+01 8.441042e+01 5.752802e+01 6.942061e+01 6.038391e+01 2.025575e+01 2.475982e-01 7.728454e-01 7.589592e-01 1.127566e+00 1.146960e+00 1.687253e+00 1.727814e+00 1.427561e+00 1.604834e+00 1.529858e+00 1.372026e+00 1.275174e+00 3.024465e-01 1.109426e-01 1.837511e-01 1.775391e-01 2.237392e-01 2.397898e-01 3.004407e-01 2.421592e-01 2.611500e-01 3.322876e-01 3.071792e-01 2.665836e-01 2.479040e-01 1.157906e-01
<GCONST> 9.974386e+01
<STATE> 4
<MEAN> 39
 -1.450046e+00 -5.282463e+00 -6.407640e+00 -8.097349e+00 -4.902606e+00 -6.920196e+00 -4.849411e+00 -9.672958e+00 -3.909523e+00 -5.463768e-01 3.464561e-01 1.556623e+00 7.786562e+01 -4.347068e-01 1.855833e+00 1.267174e+00 1.420009e+00 8.027571e-01 2.540651e-01 -4.638391e-01 5.539340e-02 -7.156955e-01 -1.054904e+00 -8.977736e-02 -6.500501e-01 -1.688413e+00 -3.644219e-01 2.976702e-01 2.350687e-01 2.066668e-01 2.254885e-01 2.976558e-01 1.427832e-01 2.670674e-01 5.370274e-03 -2.041208e-01 -1.398149e-01 -2.710654e-01 -3.181642e-01
<VARIANCE> 39
 1.412576e+01 2.750841e+01 2.734166e+01 4.888602e+01 4.243450e+01 5.768131e+01 6.925912e+01 5.093462e+01 8.134991e+01 7.047080e+01 5.178590e+01 6.210682e+01 4.231080e+01 1.331220e+00 1.947765e+00 1.680281e+00 2.537369e+00 2.625742e+00 3.845749e+00 3.136173e+00 3.182532e+00 3.982492e+00 3.340405e+00 3.064918e+00 2.747097e+00 1.647620e+00 3.244797e-01 3.716258e-01 3.207632e-01 4.526978e-01 4.985669e-01 5.869033e-01 5.245992e-01 5.408565e-01 6.796445e-01 6.122493e-01 4.657627e-01 4.861342e-01 2.806331e-01
<GCONST> 1.233512e+02
<TRANSP> 5
 0.000000e+00 1.000000e+00 0.000000e+00 0.000000e+00 0.000000e+00
 0.000000e+00 5.545052e-01 4.454948e-01 0.000000e+00 0.000000e+00
 0.000000e+00 0.000000e+00 8.060499e-01 1.939500e-01 0.000000e+00
 0.000000e+00 0.000000e+00 0.000000e+00 6.135556e-01 3.864444e-01
 0.000000e+00 0.000000e+00 0.000000e+00 0.000000e+00 0.000000e+00
<ENDHMM>
~h "b"
<BEGINHMM>
<NUMSTATES> 5
<STATE> 2
<MEAN> 39
 -8.569985e-01 6.984711e+00 7.146995e-01 1.286729e+00 -1.226348e+00 -1.412480e+00 -1.831273e+00 -4.193132e+00 -7.419278e+00 -7.360491e+00 -3.830137e+00 -3.716464e+00 6.400649e+01 -1.420670e-01 1.238239e+00 6.402841e-01 8.680344e-01 5.504270e-01 9.571534e-01 2.563661e-01 5.410895e-01 2.888481e-01 4.151380e-02 -1.404054e-01 -2.550063e-01 -1.414312e+00 -2.369768e-01 -6.163537e-01 -1.871100e-01 -4.096739e-01 -1.770679e-01 -4.194845e-01 -1.524782e-01 -3.414373e-01 -5.830304e-03 2.042653e-01 7.996175e-02 1.997853e-01 8.047387e-01
<VARIANCE> 39
 1.967598e+01 2.106299e+01 3.637915e+01 2.622832e+01 3.256459e+01 2.866963e+01 3.797198e+01 4.002818e+01 3.199863e+01 5.645050e+01 4.712138e+01 4.727843e+01 2.131593e+01 1.144182e+00 1.416743e+00 9.443033e-01 2.169075e+00 1.793996e+00 2.446593e+00 1.789726e+00 2.028794e+00 1.903349e+00 2.287957e+00 1.871939e+00 1.988284e+00 1.866073e+00 2.109623e-01 2.922412e-01 2.313937e-01 3.894706e-01 4.292414e-01 4.645755e-01 3.428291e-01 3.728687e-01 4.213496e-01 5.590749e-01 4.359212e-01 3.714323e-01 3.178940e-01
<GCONST> 1.111010e+02
<STATE> 3
<MEAN> 39
 -2.907236e+00 8.611202e+00 2.790588e+00 2.515799e+00 9.277462e-01 2.346753e-01 -1.144566e+00 -4.598072e+00 -6.420202e+00 -6.718161e+00 -3.403455e+00 -2.124361e+00 6.341618e+01 -5.129352e-01 -2.093657e+00 -6.319034e-01 -8.138193e-01 -4.775688e-01 -1.345792e+00 -8.464592e-01 -1.237488e+00 1.231218e-01 7.194236e-01 2.160253e-01 4.907606e-01 2.648782e+00 1.768815e-01 -1.062188e+00 -4.113509e-01 -5.004782e-01 -6.948884e-01 -9.766092e-01 -3.922659e-01 -4.120073e-01 1.744208e-02 2.702398e-01 1.552170e-01 2.148551e-01 1.268162e+00
<VARIANCE> 39
 2.557034e+01 1.739450e+01 2.464545e+01 2.272076e+01 2.861093e+01 2.149842e+01 2.839537e+01 3.247245e+01 3.016121e+01 3.794819e+01 3.219365e+01 3.234273e+01 2.252418e+01 2.427798e+00 2.917481e+00 2.967829e+00 4.389730e+00 5.244534e+00 4.886885e+00 4.292960e+00 2.815854e+00 3.342123e+00 4.368708e+00 3.516018e+00 2.898124e+00 3.359318e+00 4.285576e-01 3.875236e-01 3.069448e-01 6.417486e-01 5.923526e-01 6.023111e-01 6.216599e-01 5.698097e-01 7.127846e-01 8.452869e-01 5.697066e-01 5.246007e-01 4.264571e-01
<GCONST> 1.228765e+02
<STATE> 4
<MEAN> 39
 -2.811210e+00 -1.767650e+00 -1.472116e+00 -2.221436e+00 -3.425678e+00 -7.172690e+00 -5.758695e+00 -9.884095e+00 -6.338422e+00 -4.129804e+00 -1.715864e+00 5.471979e-01 7.612407e+01 2.389171e-01 -2.701917e+00 -6.941747e-01 -1.086560e+00 -1.663012e+00 -2.508846e+00 -1.353691e+00 -9.377596e-01 5.142220e-01 1.246720e+00 4.103723e-01 5.809645e-01 3.230112e+00 8.168601e-02 4.211111e-01 2.574771e-01 2.966560e-01 1.479219e-02 1.537200e-01 2.223002e-01 4.874840e-01 7.802348e-02 -1.524799e-01 -1.396407e-01 -1.901401e-01 -6.213233e-01
<VARIANCE> 39
 2.242743e+01 2.871967e+01 2.401294e+01 6.014968e+01 8.605636e+01 4.927886e+01 8.599157e+01 4.814339e+01 5.643899e+01 4.705553e+01 4.360175e+01 3.881602e+01 3.047521e+01 2.943226e+00 3.442618e+00 3.561580e+00 6.780182e+00 6.982625e+00 7.028924e+00 6.198574e+00 4.797607e+00 6.700665e+00 6.839144e+00 4.730988e+00 4.721153e+00 3.583029e+00 3.450166e-01 4.220601e-01 3.565783e-01 6.050113e-01 1.010642e+00 9.179857e-01 8.786701e-01 7.100147e-01 8.924302e-01 8.954781e-01 6.929900e-01 5.619844e-01 4.746325e-01
<GCONST> 1.359102e+02
<TRANSP> 5
 0.000000e+00 1.000000e+00 0.000000e+00 0.000000e+00 0.000000e+00
 0.000000e+00 7.360386e-01 2.639614e-01 0.000000e+00 0.000000e+00
 0.000000e+00 0.000000e+00 5.354095e-01 4.645905e-01 0.000000e+00
 0.000000e+00 0.000000e+00 0.000000e+00 5.238497e-01 4.761504e-01
 0.000000e+00 0.000000e+00 0.000000e+00 0.000000e+00 0.000000e+00
<ENDHMM>
~h "d"
<BEGINHMM>
<NUMSTATES> 5
<STATE> 2
<MEAN> 39
 -4.191775e+00 3.932412e+00 3.997710e+00 4.428508e+00 3.348275e-01 -4.440172e+00 -5.736090e+00 -6.797097e+00 -7.495857e+00 -5.595842e+00 -2.835984e+00 -5.713100e+00 6.706366e+01 -2.102948e-01 1.275477e+00 6.979217e-01 8.544374e-01 1.879498e-01 1.108167e+00 3.655889e-01 5.542472e-01 6.421843e-01 2.382743e-01 -6.941190e-02 -1.486069e-01 -1.425550e+00 -4.059293e-01 -6.122447e-01 -1.643184e-02 -5.425457e-01 -1.373959e-01 -2.438572e-01 -9.248612e-03 -2.766407e-01 5.688094e-02 1.255438e-01 4.920710e-02 2.751969e-01 7.562239e-01
<VARIANCE> 39
 3.393576e+01 3.345584e+01 4.189614e+01 4.599708e+01 3.673883e+01 6.004214e+01 4.757988e+01 5.202516e+01 6.632796e+01 4.566991e+01 5.027001e+01 5.850417e+01 3.825788e+01 2.185218e+00 2.381300e+00 1.815207e+00 2.490519e+00 1.961102e+00 3.897716e+00 2.862931e+00 3.186942e+00 3.281769e+00 2.793839e+00 2.482782e+00 2.576735e+00 2.653695e+00 4.251841e-01 5.165349e-01 3.985114e-01 5.460104e-01 4.072582e-01 7.563468e-01 6.935659e-01 6.671419e-01 7.028015e-01 6.003222e-01 5.128178e-01 4.359505e-01 5.339002e-01
<GCONST> 1.259083e+02
<STATE> 3
<MEAN> 39
 -5.872915e+00 5.218596e+00 5.925878e+00 5.176091e+00 4.474442e-01 -2.379185e+00 -5.038600e+00 -6.747989e+00 -5.885845e+00 -4.475333e+00 -2.457747e+00 -4.451730e+00 6.615252e+01 -1.795036e+00 -1.387820e+00 8.095759e-01 -1.126075e+00 1.536465e-01 3.151449e-01 1.542453e-01 -7.358668e-01 3.479980e-01 3.336274e-01 7.151130e-02 5.641775e-01 1.599753e+00 -3.121941e-01 -9.099431e-01 -1.143355e-01 -6.960291e-01 -9.163231e-02 -7.417190e-01 -1.559442e-01 -5.298615e-01 -2.950956e-01 -2.672995e-02 3.328132e-02 1.527050e-01 1.208006e+00
<VARIANCE> 39
 2.998905e+01 2.714816e+01 4.355137e+01 4.299207e+01 3.132902e+01 4.812382e+01 4.318138e+01 4.453072e+01 5.190628e+01 3.970592e+01 4.523296e+01 4.259015e+01 3.039728e+01 3.612996e+00 3.339109e+00 3.778979e+00 3.510830e+00 2.756596e+00 5.506742e+00 4.853838e+00 4.629460e+00 4.243694e+00 3.886923e+00 2.615209e+00 2.687140e+00 2.800723e+00 6.611380e-01 4.887733e-01 6.188139e-01 6.173397e-01 4.851412e-01 8.332136e-01 6.147797e-01 5.740501e-01 8.090026e-01 7.255908e-01 5.109808e-01 4.541167e-01 4.273449e-01
<GCONST> 1.292105e+02
<STATE> 4
<MEAN> 39
 -1.420203e+01 -2.096721e+00 9.538132e+00 3.425427e-01 1.555408e+00 -4.540287e+00 -4.380773e+00 -9.801904e+00 -5.317484e+00 -4.386896e+00 -2.109617e+00 -2.986974e+00 7.500101e+01 -1.004807e+00 -1.630408e+00 1.297360e-01 -1.231003e+00 -1.260814e-02 -1.239881e+00 -3.619799e-01 -1.231277e+00 -4.749435e-01 8.920181e-02 1.194431e-01 4.192308e-01 2.262106e+00 8.300966e-01 2.704772e-01 -5.226128e-01 2.311325e-01 -1.906737e-01 -3.687494e-01 -1.846426e-01 9.721825e-02 -2.226646e-01 -7.349725e-02 -7.021737e-02 -7.725386e-02 -2.934989e-01
<VARIANCE> 39
 6.693813e+01 3.890525e+01 7.172746e+01 4.729898e+01 4.255278e+01 6.474974e+01 6.311787e+01 6.584563e+01 5.935173e+01 3.833865e+01 3.937675e+01 3.407182e+01 2.247480e+01 7.270607e+00 3.549441e+00 5.518499e+00 4.567140e+00 3.326829e+00 6.248698e+00 4.320079e+00 4.229959e+00 5.373147e+00 4.182728e+00 3.007211e+00 2.687284e+00 3.340775e+00 7.498865e-01 6.259258e-01 6.185574e-01 6.411979e-01 5.575307e-01 9.379135e-01 1.045833e+00 8.370053e-01 8.599388e-01 6.395225e-01 4.846397e-01 5.015538e-01 4.306429e-01
<GCONST> 1.354773e+02
<TRANSP> 5
 0.000000e+00 1.000000e+00 0.000000e+00 0.000000e+00 0.000000e+00
 0.000000e+00 5.180778e-01 4.819222e-01 0.000000e+00 0.000000e+00
 0.000000e+00 0.000000e+00 4.277996e-01 5.722004e-01 0.000000e+00
 0.000000e+00 0.000000e+00 0.000000e+00 5.231194e-01 4.768806e-01
 0.000000e+00 0.000000e+00 0.000000e+00 0.000000e+00 0.000000e+00
<ENDHMM>
~h "e"
<BEGINHMM>
<NUMSTATES> 5
<STATE> 2
<MEAN> 39
 -5.735839e+00 -5.406250e+00 2.379331e+00 4.068471e+00 -1.989114e+00 -1.635639e+01 -1.274482e+01 -1.155579e+01 -4.665205e+00 -3.680254e+00 -3.927170e+00 -2.809978e+00 7.864503e+01 1.070424e+00 -1.290603e+00 -8.514225e-02 4.900145e-01 -1.103120e+00 -2.532300e+00 -1.260762e+00 -8.093255e-01 2.103104e-01 7.012223e-02 -6.728861e-01 1.997945e-01 1.548341e+00 -5.372795e-01 2.885138e-01 5.013449e-02 -2.889030e-01 1.416965e-01 6.762396e-01 5.547407e-01 4.105363e-01 1.018822e-01 -4.914662e-02 1.869456e-01 8.717982e-02 -5.374522e-01
<VARIANCE> 39
 1.505246e+01 2.448881e+01 3.391856e+01 3.962877e+01 6.805845e+01 6.683163e+01 4.116971e+01 4.718657e+01 9.003909e+01 5.038233e+01 3.864009e+01 5.373810e+01 3.083100e+01 3.537851e+00 1.862135e+00 2.795192e+00 3.213384e+00 4.039913e+00 5.331624e+00 3.790539e+00 4.233527e+00 5.757729e+00 4.006190e+00 3.235362e+00 3.145753e+00 2.320826e+00 6.350312e-01 4.505303e-01 3.778117e-01 5.258900e-01 6.291440e-01 9.249884e-01 6.148381e-01 6.341127e-01 9.387960e-01 6.502709e-01 5.606925e-01 4.550572e-01 4.706218e-01
<GCONST> 1.295342e+02
<STATE> 3
<MEAN> 39
 -6.002204e+00 -6.965899e+00 3.564791e+00 3.851789e+00 -4.705863e+00 -2.054409e+01 -1.352890e+01 -1.057729e+01 -4.021334e+00 -3.506392e+00 -4.981423e+00 -2.207409e+00 8.053742e+01 -4.798139e-03 4.020358e-02 1.701645e-03 -6.125184e-03 2.675602e-02 -9.826519e-03 -3.981250e-02 -1.486933e-02 -4.181697e-02 -6.424899e-02 2.485648e-02 -4.981068e-02 -1.011468e-01 -8.809374e-02 3.284015e-01 3.463857e-02 -1.334411e-02 3.315484e-01 5.663222e-01 2.036454e-01 6.073322e-02 -1.174703e-01 -6.536728e-02 1.014964e-01 -1.236154e-01 -3.681450e-01
<VARIANCE> 39
 1.071001e+01 2.058848e+01 3.241996e+01 3.710256e+01 7.850941e+01 6.325761e+01 3.744183e+01 3.166664e+01 8.340044e+01 5.226515e+01 3.648666e+01 6.891114e+01 1.930353e+01 3.900081e-01 7.250472e-01 1.097415e+00 1.285540e+00 1.409757e+00 1.773192e+00 1.520293e+00 1.660286e+00 1.502857e+00 1.544224e+00 1.223373e+00 1.177693e+00 4.722771e-01 2.031530e-01 2.266811e-01 2.001087e-01 2.802855e-01 3.408061e-01 5.213272e-01 3.515797e-01 3.692443e-01 4.886549e-01 3.407567e-01 3.333955e-01 2.879584e-01 1.768913e-01
<GCONST> 1.047075e+02
<STATE> 4
<MEAN> 39
 -5.623479e+00 -4.840344e+00 2.576368e+00 4.270809e+00 -1.294366e+00 -1.613313e+01 -1.251143e+01 -1.174548e+01 -5.424281e+00 -4.425654e+00 -4.457738e+00 -4.120788e+00 7.728223e+01 -3.403891e-01 1.425301e+00 5.092204e-01 3.308678e-02 1.150265e+00 2.071095e+00 6.204937e-01 3.824451e-01 -3.146984e-01 -4.142924e-01 3.014642e-01 -4.464378e-01 -1.544189e+00 -3.844099e-01 2.490563e-01 1.812098e-01 -1.644207e-01 3.153423e-02 3.463120e-01 2.121199e-01 2.771033e-01 7.309020e-02 -6.197371e-02 6.651439e-02 8.863966e-02 -1.954151e-01
<VARIANCE> 39
 1.798125e+01 2.352351e+01 3.833867e+01 5.228626e+01 6.070956e+01 6.683241e+01 4.335886e+01 4.436836e+01 9.790520e+01 5.670715e+01 4.499426e+01 6.667918e+01 2.711563e+01 2.109829e+00 2.096164e+00 2.182014e+00 3.294509e+00 3.476106e+00 4.647586e+00 3.038524e+00 3.603645e+00 4.640744e+00 2.970097e+00 3.043547e+00 3.045253e+00 1.874201e+00 4.329378e-01 3.822713e-01 3.736453e-01 5.263466e-01 5.878044e-01 9.634034e-01 5.554106e-01 5.807180e-01 7.681512e-01 5.814891e-01 5.013064e-01 5.034244e-01 3.545280e-01
<GCONST> 1.268946e+02
<TRANSP> 5
 0.000000e+00 1.000000e+00 0.000000e+00 0.000000e+00 0.000000e+00
 0.000000e+00 4.461311e-01 5.538689e-01 0.000000e+00 0.000000e+00
 0.000000e+00 0.000000e+00 7.418649e-01 2.581351e-01 0.000000e+00
 0.000000e+00 0.000000e+00 0.000000e+00 5.170331e-01 4.829669e-01
 0.000000e+00 0.000000e+00 0.000000e+00 0.000000e+00 0.000000e+00
<ENDHMM>
~h "f"
<BEGINHMM>
<NUMSTATES> 5
<STATE> 2
<MEAN> 39
 -2.050608e+01 2.825680e-02 -6.245813e-01 1.069231e+00 6.849284e-01 -2.946851e+00 -7.149154e+00 -7.702115e+00 -3.178525e+00 -3.222773e+00 -1.618980e+00 -2.538933e+00 7.197351e+01 -2.990888e+00 -1.106714e+00 -1.455781e+00 -5.830017e-01 8.527584e-02 6.724886e-01 3.341280e-01 2.270046e-01 7.227623e-01 7.792889e-01 8.267424e-01 4.570435e-01 4.669999e-02 5.411161e-01 -3.205901e-01 -6.388998e-02 -1.823967e-01 -2.773344e-01 -3.785159e-01 -1.914425e-02 1.651722e-02 -6.865165e-02 -1.161428e-01 -5.876111e-02 1.138747e-01 1.070467e-01
<VARIANCE> 39
 3.888993e+01 2.440182e+01 3.204594e+01 3.576081e+01 5.862650e+01 3.114387e+01 6.889326e+01 3.480420e+01 2.918196e+01 3.229423e+01 2.433538e+01 2.396886e+01 2.834925e+01 3.951427e+00 2.243067e+00 2.298971e+00 3.402675e+00 3.185503e+00 3.111215e+00 3.218190e+00 2.964475e+00 3.189828e+00 3.822644e+00 2.793015e+00 2.882392e+00 9.325436e-01 5.418841e-01 5.122478e-01 4.025311e-01 4.387659e-01 6.227200e-01 5.360573e-01 5.515857e-01 5.903915e-01 6.099375e-01 5.586184e-01 4.351379e-01 4.504903e-01 1.489023e-01
<GCONST> 1.208902e+02
<STATE> 3
<MEAN> 39
 -2.446756e+01 -4.508618e+00 -4.606422e+00 -1.439293e+00 1.405687e+00 -2.791758e+00 -3.400740e+00 -4.355032e+00 -4.640188e-01 -8.760498e-01 1.063895e+00 -3.225826e-01 7.001933e+01 -3.381956e-02 -3.718718e-01 -2.071834e-01 -1.361302e-01 1.418560e-01 1.533877e-01 3.169324e-01 2.847955e-01 2.639315e-01 2.238394e-01 2.261321e-01 1.570789e-01 -7.261647e-02 6.095679e-01 2.046384e-01 2.741851e-01 7.922233e-02 -3.019352e-02 -6.500114e-02 -6.168984e-02 -7.614927e-02 -1.466037e-01 -1.264486e-01 -1.499275e-01 -9.407345e-02 -1.624529e-02
<VARIANCE> 39
 2.629814e+01 1.639710e+01 2.179821e+01 3.253106e+01 5.630145e+01 2.935166e+01 5.365163e+01 2.926817e+01 3.007527e+01 2.386251e+01 2.349500e+01 1.503360e+01 7.085972e+01 1.261710e+00 9.016920e-01 8.826221e-01 1.028478e+00 1.126488e+00 1.242276e+00 1.352938e+00 1.477709e+00 1.440154e+00 1.463346e+00 1.328595e+00 1.218729e+00 8.927794e-01 4.606651e-01 2.398424e-01 2.326415e-01 2.684861e-01 2.779374e-01 2.836516e-01 3.095529e-01 3.118646e-01 3.367056e-01 3.598918e-01 3.192950e-01 2.876540e-01 1.595814e-01
<GCONST> 1.017681e+02
<STATE> 4
<MEAN> 39
 -1.764260e+01 -3.743387e+00 -3.311816e+00 -1.610878e+00 5.028031e-01 -2.898929e+00 -4.018047e+00 -5.003028e+00 -1.158635e+00 -1.442610e+00 4.732735e-01 -8.928531e-01 7.173684e+01 4.550037e+00 8.696948e-01 9.125543e-01 -2.608099e-01 -1.168504e+00 -1.486706e+00 -5.791791e-01 -7.677504e-01 -1.176641e+00 -8.973715e-01 -8.966566e-01 -8.029573e-03 6.705091e-01 4.481947e-01 -7.512104e-03 1.282997e-02 -1.293250e-01 -4.533163e-01 -5.280882e-01 -1.915002e-01 -2.908135e-01 -2.751070e-01 -2.037056e-01 -2.261689e-01 8.897375e-02 2.798105e-01
<VARIANCE> 39
 7.885928e+01 2.656664e+01 2.961956e+01 3.692563e+01 5.333829e+01 3.659381e+01 6.774773e+01 3.572147e+01 3.526033e+01 3.228780e+01 2.744670e+01 2.308914e+01 3.647503e+01 6.997335e+00 3.194299e+00 2.644837e+00 6.025214e+00 5.516698e+00 4.496413e+00 5.513308e+00 3.522259e+00 3.909508e+00 4.239619e+00 3.544756e+00 3.270753e+00 3.053661e+00 1.665533e+00 6.419315e-01 4.348015e-01 6.594104e-01 7.343383e-01 6.203184e-01 7.951633e-01 5.431415e-01 7.700517e-01 7.395422e-01 5.901648e-01 4.947275e-01 3.321226e-01
<GCONST> 1.314985e+02
<TRANSP> 5
 0.000000e+00 1.000000e+00 0.000000e+00 0.000000e+00 0.000000e+00
 0.000000e+00 6.800382e-01 3.199618e-01 0.000000e+00 0.000000e+00
 0.000000e+00 0.000000e+00 8.307900e-01 1.692100e-01 0.000000e+00
 0.000000e+00 0.000000e+00 0.000000e+00 6.966180e-01 3.033820e-01
 0.000000e+00 0.000000e+00 0.000000e+00 0.000000e+00 0.000000e+00
<ENDHMM>
~h "g"
<BEGINHMM>
<NUMSTATES> 5
<STATE> 2
<MEAN> 39
 -3.564769e+00 5.565793e+00 3.982063e+00 6.143305e+00 -1.772124e+00 -7.240759e+00 -6.832731e+00 -4.770918e+00 -5.706800e+00 -8.600236e+00 -4.131999e+00 -3.452188e+00 6.574292e+01 -2.950238e-01 7.130872e-01 -2.586358e-01 -1.207762e-01 3.176208e-01 1.213944e+00 1.762736e-01 3.287016e-01 3.365896e-01 4.876381e-02 4.740952e-01 -2.409695e-03 -6.422852e-01 -1.500769e-01 -7.537757e-01 -2.028056e-01 -6.131449e-01 -1.374256e-01 -5.333185e-01 2.646852e-02 -4.337597e-01 -1.736339e-01 1.370568e-01 -6.284046e-02 6.411970e-02 1.005432e+00
<VARIANCE> 39
 1.609200e+01 2.783873e+01 3.081096e+01 5.703603e+01 5.721435e+01 6.913878e+01 4.660920e+01 4.946986e+01 5.507212e+01 4.959012e+01 4.295101e+01 6.224697e+01 2.040502e+01 1.416437e+00 3.236128e+00 2.573406e+00 4.909609e+00 3.396106e+00 5.208790e+00 4.131411e+00 3.952318e+00 3.705917e+00 3.540322e+00 3.439498e+00 2.401325e+00 4.309631e+00 2.885419e-01 3.283142e-01 3.875915e-01 6.509599e-01 5.733297e-01 8.851254e-01 6.042095e-01 7.037688e-01 6.609417e-01 7.351663e-01 6.570350e-01 4.922588e-01 4.386167e-01
<GCONST> 1.280283e+02
<STATE> 3
<MEAN> 39
 -6.267479e+00 2.104236e+00 8.020031e-01 2.681898e+00 8.685541e-02 -5.795681e+00 -7.643358e+00 -7.669787e+00 -4.483128e+00 -8.453023e+00 -2.433110e+00 -2.466050e+00 7.143195e+01 3.304604e-02 -1.583519e+00 -4.070912e-01 -1.676409e+00 -4.325056e-01 -2.020983e+00 3.618827e-02 -1.098957e+00 -3.995687e-01 8.105022e-01 -4.281404e-02 3.874571e-01 2.550487e+00 3.868579e-01 -2.389792e-01 7.979561e-02 -1.438941e-01 -3.247495e-01 -7.222379e-01 1.567071e-01 -1.277557e-01 -1.914521e-01 3.394584e-01 -5.176724e-02 1.578998e-01 2.077827e-01
<VARIANCE> 39
 1.780541e+01 3.837420e+01 3.713922e+01 6.049349e+01 6.881789e+01 1.062740e+02 6.329857e+01 5.324765e+01 5.655750e+01 5.166053e+01 4.055835e+01 5.266690e+01 3.549273e+01 2.175974e+00 2.974063e+00 2.691710e+00 4.592800e+00 4.246518e+00 9.307718e+00 5.318154e+00 3.631394e+00 5.177167e+00 6.162858e+00 4.161585e+00 3.334375e+00 2.957211e+00 2.645493e-01 4.772383e-01 5.079534e-01 6.009622e-01 5.986557e-01 1.826819e+00 1.021611e+00 6.738972e-01 7.175193e-01 7.042482e-01 6.753072e-01 5.953967e-01 5.773556e-01
<GCONST> 1.346717e+02
<STATE> 4
<MEAN> 39
 -3.774061e+00 6.376736e-01 8.923820e-01 -1.858303e+00 -4.358286e+00 -1.184257e+01 -6.644780e+00 -8.883357e+00 -4.752268e+00 -6.553860e+00 -3.729571e+00 -1.244245e+00 7.430029e+01 4.885494e-01 -1.217888e+00 -5.887470e-01 -1.321466e+00 -4.261810e-01 -1.184946e+00 3.876900e-01 -8.929132e-01 -4.418986e-01 9.113098e-01 1.209485e-01 2.237531e-01 1.528119e+00 3.709393e-02 1.333251e-01 -5.491912e-02 3.309667e-01 1.026559e-01 5.506215e-01 4.048727e-03 8.945040e-02 4.729484e-02 -5.222731e-02 1.319574e-01 -4.997325e-02 -3.878002e-01
<VARIANCE> 39
 1.880107e+01 5.184197e+01 2.969813e+01 6.253040e+01 6.730047e+01 8.898470e+01 6.462987e+01 5.235956e+01 6.998042e+01 9.899738e+01 4.815977e+01 6.456306e+01 5.788415e+01 1.385625e+00 1.767414e+00 1.995711e+00 3.320122e+00 3.055482e+00 5.316872e+00 3.766495e+00 3.688280e+00 4.899773e+00 4.263820e+00 3.121122e+00 3.572426e+00 1.570746e+00 2.038129e-01 4.281393e-01 3.778845e-01 5.328009e-01 4.739735e-01 1.422999e+00 6.368624e-01 5.852546e-01 7.237590e-01 7.572462e-01 6.522088e-01 6.267075e-01 4.436757e-01
<GCONST> 1.302315e+02
<TRANSP> 5
 0.000000e+00 1.000000e+00 0.000000e+00 0.000000e+00 0.000000e+00
 0.000000e+00 6.870042e-01 3.129957e-01 0.000000e+00 0.000000e+00
 0.000000e+00 0.000000e+00 4.030097e-01 5.969903e-01 0.000000e+00
 0.000000e+00 0.000000e+00 0.000000e+00 3.700388e-01 6.299611e-01
 0.000000e+00 0.000000e+00 0.000000e+00 0.000000e+00 0.000000e+00
<ENDHMM>
~h "i"
<BEGINHMM>
<NUMSTATES> 5
<STATE> 2
<MEAN> 39
 -1.434481e+01 -2.035174e+00 1.112624e+01 5.497362e+00 -2.565618e-01 -8.854785e+00 -6.820776e+00 -7.179994e+00 -4.176079e+00 -6.333322e+00 -4.749953e+00 -3.709510e+00 7.272137e+01 2.052126e+00 -2.307934e-01 8.061150e-01 1.554024e+00 -4.938953e-01 -2.137997e+00 -1.371557e+00 -9.144886e-01 -9.815335e-01 -1.318532e+00 -1.181865e+00 -4.390801e-01 1.081889e+00 1.930670e-01 -5.748291e-02 -4.321674e-01 -1.389798e-01 -1.105831e-01 -1.208837e-03 1.921215e-02 5.230211e-02 3.224246e-03 6.377044e-02 1.054561e-01 6.137669e-02 -8.449668e-02
<VARIANCE> 39
 5.655417e+01 3.941416e+01 6.156187e+01 4.459933e+01 6.361095e+01 7.494239e+01 6.075732e+01 5.457697e+01 5.273408e+01 4.386035e+01 3.211975e+01 3.718322e+01 6.950276e+01 6.897697e+00 3.759023e+00 5.021807e+00 3.855189e+00 4.372937e+00 5.481463e+00 4.368078e+00 4.091077e+00 4.674189e+00 4.150526e+00 3.135176e+00 3.039605e+00 3.255884e+00 1.030059e+00 5.612000e-01 6.939208e-01 6.396856e-01 5.764250e-01 9.484123e-01 7.532482e-01 5.942239e-01 7.141662e-01 5.944551e-01 5.108457e-01 4.049959e-01 5.075580e-01
<GCONST> 1.357535e+02
<STATE> 3
<MEAN> 39
 -8.854237e+00 -4.170827e+00 1.179724e+01 9.825739e+00 -2.772956e+00 -1.552268e+01 -9.787476e+00 -9.767900e+00 -6.339026e+00 -9.223069e+00 -8.235951e+00 -4.471973e+00 7.695445e+01 1.245031e+00 -2.774115e-01 -6.326029e-01 4.164843e-01 -4.886687e-01 -9.413536e-01 -5.572801e-01 -2.116859e-01 -4.548308e-01 -3.735054e-01 -2.333774e-01 -9.094157e-02 1.874942e-01 -4.756402e-01 2.910903e-01 -3.495687e-01 -6.229404e-01 2.899456e-01 7.198417e-01 3.372073e-01 2.951058e-01 2.413848e-01 4.035065e-01 5.257760e-01 1.066429e-01 -3.756801e-01
<VARIANCE> 39
 1.842842e+01 2.384767e+01 4.573603e+01 4.601826e+01 7.756821e+01 5.300062e+01 3.922437e+01 4.316773e+01 5.716147e+01 4.200754e+01 3.273006e+01 5.675994e+01 2.072137e+01 3.328139e+00 1.927935e+00 3.754739e+00 2.331441e+00 3.071568e+00 3.811446e+00 3.053299e+00 3.034959e+00 3.587173e+00 2.699828e+00 2.241213e+00 2.107605e+00 1.493802e+00 6.133258e-01 3.792308e-01 4.381107e-01 4.810064e-01 6.470302e-01 7.444139e-01 6.499115e-01 5.469157e-01 6.673127e-01 5.705036e-01 4.818127e-01 4.200060e-01 2.687449e-01
<GCONST> 1.237941e+02
<STATE> 4
<MEAN> 39
 -8.480547e+00 -3.667789e+00 1.081474e+01 7.697783e+00 -3.234975e+00 -1.658863e+01 -1.084119e+01 -7.707546e+00 -8.189120e+00 -9.456966e+00 -6.872380e+00 -5.881920e+00 7.457241e+01 1.273097e-01 2.629777e-01 -5.687866e-01 -4.132642e-01 1.825707e-01 4.002793e-01 -8.234087e-03 7.284658e-02 6.735974e-02 2.687452e-01 3.368192e-01 9.418879e-02 -3.013528e-01 -1.278210e-01 9.035217e-02 -4.084986e-02 -1.442892e-01 5.883496e-02 2.361303e-01 1.715823e-01 3.603685e-02 6.331815e-02 1.011055e-01 8.715609e-02 6.095224e-02 -1.047717e-01
<VARIANCE> 39
 1.501270e+01 3.332452e+01 5.377273e+01 4.772776e+01 9.215221e+01 7.716359e+01 4.322988e+01 5.909722e+01 7.030266e+01 5.261961e+01 3.599429e+01 7.648680e+01 3.945108e+01 9.482380e-01 1.155563e+00 1.697639e+00 1.577271e+00 1.738029e+00 2.815667e+00 1.800528e+00 1.933643e+00 2.080437e+00 1.901373e+00 1.574813e+00 1.371486e+00 1.159021e+00 2.282151e-01 1.860362e-01 2.385949e-01 2.680307e-01 2.849797e-01 4.471992e-01 3.891044e-01 3.380154e-01 3.957511e-01 3.211716e-01 2.860311e-01 2.509720e-01 1.217150e-01
<GCONST> 1.116733e+02
<TRANSP> 5
 0.000000e+00 1.000000e+00 0.000000e+00 0.000000e+00 0.000000e+00
 0.000000e+00 5.082530e-01 4.917470e-01 0.000000e+00 0.000000e+00
 0.000000e+00 0.000000e+00 5.303929e-01 4.696070e-01 0.000000e+00
 0.000000e+00 0.000000e+00 0.000000e+00 7.964674e-01 2.035326e-01
 0.000000e+00 0.000000e+00 0.000000e+00 0.000000e+00 0.000000e+00
<ENDHMM>
~h "k"
<BEGINHMM>
<NUMSTATES> 5
<STATE> 2
<MEAN> 39
 -1.093310e+01 1.482871e+00 -1.551763e+00 -1.369491e+00 -3.431324e+00 -3.888486e+00 -6.350624e+00 -4.947274e+00 -3.102532e+00 -5.017004e+00 -1.124402e+00 -1.271094e+00 6.097564e+01 -8.062341e-01 -3.618320e-01 -8.806834e-01 -6.827345e-01 -5.790624e-01 5.716280e-01 6.680763e-02 3.672470e-01 4.335910e-01 3.380267e-01 4.453571e-01 3.754996e-02 -9.283326e-01 -6.569701e-02 -3.911390e-01 -1.165614e-01 -2.925800e-01 -6.131315e-02 -5.304825e-02 9.988340e-02 -5.618946e-02 7.445990e-02 2.815148e-02 8.775821e-02 2.219081e-02 9.048042e-01
<VARIANCE> 39
 3.166281e+01 2.817262e+01 4.278811e+01 4.424238e+01 4.765135e+01 5.385780e+01 5.963036e+01 4.270472e+01 4.241656e+01 5.299855e+01 3.555460e+01 3.425075e+01 4.081041e+01 2.053494e+00 3.057283e+00 3.203393e+00 3.487715e+00 3.864250e+00 4.892538e+00 3.752154e+00 3.221127e+00 3.857473e+00 3.740163e+00 2.975666e+00 2.668517e+00 5.808790e+00 3.199787e-01 4.966243e-01 5.907963e-01 6.684952e-01 7.246883e-01 9.314458e-01 7.171502e-01 6.321785e-01 7.821918e-01 6.769061e-01 5.987698e-01 5.005825e-01 7.978617e-01
<GCONST> 1.304044e+02
<STATE> 3
<MEAN> 39
 -1.478085e+01 -3.415002e+00 -6.549703e+00 -6.717766e+00 -5.648477e+00 -1.043712e-01 -5.278225e+00 -3.414259e+00 4.772502e-01 -4.016320e+00 2.136282e+00 -9.635782e-01 6.652760e+01 -6.908634e-01 -7.575540e-01 -2.516109e-01 -1.247597e+00 4.206131e-02 5.653164e-01 5.977060e-01 3.693397e-01 4.650903e-01 2.069650e-01 6.230326e-01 7.355590e-02 2.464760e+00 6.540662e-01 4.765940e-01 8.201880e-01 5.115237e-01 2.513784e-01 -7.430614e-01 -8.189515e-02 -2.616154e-01 -5.698173e-01 -1.855674e-01 -5.272312e-01 -9.752300e-02 1.685950e-01
<VARIANCE> 39
 2.556036e+01 4.613240e+01 4.943061e+01 6.339778e+01 6.542120e+01 5.471137e+01 6.947683e+01 4.796819e+01 5.868977e+01 4.983983e+01 3.547273e+01 2.862609e+01 4.142800e+01 3.584548e+00 3.615610e+00 5.255179e+00 6.598197e+00 5.892978e+00 5.753952e+00 4.935441e+00 4.185528e+00 5.078660e+00 3.971130e+00 3.758291e+00 2.946610e+00 4.009614e+00 4.954265e-01 6.710625e-01 6.520704e-01 1.110401e+00 1.018526e+00 1.145316e+00 9.410224e-01 7.409592e-01 1.031025e+00 7.833798e-01 6.488252e-01 5.509026e-01 8.728098e-01
<GCONST> 1.381703e+02
<STATE> 4
<MEAN> 39
 -1.286407e+01 -2.059581e+00 -1.339282e+00 -6.100309e+00 -3.317739e+00 -4.110207e+00 -4.063014e+00 -3.857076e+00 -2.191197e+00 -3.642628e+00 7.246140e-01 -1.899173e+00 7.175150e+01 2.466429e+00 6.366086e-01 1.488788e+00 9.093820e-01 -3.004023e-01 -2.409784e+00 -4.457418e-01 -9.717759e-01 -1.484594e+00 -5.699805e-01 -1.428576e+00 -2.962413e-01 1.481166e+00 5.993792e-01 -1.142500e-02 -1.046288e-01 2.596112e-01 -2.750296e-01 -5.402369e-01 -1.868268e-01 -3.165639e-01 -2.558587e-01 -1.308515e-01 -2.940636e-01 2.430668e-02 -1.931448e-01
<VARIANCE> 39
 5.655819e+01 3.892784e+01 5.991816e+01 5.640343e+01 5.354847e+01 7.732297e+01 6.838662e+01 5.395166e+01 5.643123e+01 4.978079e+01 4.274958e+01 3.413794e+01 3.407226e+01 3.719637e+00 2.599039e+00 3.835235e+00 5.329192e+00 4.850341e+00 6.650918e+00 5.082089e+00 4.511121e+00 5.119051e+00 5.023677e+00 4.306498e+00 3.499946e+00 2.635571e+00 8.966082e-01 5.940214e-01 8.375781e-01 1.245008e+00 8.443426e-01 1.467876e+00 1.012851e+00 8.490661e-01 9.991713e-01 8.614334e-01 9.519722e-01 6.558143e-01 4.506944e-01
<GCONST> 1.396755e+02
<TRANSP> 5
 0.000000e+00 1.000000e+00 0.000000e+00 0.000000e+00 0.000000e+00
 0.000000e+00 7.612735e-01 2.387265e-01 0.000000e+00 0.000000e+00
 0.000000e+00 0.000000e+00 5.847232e-01 4.152769e-01 0.000000e+00
 0.000000e+00 0.000000e+00 0.000000e+00 6.223109e-01 3.776890e-01
 0.000000e+00 0.000000e+00 0.000000e+00 0.000000e+00 0.000000e+00
<ENDHMM>
~h "l"
<BEGINHMM>
<NUMSTATES> 5
<STATE> 2
<MEAN> 39
 -4.910762e+00 -4.559060e+00 7.063125e+00 -9.198187e-01 -9.703822e+00 -1.122103e+01 -9.572890e+00 -1.272290e+01 -3.042697e+00 -1.254359e+01 -7.002569e+00 1.105613e+00 7.311449e+01 -2.465213e-02 1.267935e-01 9.301417e-02 9.021994e-02 -2.304533e-01 1.178200e-01 1.256416e-01 3.536046e-01 -9.616190e-02 -2.187135e-01 -1.165963e-01 -2.948381e-02 -2.235049e-01 -6.963263e-02 -5.528184e-02 -1.890857e-01 -7.004690e-02 -1.567981e-02 -2.194441e-01 -7.919210e-02 1.323334e-01 1.470769e-01 1.349901e-01 6.725876e-02 5.081891e-02 1.411709e-01
<VARIANCE> 39
 2.283240e+01 3.057797e+01 8.136393e+01 8.022129e+01 7.424434e+01 6.616344e+01 6.711205e+01 5.573348e+01 9.061386e+01 9.440434e+01 5.796866e+01 6.448965e+01 2.990463e+01 7.841870e-01 1.246001e+00 1.963146e+00 1.798311e+00 1.902370e+00 3.216799e+00 2.849707e+00 3.373999e+00 3.642544e+00 3.090048e+00 2.590936e+00 2.617296e+00 1.318651e+00 1.442083e-01 2.186500e-01 3.354000e-01 3.221694e-01 3.814175e-01 6.805507e-01 5.539255e-01 6.282849e-01 7.962373e-01 6.306247e-01 5.303001e-01 5.295839e-01 2.192667e-01
<GCONST> 1.227767e+02
<STATE> 3
<MEAN> 39
 -5.546076e+00 -4.930399e+00 5.731819e+00 2.952495e+00 -5.028108e+00 -1.561505e+01 -7.147580e+00 -6.726739e+00 -1.018995e+01 -8.898923e+00 -5.101402e+00 -5.695438e+00 7.518507e+01 -7.060355e-02 1.270098e-01 -6.904890e-02 1.562371e-02 -6.128165e-02 -1.744767e-01 -2.566164e-02 3.500323e-01 1.847342e-01 9.316362e-02 4.546881e-02 -2.440251e-03 -2.457342e-02 -3.195177e-02 -3.547543e-02 -1.203110e-01 -1.129110e-01 8.778320e-02 -5.972161e-02 -7.326712e-02 -6.457902e-02 1.122265e-01 1.156269e-01 7.321934e-02 5.077247e-02 8.501752e-02
<VARIANCE> 39
 2.774527e+01 3.154356e+01 6.312018e+01 9.138667e+01 7.238711e+01 1.062413e+02 6.280428e+01 5.171304e+01 8.928538e+01 5.034727e+01 5.104413e+01 1.174719e+02 3.037840e+01 3.771799e-01 7.847009e-01 1.076473e+00 1.392795e+00 1.299497e+00 2.393877e+00 1.959878e+00 1.817114e+00 2.206108e+00 1.766209e+00 1.573543e+00 1.492964e+00 7.726107e-01 6.994593e-02 1.403260e-01 1.987414e-01 2.675043e-01 2.540870e-01 4.868608e-01 3.811395e-01 3.753296e-01 4.020922e-01 3.711880e-01 2.995592e-01 2.693493e-01 1.308197e-01
<GCONST> 1.101715e+02
<STATE> 4
<MEAN> 39
 -1.112961e+01 -1.890356e+00 9.864565e-01 1.921050e+00 -7.487719e-01 -6.050285e+00 -5.216121e+00 -3.681668e+00 -3.386576e+00 -3.762429e+00 -1.525636e+00 -1.943477e+00 6.462698e+01 -1.265477e-01 1.828313e-02 -1.364810e-01 -3.970699e-02 4.685511e-02 2.473556e-02 3.298558e-02 1.033173e-01 1.096760e-01 1.583670e-01 5.093978e-02 3.923663e-02 -1.004110e-01 3.650791e-03 -2.011640e-03 -1.525111e-03 -1.732107e-02 2.181474e-02 -6.771841e-03 -1.012229e-02 -1.907678e-02 -8.323362e-03 9.731296e-03 7.343735e-03 -4.472498e-03 1.824196e-02
<VARIANCE> 39
 4.623944e+01 3.810725e+01 5.247168e+01 4.456939e+01 4.266859e+01 8.194449e+01 4.661766e+01 4.206365e+01 5.349401e+01 5.026359e+01 2.765456e+01 3.746385e+01 9.747123e+01 3.408479e-01 6.805176e-01 7.632837e-01 9.448676e-01 9.948056e-01 1.530052e+00 1.364630e+00 1.359767e+00 1.550019e+00 1.543098e+00 1.270476e+00 1.116271e+00 5.474004e-01 5.113714e-02 1.103365e-01 1.140255e-01 1.541995e-01 1.621759e-01 2.313506e-01 2.313553e-01 2.387594e-01 2.552515e-01 2.555444e-01 2.201035e-01 1.963877e-01 6.451000e-02
<GCONST> 9.792870e+01
<TRANSP> 5
 0.000000e+00 1.000000e+00 0.000000e+00 0.000000e+00 0.000000e+00
 0.000000e+00 6.980845e-01 3.019155e-01 0.000000e+00 0.000000e+00
 0.000000e+00 0.000000e+00 6.715841e-01 3.284159e-01 0.000000e+00
 0.000000e+00 0.000000e+00 0.000000e+00 8.368699e-01 1.631301e-01
 0.000000e+00 0.000000e+00 0.000000e+00 0.000000e+00 0.000000e+00
<ENDHMM>
~h "m"
<BEGINHMM>
<NUMSTATES> 5
<STATE> 2
<MEAN> 39
 -1.626674e+00 2.592204e+00 1.933894e+00 1.157242e+00 -8.104977e-02 -9.486440e+00 -1.876730e+00 -3.920088e+00 -1.134370e+01 -1.231188e+01 -2.952481e+00 -3.935716e+00 7.077435e+01 6.330575e-01 6.061364e-01 5.717226e-01 8.725846e-01 1.053923e+00 -8.176244e-01 6.851861e-01 1.007437e+00 -1.409684e+00 -1.678077e+00 -3.970947e-01 -7.508640e-01 -4.475892e-01 -2.686651e-01 -3.942074e-01 -2.015394e-01 -2.295856e-01 -3.450159e-01 1.647831e-02 -1.693799e-01 -3.029088e-01 4.541026e-01 5.747320e-01 -3.597400e-02 1.733675e-01 4.174981e-01
<VARIANCE> 39
 1.624281e+01 2.327214e+01 3.353631e+01 3.253443e+01 4.578756e+01 6.737548e+01 5.104195e+01 5.642531e+01 4.926725e+01 5.339359e+01 3.840170e+01 6.320975e+01 2.840316e+01 2.557283e+00 2.407503e+00 2.836680e+00 4.059496e+00 5.187732e+00 6.932715e+00 4.794026e+00 4.136890e+00 4.232438e+00 5.102020e+00 3.975422e+00 3.783718e+00 2.430584e+00 3.160229e-01 3.321342e-01 4.524752e-01 5.476279e-01 6.383651e-01 7.975063e-01 5.914344e-01 6.171911e-01 6.964074e-01 8.179519e-01 5.696999e-01 4.809867e-01 2.003120e-01
<GCONST> 1.283279e+02
<STATE> 3
<MEAN> 39
 -5.609774e-01 1.942359e+00 2.003854e+00 2.314083e+00 3.809356e-01 -9.183275e+00 -1.633276e+00 -2.272393e+00 -1.221733e+01 -1.101975e+01 -5.222412e+00 -8.644131e+00 7.112874e+01 1.310958e-01 -3.495811e-01 -3.778230e-01 -2.949290e-01 -3.362036e-01 8.116389e-02 -1.087250e-01 -1.570849e-01 3.730337e-01 4.608563e-01 -1.035703e-01 9.498282e-02 4.374739e-01 -7.385972e-02 -3.003662e-01 -2.814147e-01 -4.303405e-01 -4.657961e-01 2.937326e-02 -1.337444e-01 -2.303225e-01 4.380662e-01 4.617526e-01 1.823412e-01 3.116284e-01 3.404984e-01
<VARIANCE> 39
 8.424474e+00 2.006933e+01 2.612079e+01 2.938013e+01 4.538700e+01 7.942916e+01 5.054303e+01 5.693300e+01 5.495497e+01 6.800559e+01 3.805841e+01 1.050023e+02 1.426237e+01 4.785093e-01 8.628488e-01 1.245980e+00 2.038905e+00 2.110905e+00 2.936051e+00 2.015523e+00 1.644555e+00 1.962346e+00 1.942547e+00 1.853199e+00 1.967716e+00 8.181444e-01 1.177569e-01 2.012308e-01 2.739597e-01 4.322512e-01 5.940492e-01 9.698281e-01 5.195205e-01 4.611491e-01 6.484674e-01 7.718883e-01 4.773570e-01 5.456462e-01 1.098367e-01
<GCONST> 1.121813e+02
<STATE> 4
<MEAN> 39
 -6.727180e-01 -1.843491e+00 -1.962976e+00 -1.851338e+00 -4.189597e+00 -9.928160e+00 -2.548408e+00 -5.104583e+00 -8.359846e+00 -8.422297e+00 -4.058810e+00 -3.443764e+00 7.568412e+01 -3.006104e-01 -1.590875e+00 -8.757885e-01 -1.082279e+00 -1.754124e+00 -2.309456e-02 -4.874776e-01 -5.694826e-01 1.825040e+00 1.805241e+00 3.749481e-01 7.759612e-01 1.615188e+00 -1.971245e-01 3.192811e-02 2.875564e-01 2.217061e-01 1.661685e-01 -6.669932e-02 -1.481095e-02 8.970136e-02 2.724424e-02 -6.923871e-02 5.521730e-02 -9.508252e-02 -1.123332e-01
<VARIANCE> 39
 1.027946e+01 2.876491e+01 3.290927e+01 5.654810e+01 7.125558e+01 5.202583e+01 6.287494e+01 5.679763e+01 6.946802e+01 6.272302e+01 4.282930e+01 6.760004e+01 2.492870e+01 1.107752e+00 1.864328e+00 3.580436e+00 4.925672e+00 5.957034e+00 9.238830e+00 4.949241e+00 4.315536e+00 7.045010e+00 7.259840e+00 5.135896e+00 4.728292e+00 1.196369e+00 1.241608e-01 3.017485e-01 3.327166e-01 5.241249e-01 8.037456e-01 7.425412e-01 6.075724e-01 5.594587e-01 9.225598e-01 9.278642e-01 5.714585e-01 6.022721e-01 1.917655e-01
<GCONST> 1.293292e+02
<TRANSP> 5
 0.000000e+00 1.000000e+00 0.000000e+00 0.000000e+00 0.000000e+00
 0.000000e+00 4.586026e-01 5.413973e-01 0.000000e+00 0.000000e+00
 0.000000e+00 0.000000e+00 7.134494e-01 2.865507e-01 0.000000e+00
 0.000000e+00 0.000000e+00 0.000000e+00 5.419999e-01 4.580001e-01
 0.000000e+00 0.000000e+00 0.000000e+00 0.000000e+00 0.000000e+00
<ENDHMM>
~h "n"
<BEGINHMM>
<NUMSTATES> 5
<STATE> 2
<MEAN> 39
 -2.848172e+00 2.538255e+00 3.489029e+00 1.937570e+00 7.696784e-01 -1.098156e+01 -3.720743e+00 -5.910016e+00 -1.237079e+01 -9.306718e+00 1.958144e-01 -6.321290e+00 7.116602e+01 9.550661e-01 4.370299e-01 1.578846e-01 5.588294e-01 4.045519e-01 -6.901743e-01 3.827090e-01 6.062458e-01 -1.639734e+00 -9.291083e-01 4.465790e-01 -8.243659e-01 -2.617367e-01 -2.842463e-01 -5.227568e-01 -3.401366e-01 -3.761206e-01 -4.246455e-01 2.786037e-01 -1.685807e-01 -3.065351e-01 7.180549e-01 5.126911e-01 -2.076870e-01 3.330585e-01 4.840783e-01
<VARIANCE> 39
 1.586766e+01 2.858222e+01 2.536672e+01 3.962479e+01 3.213111e+01 7.738422e+01 4.233752e+01 5.587459e+01 6.296220e+01 4.631843e+01 5.687378e+01 5.558552e+01 3.211735e+01 2.434218e+00 2.216518e+00 2.842781e+00 3.031435e+00 3.086953e+00 6.573590e+00 4.720545e+00 3.819440e+00 5.297744e+00 3.471689e+00 4.532774e+00 2.836114e+00 2.770727e+00 3.128440e-01 2.985353e-01 4.420362e-01 5.582168e-01 6.014888e-01 1.281031e+00 7.979839e-01 8.127888e-01 1.201199e+00 7.065780e-01 8.452104e-01 4.928779e-01 2.422287e-01
<GCONST> 1.291058e+02
<STATE> 3
<MEAN> 39
 -1.987907e+00 4.327999e-01 2.350492e+00 1.303332e+00 4.405372e-01 -1.000704e+01 -4.552888e+00 -7.285605e+00 -1.307885e+01 -8.147030e+00 -1.082174e+00 -8.106512e+00 7.304707e+01 -1.004798e-01 -1.065404e+00 -9.629492e-01 -8.759555e-01 -8.252020e-01 4.174247e-01 -1.752644e-01 -7.413760e-01 1.286211e+00 9.130467e-01 -2.531051e-01 4.277861e-01 1.092390e+00 -1.747058e-01 -2.415882e-01 -2.222680e-01 -3.910352e-01 -3.014149e-01 -8.085192e-02 1.363345e-01 5.901223e-04 5.580509e-01 2.774489e-01 -1.205611e-01 2.536291e-01 2.784404e-01
<VARIANCE> 39
 9.982817e+00 2.043208e+01 2.283147e+01 3.463447e+01 3.799778e+01 7.025160e+01 4.307978e+01 5.464220e+01 6.415044e+01 4.643100e+01 5.535249e+01 7.329191e+01 2.123924e+01 7.287240e-01 1.819643e+00 1.963950e+00 3.076926e+00 2.832992e+00 8.635226e+00 5.230481e+00 3.722632e+00 5.645056e+00 3.817499e+00 3.694524e+00 2.438788e+00 1.624599e+00 1.782404e-01 2.797762e-01 3.934214e-01 4.898991e-01 4.995061e-01 1.406103e+00 9.396108e-01 7.172180e-01 1.126708e+00 6.495093e-01 7.643737e-01 4.793099e-01 2.622130e-01
<GCONST> 1.246383e+02
<STATE> 4
<MEAN> 39
 -1.890051e+00 -2.151676e+00 -1.786425e-01 -1.031655e+00 -1.819198e+00 -1.135413e+01 -4.082138e+00 -5.462987e+00 -9.073346e+00 -6.150670e+00 -3.191739e+00 -8.494867e+00 7.489001e+01 -5.791298e-02 -3.677355e-01 -3.583846e-01 -5.801018e-01 -5.802407e-01 -9.541735e-02 1.925994e-01 4.502413e-02 5.612300e-01 2.078169e-01 -2.122154e-01 3.578488e-01 4.063677e-01 -4.799453e-02 1.473009e-01 1.483087e-01 7.272745e-02 5.866992e-02 7.906951e-03 3.498174e-02 9.540284e-02 -1.081098e-01 -1.152393e-01 6.552126e-03 5.072678e-02 -1.410009e-01
<VARIANCE> 39
 1.039057e+01 2.829368e+01 2.932325e+01 5.368491e+01 4.906814e+01 8.027394e+01 6.735966e+01 6.370225e+01 9.355474e+01 5.446509e+01 5.064154e+01 7.724667e+01 2.671731e+01 4.765664e-01 1.536081e+00 1.814192e+00 2.813859e+00 2.127169e+00 4.981922e+00 3.022933e+00 2.191228e+00 4.253766e+00 2.312172e+00 2.916207e+00 1.845392e+00 1.247700e+00 7.247675e-02 2.250163e-01 2.262494e-01 3.914814e-01 3.240186e-01 6.732215e-01 5.805737e-01 4.148273e-01 6.254632e-01 4.245215e-01 4.196114e-01 3.428154e-01 1.639469e-01
<GCONST> 1.166586e+02
<TRANSP> 5
 0.000000e+00 1.000000e+00 0.000000e+00 0.000000e+00 0.000000e+00
 0.000000e+00 5.095812e-01 4.904188e-01 0.000000e+00 0.000000e+00
 0.000000e+00 0.000000e+00 5.296680e-01 4.703321e-01 0.000000e+00
 0.000000e+00 0.000000e+00 0.000000e+00 6.252226e-01 3.747775e-01
 0.000000e+00 0.000000e+00 0.000000e+00 0.000000e+00 0.000000e+00
<ENDHMM>
~h "o"
<BEGINHMM>
<NUMSTATES> 5
<STATE> 2
<MEAN> 39
 -2.775317e+00 1.112942e+00 -9.934124e-01 -7.322000e+00 -7.479340e+00 -8.195878e+00 -1.835335e+00 -9.867970e+00 -9.978217e+00 -7.040055e+00 -2.930666e+00 -2.877855e-01 7.498272e+01 2.476803e+00 -8.821337e-02 -4.948823e-01 -1.119261e+00 -2.151812e+00 -2.446382e+00 1.126561e+00 -4.912594e-01 -1.863477e+00 -7.137398e-01 -6.631637e-01 4.986931e-01 1.213469e+00 -6.985732e-01 -2.289344e-01 -5.837477e-03 1.718415e-01 2.128741e-01 3.024579e-01 8.250879e-02 3.207663e-01 5.515699e-01 2.328516e-01 1.420925e-01 -4.966974e-02 -3.052824e-01
<VARIANCE> 39
 2.062099e+01 3.571003e+01 3.025294e+01 3.525202e+01 6.569522e+01 7.031560e+01 6.354181e+01 8.473655e+01 6.881196e+01 4.595581e+01 4.229127e+01 5.960848e+01 4.270103e+01 3.529212e+00 2.958175e+00 3.447675e+00 4.750294e+00 4.839885e+00 6.194788e+00 6.307086e+00 5.762008e+00 5.862335e+00 4.565979e+00 4.158105e+00 3.867937e+00 2.169973e+00 6.153184e-01 5.125793e-01 4.959495e-01 5.744601e-01 8.202831e-01 9.065813e-01 7.030079e-01 6.974913e-01 7.332131e-01 6.282215e-01 6.699171e-01 5.370382e-01 4.073611e-01
<GCONST> 1.347869e+02
<STATE> 3
<MEAN> 39
 -7.106510e-01 -4.739223e-01 -9.009154e-01 -1.089958e+01 -1.401380e+01 -1.206882e+01 1.711943e+00 -7.912117e+00 -1.021789e+01 -7.789765e+00 -5.065422e+00 -6.192361e-01 7.657353e+01 1.149487e-01 -1.889022e-01 -1.490457e-01 -1.314662e-01 -2.215081e-01 -9.772101e-02 2.751192e-01 -9.661365e-03 -1.281804e-01 -3.786543e-03 3.965522e-02 1.180612e-01 8.980117e-02 -2.712380e-01 3.009285e-02 7.319051e-02 3.227402e-01 4.538716e-01 3.871463e-01 -2.674073e-01 -4.474325e-02 1.852188e-01 3.693594e-02 1.143490e-01 -3.429745e-02 -1.952368e-01
<VARIANCE> 39
 9.128214e+00 4.344559e+01 2.630433e+01 4.071893e+01 7.675655e+01 9.262618e+01 5.775237e+01 8.856603e+01 8.862250e+01 5.941825e+01 4.609864e+01 9.074464e+01 2.210249e+01 3.366802e-01 9.161757e-01 8.761037e-01 1.429599e+00 2.269843e+00 1.871586e+00 1.998348e+00 2.190699e+00 1.882965e+00 1.663782e+00 1.793589e+00 1.762101e+00 5.534972e-01 2.213883e-01 1.977031e-01 1.962361e-01 2.947538e-01 3.557910e-01 5.463223e-01 5.001069e-01 4.104660e-01 5.256107e-01 4.084709e-01 3.534878e-01 3.487393e-01 1.382822e-01
<GCONST> 1.109118e+02
<STATE> 4
<MEAN> 39
 -1.160239e+00 -1.133487e+00 -3.045498e+00 -8.627676e+00 -9.933451e+00 -8.351735e+00 -1.194921e+00 -1.158917e+01 -9.959314e+00 -8.232665e+00 -3.436674e+00 2.695414e+00 7.573666e+01 -4.070263e-01 4.121675e-01 2.344366e-01 1.580161e+00 1.549170e+00 8.840678e-01 -1.073241e+00 3.462258e-02 4.094602e-01 1.634336e-01 2.588513e-01 -3.368236e-01 -9.933243e-01 -3.144158e-01 2.222832e-01 1.970102e-01 2.994771e-01 2.792279e-01 1.883018e-01 -2.218436e-01 3.329455e-01 3.268921e-01 8.760225e-02 -1.848789e-02 -2.938278e-01 -3.585916e-01
<VARIANCE> 39
 1.196766e+01 4.010701e+01 3.613890e+01 5.114998e+01 6.882318e+01 7.018019e+01 7.754300e+01 8.701523e+01 8.148283e+01 6.814420e+01 5.775382e+01 9.011071e+01 3.784890e+01 1.242414e+00 2.713856e+00 1.708924e+00 2.742101e+00 2.807410e+00 4.568632e+00 3.665606e+00 4.440240e+00 4.036439e+00 3.901702e+00 3.229044e+00 3.531708e+00 2.522617e+00 3.425768e-01 3.343093e-01 3.002256e-01 4.591228e-01 5.211785e-01 7.141442e-01 6.674975e-01 6.517700e-01 7.509973e-01 6.299596e-01 6.652029e-01 6.194184e-01 2.911638e-01
<GCONST> 1.288645e+02
<TRANSP> 5
 0.000000e+00 1.000000e+00 0.000000e+00 0.000000e+00 0.000000e+00
 0.000000e+00 4.980910e-01 5.019090e-01 0.000000e+00 0.000000e+00
 0.000000e+00 0.000000e+00 7.662481e-01 2.337519e-01 0.000000e+00
 0.000000e+00 0.000000e+00 0.000000e+00 5.752367e-01 4.247634e-01
 0.000000e+00 0.000000e+00 0.000000e+00 0.000000e+00 0.000000e+00
<ENDHMM>
~h "p"
<BEGINHMM>
<NUMSTATES> 5
<STATE> 2
<MEAN> 39
 -1.084729e+01 2.341759e+00 -6.300207e-01 5.216163e-02 -2.185184e+00 -3.410423e+00 -3.949695e+00 -3.966406e+00 -3.931582e+00 -3.047536e+00 -1.746518e+00 -2.416150e+00 5.901827e+01 -7.962620e-01 -1.431125e-01 -3.938475e-01 -1.513455e-01 -8.554372e-02 2.740942e-01 5.494928e-02 1.897441e-01 2.955706e-01 2.827257e-01 2.312813e-01 2.109758e-01 -9.052818e-01 4.259476e-02 -3.204344e-01 1.053536e-02 7.119295e-03 1.586438e-01 -4.289561e-02 2.010894e-02 -1.020042e-01 5.018876e-02 7.047831e-02 8.360085e-02 7.810510e-02 8.236610e-01
<VARIANCE> 39
 3.646161e+01 3.109008e+01 3.718128e+01 3.941851e+01 3.185931e+01 3.652017e+01 3.772144e+01 2.901739e+01 3.125751e+01 3.489176e+01 2.907748e+01 2.786048e+01 3.355442e+01 1.606210e+00 1.830630e+00 2.029166e+00 1.841438e+00 2.146676e+00 2.267448e+00 1.948679e+00 2.036851e+00 2.383810e+00 2.437223e+00 1.961052e+00 1.884488e+00 3.064752e+00 3.149045e-01 3.666206e-01 4.578072e-01 5.063215e-01 5.367820e-01 5.417151e-01 4.414748e-01 4.115384e-01 5.110934e-01 4.557273e-01 4.163240e-01 3.310266e-01 6.878210e-01
<GCONST> 1.164325e+02
<STATE> 3
<MEAN> 39
 -1.391825e+01 -1.929656e-01 -5.143130e-01 -6.950119e-01 -6.859130e-01 -2.157802e+00 -3.979008e+00 -3.971554e+00 -1.440692e+00 -1.845649e+00 1.936274e-01 -6.890930e-01 6.179501e+01 7.205730e-01 -1.273203e+00 -4.645384e-02 3.002816e-01 1.060048e+00 1.138847e-01 -1.238953e-01 -5.805470e-01 5.132688e-01 7.376893e-01 6.579519e-01 6.666096e-01 4.031315e+00 1.013691e+00 -5.186572e-02 -4.256158e-02 -2.420672e-02 -2.825232e-01 -7.099043e-01 -2.630234e-01 -5.104012e-01 -5.393201e-01 -2.632335e-01 -2.986565e-01 -1.596504e-02 9.703993e-01
<VARIANCE> 39
 1.949535e+01 2.698192e+01 2.315966e+01 2.692881e+01 3.072913e+01 2.673898e+01 3.699147e+01 3.046988e+01 3.219345e+01 2.925053e+01 2.489644e+01 1.997358e+01 5.275601e+01 5.642045e+00 3.044889e+00 3.944833e+00 5.816702e+00 4.897324e+00 4.555799e+00 4.975004e+00 3.770470e+00 4.553646e+00 5.132999e+00 3.788218e+00 2.678424e+00 4.641788e+00 4.338231e-01 5.612219e-01 4.752715e-01 7.537887e-01 7.243252e-01 6.820094e-01 7.642586e-01 5.813171e-01 7.694386e-01 6.985269e-01 5.711819e-01 5.797573e-01 1.088055e+00
<GCONST> 1.285593e+02
<STATE> 4
<MEAN> 39
 -7.296293e+00 -2.520627e+00 -1.374357e+00 -1.185241e+00 7.770233e-01 -5.473241e+00 -4.645977e+00 -7.202171e+00 -4.152526e+00 -1.946913e+00 5.066756e-01 3.865204e-02 7.450020e+01 2.643579e+00 -7.913306e-01 -4.804200e-01 -2.022376e-01 -7.437168e-01 -2.211190e+00 -9.271358e-01 -1.457051e+00 -1.389686e+00 -4.017715e-01 -5.214719e-01 -1.324775e-01 3.065998e+00 -1.271784e-01 9.832323e-02 -1.659401e-02 -2.490960e-03 -3.984931e-01 -3.681988e-01 -1.176667e-01 6.059190e-02 -1.839696e-01 -2.013394e-01 -2.425275e-01 -2.773477e-01 -8.045540e-01
<VARIANCE> 39
 4.533200e+01 2.723011e+01 2.670498e+01 5.241779e+01 6.123495e+01 4.781358e+01 6.540939e+01 4.616446e+01 6.689914e+01 4.668608e+01 3.368616e+01 3.300430e+01 3.070406e+01 4.878167e+00 3.843412e+00 3.411864e+00 5.954390e+00 6.074870e+00 5.844552e+00 6.773679e+00 5.050477e+00 7.371652e+00 5.312513e+00 4.656799e+00 4.871823e+00 6.495296e+00 9.856476e-01 6.561442e-01 5.585814e-01 8.563449e-01 1.119270e+00 1.014493e+00 1.013049e+00 9.431483e-01 1.174482e+00 1.013135e+00 8.622161e-01 7.165331e-01 6.528009e-01
<GCONST> 1.403986e+02
<TRANSP> 5
 0.000000e+00 1.000000e+00 0.000000e+00 0.000000e+00 0.000000e+00
 0.000000e+00 7.940632e-01 2.059368e-01 0.000000e+00 0.000000e+00
 0.000000e+00 0.000000e+00 5.248466e-01 4.751534e-01 0.000000e+00
 0.000000e+00 0.000000e+00 0.000000e+00 5.252379e-01 4.747621e-01
 0.000000e+00 0.000000e+00 0.000000e+00 0.000000e+00 0.000000e+00
<ENDHMM>
~h "r"
<BEGINHMM>
<NUMSTATES> 5
<STATE> 2
<MEAN> 39
 -7.860427e+00 -9.713573e-01 1.733222e+00 1.100480e+00 1.643271e+00 -6.059119e+00 -6.284912e+00 -8.106022e+00 -2.335740e+00 -2.160524e+00 -2.035704e+00 -2.900390e+00 7.584167e+01 -1.873086e-01 4.452478e-01 4.838330e-01 3.604900e-01 8.682188e-01 1.211117e+00 5.530545e-01 5.241566e-01 -9.831280e-02 -3.039310e-01 -3.139152e-01 -7.699362e-02 -4.756213e-01 -1.830077e-03 -1.790241e-01 4.222389e-02 -2.782001e-02 -4.083645e-01 -3.016032e-01 7.417501e-02 1.672602e-02 3.837103e-02 -1.936839e-01 -2.015482e-01 1.230908e-01 1.136241e-01
<VARIANCE> 39
 3.755110e+01 3.202249e+01 7.498920e+01 5.908844e+01 4.455473e+01 8.178028e+01 6.765028e+01 5.864626e+01 8.060097e+01 6.076719e+01 6.530670e+01 5.231786e+01 1.928038e+01 4.442011e+00 2.436582e+00 3.147830e+00 5.133166e+00 3.735781e+00 7.429899e+00 6.403053e+00 3.799426e+00 4.249203e+00 3.760632e+00 4.367773e+00 2.921847e+00 1.471978e+00 3.801389e-01 3.640358e-01 3.939649e-01 4.444304e-01 5.799559e-01 7.500423e-01 5.975763e-01 5.591527e-01 6.334944e-01 5.598881e-01 7.936310e-01 5.709272e-01 1.887807e-01
<GCONST> 1.314839e+02
<STATE> 3
<MEAN> 39
 -8.192371e+00 -3.254808e+00 1.307912e+00 3.284285e-01 4.486986e+00 -2.366862e+00 -1.124015e+00 -4.713890e+00 -3.562825e+00 -2.412963e+00 -4.497180e+00 -5.544419e+00 7.408016e+01 2.986183e-01 1.416155e-01 1.362285e-01 5.152744e-02 -3.554619e-01 -3.764487e-02 2.787419e-01 2.974840e-01 5.066454e-02 -3.814350e-01 -3.480983e-01 1.462214e-01 -6.464958e-02 2.640981e-01 8.753749e-03 -1.871994e-01 -2.579924e-01 -5.466985e-01 -6.922175e-01 -3.308866e-01 -2.182348e-01 -5.366924e-02 -5.182126e-02 -4.428584e-03 8.632089e-02 2.259230e-01
<VARIANCE> 39
 1.197748e+01 3.672615e+01 5.146089e+01 4.174960e+01 3.966060e+01 8.894189e+01 8.010433e+01 6.009088e+01 5.994378e+01 5.666444e+01 5.615440e+01 6.302759e+01 1.682015e+01 1.718331e+00 1.210752e+00 1.587282e+00 2.423945e+00 2.078301e+00 4.145938e+00 2.925653e+00 2.136918e+00 2.477951e+00 2.086202e+00 2.372757e+00 1.856117e+00 4.736260e-01 2.555049e-01 2.528177e-01 2.821524e-01 3.212358e-01 4.804364e-01 4.489625e-01 4.260178e-01 4.259771e-01 4.814819e-01 4.471941e-01 4.148334e-01 3.461896e-01 7.788030e-02
<GCONST> 1.152432e+02
<STATE> 4
<MEAN> 39
 -6.602241e+00 1.022916e+00 1.820707e+00 -1.134413e+00 -5.373738e-01 -6.619106e+00 -4.543855e+00 -5.151649e+00 -3.391990e+00 -5.005902e+00 -4.527912e+00 -4.101297e+00 7.337251e+01 7.938696e-01 -1.228020e-01 -5.979694e-01 -4.775145e-01 -1.156875e+00 -1.544544e+00 -6.000738e-01 -2.882189e-01 -3.411683e-02 -2.519868e-01 -1.670403e-01 1.457580e-01 4.960335e-01 3.146276e-03 -3.061442e-01 -1.627738e-01 -1.033065e-01 -7.972200e-02 -8.953337e-02 -4.978362e-02 -1.542951e-01 -8.390905e-03 1.188720e-01 1.226586e-01 1.586514e-01 1.570456e-01
<VARIANCE> 39
 1.730029e+01 2.906641e+01 5.852686e+01 7.375020e+01 5.318771e+01 9.691564e+01 6.935262e+01 5.660127e+01 6.662328e+01 8.013679e+01 4.131422e+01 6.813588e+01 4.007868e+01 1.255145e+00 2.144064e+00 2.196178e+00 2.669275e+00 2.697368e+00 2.953806e+00 2.446622e+00 1.673162e+00 2.592588e+00 1.990949e+00 1.870778e+00 1.863931e+00 6.873544e-01 1.995773e-01 2.523415e-01 2.435909e-01 3.548013e-01 3.133440e-01 4.355375e-01 3.583828e-01 3.363517e-01 3.690568e-01 2.941299e-01 2.974833e-01 2.657957e-01 1.319802e-01
<GCONST> 1.157382e+02
<TRANSP> 5
 0.000000e+00 1.000000e+00 0.000000e+00 0.000000e+00 0.000000e+00
 0.000000e+00 4.858687e-01 5.141313e-01 0.000000e+00 0.000000e+00
 0.000000e+00 0.000000e+00 6.019263e-01 3.980737e-01 0.000000e+00
 0.000000e+00 0.000000e+00 0.000000e+00 5.371174e-01 4.628826e-01
 0.000000e+00 0.000000e+00 0.000000e+00 0.000000e+00 0.000000e+00
<ENDHMM>
~h "s"
<BEGINHMM>
<NUMSTATES> 5
<STATE> 2
<MEAN> 39
 -1.778826e+01 2.140227e+00 6.850821e+00 -5.115164e+00 3.691884e+00 -3.479138e+00 -6.444665e+00 -7.930985e+00 -2.870589e+00 -4.662811e+00 -1.612624e+00 -3.502488e+00 7.715273e+01 -5.169647e+00 5.530823e-01 1.047016e+00 -1.383525e+00 1.069638e+00 1.406543e+00 4.580747e-01 5.866318e-01 1.984387e+00 7.122957e-01 7.029178e-01 3.432476e-01 4.814062e-01 -4.851577e-02 -5.232722e-01 -5.553344e-01 -1.536620e-01 -4.944215e-01 -4.782706e-01 6.257873e-02 2.301448e-02 2.502553e-03 4.949563e-02 5.260694e-02 1.819602e-01 7.646853e-02
<VARIANCE> 39
 7.730583e+01 5.195376e+01 5.442507e+01 4.457008e+01 4.125728e+01 6.953408e+01 7.731136e+01 6.628082e+01 5.851370e+01 4.387422e+01 4.664626e+01 4.013017e+01 2.715659e+01 3.073630e+00 4.692636e+00 4.575974e+00 3.720184e+00 4.494477e+00 4.785342e+00 5.086433e+00 5.078708e+00 4.950754e+00 3.855815e+00 3.171428e+00 3.321312e+00 1.027138e+00 1.233710e+00 5.768326e-01 5.574629e-01 5.484190e-01 5.491070e-01 7.030236e-01 6.124736e-01 7.122146e-01 8.374285e-01 5.625131e-01 5.129259e-01 4.953071e-01 1.683214e-01
<GCONST> 1.329019e+02
<STATE> 3
<MEAN> 39
 -3.235828e+01 -4.674612e-01 4.866027e+00 -9.913385e+00 3.952465e+00 -3.096495e+00 -4.624211e+00 -5.477423e+00 2.470106e+00 -2.402941e+00 5.619409e-01 -1.540417e+00 7.812571e+01 -4.629998e-01 -7.070416e-01 -2.612090e-01 -6.528768e-02 -9.095224e-02 5.009502e-02 2.004681e-01 3.463486e-01 4.061379e-01 2.533183e-01 1.467722e-01 1.155530e-01 -1.502990e-01 9.548783e-01 -2.707316e-02 7.701360e-02 3.643119e-01 -5.564291e-02 -1.072575e-01 -1.159782e-01 -1.485305e-01 -2.830801e-01 -8.674057e-02 -1.121324e-01 -1.037168e-01 -1.123688e-01
<VARIANCE> 39
 1.714840e+01 5.575921e+01 4.468192e+01 2.711068e+01 3.495989e+01 4.736958e+01 6.321995e+01 5.380205e+01 4.890222e+01 2.632653e+01 3.338380e+01 1.795971e+01 1.950201e+01 2.842969e+00 1.141351e+00 1.377998e+00 1.579006e+00 1.274493e+00 1.512819e+00 1.579742e+00 1.650476e+00 1.706807e+00 1.532291e+00 1.370427e+00 1.285152e+00 3.128713e-01 4.440429e-01 2.712046e-01 2.640218e-01 2.704584e-01 2.738618e-01 3.234687e-01 3.456810e-01 3.769570e-01 4.042548e-01 3.296975e-01 2.961080e-01 2.705669e-01 6.578358e-02
<GCONST> 1.051670e+02
<STATE> 4
<MEAN> 39
 -2.226916e+01 -3.311344e+00 5.139935e+00 -5.574058e+00 2.916940e+00 -3.644152e+00 -5.580570e+00 -6.341266e+00 1.135909e+00 -1.601765e+00 1.011857e-01 -2.149711e+00 7.610849e+01 5.140943e+00 1.848976e-01 -1.615279e-01 1.584701e+00 -7.758340e-01 -1.526565e+00 -1.073110e+00 -1.358369e+00 -1.969918e+00 -6.793716e-01 -8.538582e-01 -5.366607e-01 -1.530221e-01 4.416119e-01 1.274253e-01 -1.925452e-01 -6.757733e-02 -2.609017e-01 -3.911329e-01 -4.564393e-02 -1.867214e-01 -3.892096e-01 -2.301438e-01 -1.711248e-01 2.189778e-02 2.485497e-01
<VARIANCE> 39
 9.386197e+01 4.328655e+01 3.866491e+01 3.508694e+01 3.195479e+01 6.007945e+01 6.802567e+01 6.239547e+01 5.695360e+01 3.386467e+01 3.921175e+01 2.229952e+01 2.639318e+01 5.704251e+00 3.367686e+00 4.000412e+00 3.872102e+00 3.486946e+00 4.474310e+00 4.335763e+00 4.144680e+00 4.106101e+00 3.908096e+00 3.298184e+00 2.490116e+00 1.695704e+00 1.728736e+00 5.842559e-01 4.304986e-01 5.639275e-01 4.769211e-01 7.190639e-01 7.235116e-01 8.652086e-01 8.227099e-01 6.212716e-01 5.539101e-01 4.480665e-01 2.191551e-01
<GCONST> 1.309384e+02
<TRANSP> 5
 0.000000e+00 1.000000e+00 0.000000e+00 0.000000e+00 0.000000e+00
 0.000000e+00 6.855410e-01 3.144590e-01 0.000000e+00 0.000000e+00
 0.000000e+00 0.000000e+00 8.561344e-01 1.438656e-01 0.000000e+00
 0.000000e+00 0.000000e+00 0.000000e+00 6.845657e-01 3.154343e-01
 0.000000e+00 0.000000e+00 0.000000e+00 0.000000e+00 0.000000e+00
<ENDHMM>
~h "t"
<BEGINHMM>
<NUMSTATES> 5
<STATE> 2
<MEAN> 39
 -1.065550e+01 2.890087e+00 9.289665e-01 5.103495e-01 -2.941766e+00 -4.358887e+00 -5.106661e+00 -4.293102e+00 -4.549090e+00 -4.604685e+00 -1.709802e+00 -2.797397e+00 6.129222e+01 -1.451903e+00 -9.742566e-01 -4.747078e-01 -6.155646e-01 -3.838280e-01 4.054405e-01 2.659267e-01 8.125536e-03 6.042131e-01 7.009848e-01 1.952985e-01 4.733683e-01 -3.912027e-01 -2.185900e-01 -5.694199e-01 1.390373e-01 -2.501634e-01 1.277346e-01 -2.327097e-01 -7.619495e-03 -2.306082e-01 5.686934e-02 1.057884e-01 3.993877e-02 6.839490e-02 1.153661e+00
<VARIANCE> 39
 3.417363e+01 2.474499e+01 4.583409e+01 4.736427e+01 3.592093e+01 3.882265e+01 4.279259e+01 3.940547e+01 3.901415e+01 4.266492e+01 3.537977e+01 3.754289e+01 4.618560e+01 3.454617e+00 3.355976e+00 3.182512e+00 3.183038e+00 3.234687e+00 3.948075e+00 2.988308e+00 3.241210e+00 3.736524e+00 3.431763e+00 3.089164e+00 2.605159e+00 6.668466e+00 5.799324e-01 5.217298e-01 7.152762e-01 5.712129e-01 6.836770e-01 7.486212e-01 5.460045e-01 5.621922e-01 7.125154e-01 5.748124e-01 5.647026e-01 4.347358e-01 8.977548e-01
<GCONST> 1.289838e+02
<STATE> 3
<MEAN> 39
 -2.063888e+01 -5.001969e+00 3.825263e+00 -3.616292e+00 -3.130175e+00 -3.969559e+00 -3.343544e+00 -5.714335e+00 -1.454923e+00 -2.124574e+00 -1.141311e+00 -1.026530e+00 7.021989e+01 -2.138740e+00 -1.885782e+00 8.622345e-01 -7.589119e-01 9.261171e-01 -2.237475e-01 2.427027e-01 -5.270834e-01 9.529088e-01 9.706994e-01 6.183868e-01 3.153750e-01 3.699297e+00 1.103549e+00 4.468114e-01 -7.690794e-02 2.749475e-01 1.524427e-01 -3.826246e-01 -2.364811e-01 -1.989942e-01 -4.234290e-01 -2.119330e-01 -7.274987e-02 -1.666983e-01 1.190783e-01
<VARIANCE> 39
 5.584365e+01 3.221806e+01 5.990470e+01 3.508438e+01 4.148819e+01 4.399939e+01 5.120179e+01 4.947877e+01 3.980224e+01 3.005328e+01 2.939331e+01 2.206808e+01 4.518210e+01 8.451455e+00 2.826688e+00 4.764116e+00 4.483007e+00 3.735786e+00 4.610929e+00 4.490114e+00 4.332550e+00 4.257422e+00 3.663360e+00 3.036574e+00 2.439717e+00 4.331333e+00 9.259607e-01 6.027840e-01 7.093307e-01 8.119816e-01 7.527887e-01 9.208450e-01 7.007570e-01 9.052761e-01 9.131718e-01 6.837170e-01 5.747140e-01 5.012811e-01 8.536251e-01
<GCONST> 1.339769e+02
<STATE> 4
<MEAN> 39
 -2.130822e+01 -7.333633e+00 5.848357e+00 -2.413296e+00 1.202023e+00 -5.910367e+00 -3.092842e+00 -6.424215e+00 -7.463129e-01 -6.642973e-01 1.820290e-01 -1.496226e+00 7.641404e+01 2.533959e+00 3.053071e-01 -2.568735e-01 3.186415e-01 1.166670e-01 -7.823116e-01 -5.854931e-01 -9.132416e-01 -1.023524e+00 -2.804944e-01 -4.268429e-01 -1.821848e-01 7.725745e-01 9.568691e-01 4.944537e-01 -2.299470e-01 9.853546e-02 -4.742744e-01 -2.000612e-01 -4.490834e-02 -3.779198e-02 -4.839338e-01 -4.079149e-01 -2.992020e-01 -6.624959e-02 -6.697427e-01
<VARIANCE> 39
 9.936436e+01 4.918404e+01 4.946820e+01 3.402983e+01 4.150900e+01 5.585924e+01 6.497228e+01 4.611061e+01 4.929650e+01 3.227192e+01 3.183790e+01 2.303302e+01 2.379121e+01 6.702554e+00 3.949533e+00 3.009462e+00 4.000963e+00 4.173456e+00 5.370847e+00 4.242711e+00 4.639542e+00 5.515650e+00 4.333195e+00 3.285540e+00 2.774672e+00 5.471004e+00 1.138084e+00 6.425126e-01 6.304260e-01 6.382995e-01 7.265646e-01 9.453158e-01 9.848909e-01 8.919267e-01 9.178630e-01 6.823425e-01 5.998737e-01 5.830880e-01 5.481377e-01
<GCONST> 1.355820e+02
<TRANSP> 5
 0.000000e+00 1.000000e+00 0.000000e+00 0.000000e+00 0.000000e+00
 0.000000e+00 7.302420e-01 2.697580e-01 0.000000e+00 0.000000e+00
 0.000000e+00 0.000000e+00 4.873341e-01 5.126658e-01 0.000000e+00
 0.000000e+00 0.000000e+00 0.000000e+00 6.684917e-01 3.315083e-01
 0.000000e+00 0.000000e+00 0.000000e+00 0.000000e+00 0.000000e+00
<ENDHMM>
~h "u"
<BEGINHMM>
<NUMSTATES> 5
<STATE> 2
<MEAN> 39
 -5.344576e+00 1.219068e+00 5.106639e-01 -1.792298e+00 -2.744144e+00 -6.147261e+00 -4.121285e+00 -9.784750e+00 -8.217051e+00 -6.771482e+00 -2.935615e+00 -1.172964e+00 7.032397e+01 1.980314e+00 8.373298e-01 -1.455210e-04 -1.037179e+00 -1.160018e+00 -1.105752e+00 7.918079e-01 -1.627071e-01 -1.479909e+00 -1.152788e+00 -6.600699e-01 -3.060543e-02 5.238858e-01 -3.912619e-01 -1.003070e-01 1.104932e-01 6.914154e-02 -3.325606e-02 -3.226441e-02 1.977635e-01 3.585583e-01 2.457273e-01 1.297864e-01 2.072521e-02 -1.177764e-01 -1.111193e-01
<VARIANCE> 39
 3.469024e+01 3.787860e+01 3.641770e+01 4.235628e+01 5.853419e+01 6.253978e+01 5.822581e+01 8.767606e+01 6.308250e+01 4.821703e+01 4.489757e+01 5.078806e+01 8.045984e+01 4.581348e+00 2.717527e+00 3.021616e+00 4.491121e+00 5.223275e+00 6.956171e+00 6.519861e+00 5.632254e+00 5.395485e+00 4.515580e+00 4.137848e+00 3.897983e+00 3.413378e+00 6.909238e-01 5.166333e-01 5.153330e-01 5.273824e-01 7.401454e-01 9.076133e-01 7.588608e-01 8.024484e-01 8.085765e-01 6.891481e-01 6.263104e-01 5.354380e-01 4.475337e-01
<GCONST> 1.369016e+02
<STATE> 3
<MEAN> 39
 -8.940976e-01 4.367695e+00 1.865924e+00 -6.810598e+00 -8.823159e+00 -1.079825e+01 -9.999216e-01 -7.029332e+00 -1.026274e+01 -9.422198e+00 -6.214215e+00 -3.000237e+00 7.173572e+01 1.039836e-01 6.837464e-02 9.231351e-03 -1.050924e-01 -1.331942e-01 -1.207413e-01 2.430644e-01 2.323284e-01 -2.150908e-01 -2.195629e-01 -9.175879e-02 -1.334170e-01 -6.895095e-03 -3.191768e-01 -1.536169e-01 8.834375e-03 2.627480e-01 3.401828e-01 2.676696e-01 -1.837884e-01 -8.303975e-02 1.661318e-01 1.493413e-01 1.742000e-01 4.201831e-02 -3.825941e-02
<VARIANCE> 39
 1.137699e+01 3.377516e+01 2.665243e+01 4.189532e+01 6.227345e+01 8.634805e+01 4.972076e+01 7.946944e+01 6.172801e+01 4.634113e+01 4.664558e+01 8.093816e+01 3.080577e+01 6.391127e-01 1.252013e+00 9.494594e-01 1.448338e+00 1.881335e+00 2.387116e+00 2.062091e+00 2.589991e+00 2.545936e+00 2.128904e+00 1.842858e+00 1.980632e+00 8.640472e-01 2.977756e-01 2.102692e-01 2.225549e-01 3.434976e-01 4.182731e-01 5.163854e-01 4.985821e-01 4.897168e-01 5.758427e-01 4.905010e-01 3.996485e-01 4.247067e-01 1.530676e-01
<GCONST> 1.140538e+02
<STATE> 4
<MEAN> 39
 -2.800694e+00 9.635278e-01 6.278892e-01 -3.183677e+00 -4.109174e+00 -8.179271e+00 -2.148080e+00 -1.071624e+01 -1.250832e+01 -9.400336e+00 -3.960803e+00 -1.687734e+00 7.403735e+01 -9.200516e-01 -1.829069e-01 2.620593e-01 1.280012e+00 1.193939e+00 7.320139e-01 -8.248394e-01 -4.045900e-01 5.528327e-01 6.427378e-01 5.481409e-01 -2.173025e-01 -1.556535e-01 -4.792102e-01 1.064006e-01 2.249332e-01 2.491463e-01 1.489006e-01 1.415421e-01 -1.915134e-01 2.348155e-01 6.402673e-01 3.290882e-01 5.621481e-02 -1.385786e-01 -2.426119e-01
<VARIANCE> 39
 1.690570e+01 3.276282e+01 3.445397e+01 5.099601e+01 6.069022e+01 7.209605e+01 6.206332e+01 1.130600e+02 7.024268e+01 5.609932e+01 5.209008e+01 8.266969e+01 3.437408e+01 2.154417e+00 2.919563e+00 2.143718e+00 3.655921e+00 3.343300e+00 5.189048e+00 4.374791e+00 5.328808e+00 5.053769e+00 4.482583e+00 3.251968e+00 3.668780e+00 1.997423e+00 4.828289e-01 4.762959e-01 3.694019e-01 6.430646e-01 6.398007e-01 8.108646e-01 8.623546e-01 8.691804e-01 9.191743e-01 8.065193e-01 6.205245e-01 6.901647e-01 3.058710e-01
<GCONST> 1.328976e+02
<TRANSP> 5
 0.000000e+00 1.000000e+00 0.000000e+00 0.000000e+00 0.000000e+00
 0.000000e+00 4.626293e-01 5.373707e-01 0.000000e+00 0.000000e+00
 0.000000e+00 0.000000e+00 7.333692e-01 2.666309e-01 0.000000e+00
 0.000000e+00 0.000000e+00 0.000000e+00 4.476235e-01 5.523765e-01
 0.000000e+00 0.000000e+00 0.000000e+00 0.000000e+00 0.000000e+00
<ENDHMM>
~h "v"
<BEGINHMM>
<NUMSTATES> 5
<STATE> 2
<MEAN> 39
 -3.350218e+00 8.918912e-01 -4.163383e+00 -4.078190e+00 -2.544599e+00 -3.488462e+00 -2.275382e+00 -7.657927e+00 -7.968394e+00 -6.090372e+00 -2.376838e+00 -3.722057e-01 7.409068e+01 -2.035860e+00 2.275087e+00 8.109165e-01 9.469404e-01 1.640039e+00 1.190847e+00 6.993362e-01 6.542860e-01 1.511384e-01 -4.206073e-01 -4.056134e-01 -9.610657e-01 -1.263149e+00 -3.048186e-01 -4.764717e-01 9.502886e-02 -1.770053e-01 1.463051e-02 -3.583999e-01 -5.318539e-02 -2.211451e-02 4.467119e-01 3.069642e-01 6.740005e-02 6.123725e-02 4.170425e-01
<VARIANCE> 39
 2.178647e+01 2.310495e+01 2.894641e+01 4.485929e+01 5.861794e+01 4.417220e+01 6.240723e+01 3.260993e+01 3.641083e+01 3.893669e+01 4.462486e+01 5.692565e+01 1.623696e+01 2.238807e+00 2.090611e+00 1.824865e+00 3.754995e+00 3.330819e+00 3.845093e+00 4.176266e+00 3.099274e+00 3.796918e+00 3.626701e+00 2.751791e+00 3.206100e+00 8.129541e-01 2.580228e-01 2.681214e-01 2.135231e-01 3.083198e-01 3.928928e-01 4.397380e-01 4.075920e-01 3.458761e-01 4.174709e-01 3.837578e-01 4.184407e-01 3.740025e-01 1.171566e-01
<GCONST> 1.166636e+02
<STATE> 3
<MEAN> 39
 -1.021112e+01 4.320523e+00 -9.126678e-01 -2.283304e+00 2.258484e+00 -3.026153e+00 -3.851272e-01 -5.660740e+00 -5.531129e+00 -5.320114e+00 -3.162676e+00 -2.734495e+00 7.297383e+01 -1.114074e+00 8.097780e-02 5.995442e-01 1.919876e-01 5.464622e-01 -1.347808e-01 8.585802e-02 6.304736e-03 2.951306e-01 -1.950613e-02 -1.661247e-02 -1.266413e-01 8.938463e-02 8.566197e-01 -8.375545e-01 -2.228339e-01 -3.029037e-01 -6.934240e-01 -6.137442e-01 -3.022250e-01 -3.429234e-01 -2.651391e-01 8.943293e-02 8.510193e-02 3.010714e-01 4.622927e-01
<VARIANCE> 39
 2.862785e+01 2.149815e+01 3.476286e+01 4.917484e+01 7.442510e+01 4.753557e+01 6.527093e+01 4.086402e+01 4.336847e+01 3.978477e+01 4.409972e+01 4.425808e+01 1.389214e+01 2.906219e+00 1.469458e+00 1.222161e+00 1.978402e+00 2.474576e+00 2.031868e+00 2.436369e+00 2.410488e+00 2.613322e+00 1.842877e+00 1.668230e+00 1.698772e+00 4.995405e-01 3.775007e-01 3.380605e-01 2.766719e-01 5.988279e-01 5.321039e-01 6.429620e-01 6.378112e-01 5.330008e-01 6.886628e-01 6.086712e-01 4.591223e-01 4.795088e-01 1.600542e-01
<GCONST> 1.166811e+02
<STATE> 4
<MEAN> 39
 -7.988514e+00 5.924931e-01 -1.065160e+00 -3.878038e+00 1.173294e+00 -5.960349e+00 -1.829147e+00 -7.607617e+00 -7.332757e+00 -5.484713e+00 -2.545536e+00 -1.749009e+00 7.505617e+01 1.698904e+00 -1.578248e+00 -3.185683e-01 -4.188126e-01 -1.447116e+00 -1.463864e+00 -7.855920e-01 -6.499639e-01 -6.234061e-01 2.840867e-01 3.404520e-01 5.116434e-01 8.359535e-01 2.822380e-01 -1.932171e-01 -4.886813e-02 2.938793e-02 -1.763937e-01 -2.097926e-01 -9.949224e-02 -3.707241e-03 3.191023e-02 1.682083e-01 5.791139e-02 -2.477672e-02 9.516323e-02
<VARIANCE> 39
 4.886447e+01 2.909890e+01 3.485666e+01 4.808063e+01 8.741491e+01 5.162436e+01 6.795740e+01 4.394974e+01 6.109545e+01 4.028740e+01 4.767244e+01 4.825969e+01 1.825820e+01 3.005506e+00 2.194324e+00 2.240967e+00 3.932198e+00 3.082058e+00 3.829451e+00 4.348651e+00 3.340870e+00 5.062757e+00 3.341477e+00 2.771293e+00 2.522151e+00 9.217125e-01 6.979646e-01 3.593893e-01 3.002736e-01 4.291379e-01 5.510516e-01 5.621698e-01 6.074221e-01 4.705186e-01 7.899437e-01 4.778616e-01 4.153656e-01 3.772471e-01 1.263882e-01
<GCONST> 1.243774e+02
<TRANSP> 5
 0.000000e+00 1.000000e+00 0.000000e+00 0.000000e+00 0.000000e+00
 0.000000e+00 4.507138e-01 5.492862e-01 0.000000e+00 0.000000e+00
 0.000000e+00 0.000000e+00 5.912092e-01 4.087908e-01 0.000000e+00
 0.000000e+00 0.000000e+00 0.000000e+00 5.778880e-01 4.221120e-01
 0.000000e+00 0.000000e+00 0.000000e+00 0.000000e+00 0.000000e+00
<ENDHMM>
~h "z"
<BEGINHMM>
<NUMSTATES> 5
<STATE> 2
<MEAN> 39
 -1.152688e+01 3.697181e+00 4.005064e+00 -5.677253e+00 3.961878e+00 -5.404685e+00 -1.204867e+01 -1.259443e+01 -8.440460e+00 -4.976151e+00 -5.040220e-01 -4.321347e+00 7.706233e+01 -3.121118e+00 2.419021e+00 1.679641e+00 -7.537516e-01 1.561699e+00 1.291247e+00 3.995080e-02 6.104684e-01 8.190289e-01 -1.489505e-01 2.676276e-01 -6.829960e-01 -2.335929e-01 -1.681509e-01 -3.742286e-01 4.733912e-02 -5.050603e-02 -3.435737e-01 -1.962593e-01 3.899145e-01 1.947638e-01 4.704637e-01 1.815883e-01 -9.214338e-02 2.728254e-01 1.159202e-01
<VARIANCE> 39
 3.687436e+01 4.389986e+01 5.062038e+01 4.310148e+01 3.724185e+01 7.767511e+01 5.509507e+01 4.298469e+01 4.389831e+01 4.757168e+01 5.723378e+01 4.447138e+01 2.390912e+01 2.421104e+00 3.633694e+00 3.017041e+00 2.783810e+00 3.323579e+00 3.131220e+00 3.993341e+00 3.571599e+00 4.694983e+00 2.540153e+00 3.149399e+00 3.064821e+00 5.893837e-01 4.998868e-01 5.589350e-01 3.633102e-01 3.130811e-01 4.001609e-01 4.109131e-01 3.683708e-01 5.964994e-01 5.355558e-01 4.368053e-01 5.525470e-01 4.111395e-01 7.228660e-02
<GCONST> 1.223433e+02
<STATE> 3
<MEAN> 39
 -2.257824e+01 7.013582e+00 1.082749e+01 -6.264002e+00 7.355124e+00 -1.837733e+00 -8.555033e+00 -9.333831e+00 -2.489935e+00 -4.476641e+00 -7.658789e-01 -4.104165e+00 7.718681e+01 -5.797757e-01 -4.528688e-01 4.007421e-01 2.233798e-01 3.942554e-03 -1.299192e-01 2.303552e-01 5.240892e-02 3.351001e-01 2.480752e-02 -2.662279e-02 -4.330750e-03 9.239359e-02 1.079844e+00 -6.429474e-01 -4.332645e-01 3.174933e-01 -4.216355e-01 -4.300524e-01 -2.211067e-01 -2.939978e-01 -4.037037e-01 -3.391070e-02 -6.486628e-02 3.456112e-02 5.886054e-02
<VARIANCE> 39
 2.870191e+01 6.481777e+01 5.306525e+01 3.960713e+01 4.070312e+01 6.719142e+01 9.601765e+01 4.509049e+01 4.624126e+01 4.203630e+01 4.173560e+01 2.885698e+01 1.903780e+01 4.363808e+00 1.714450e+00 1.991020e+00 1.719324e+00 1.482407e+00 2.185109e+00 2.691301e+00 3.062685e+00 2.713956e+00 1.857092e+00 2.032506e+00 1.605840e+00 2.579389e-01 4.651305e-01 4.800147e-01 3.790535e-01 3.013453e-01 3.465039e-01 3.975640e-01 5.397881e-01 5.031973e-01 5.133199e-01 3.389087e-01 4.044048e-01 3.132840e-01 5.596430e-02
<GCONST> 1.150764e+02
<STATE> 4
<MEAN> 39
 -1.434916e+01 1.228072e+00 6.954255e+00 -3.981228e+00 4.386677e+00 -6.420022e+00 -1.079061e+01 -1.236059e+01 -6.136284e+00 -4.333215e+00 -2.887214e-01 -4.641856e+00 7.800426e+01 3.639717e+00 -2.283789e+00 -1.629554e+00 8.575110e-01 -1.743161e+00 -1.780297e+00 -3.941962e-01 -6.720769e-01 -7.112690e-01 3.869715e-01 -1.991691e-01 3.749213e-01 3.605829e-01 1.061161e-01 -1.124732e-01 -2.055625e-01 -7.311579e-02 -2.971790e-01 -3.817626e-02 3.075529e-01 2.911784e-01 2.592578e-01 1.534463e-01 -1.178088e-01 1.641190e-01 1.551795e-02
<VARIANCE> 39
 5.317300e+01 4.628781e+01 5.016096e+01 3.957586e+01 3.615886e+01 6.629344e+01 7.455714e+01 5.364851e+01 4.764526e+01 4.420883e+01 4.388622e+01 2.638863e+01 1.945381e+01 4.154996e+00 3.783955e+00 3.527827e+00 3.265296e+00 3.213181e+00 4.259942e+00 4.839084e+00 4.288308e+00 5.755647e+00 3.491214e+00 3.476333e+00 2.100862e+00 6.937506e-01 9.005916e-01 4.784186e-01 4.911525e-01 3.157065e-01 3.806739e-01 5.609069e-01 5.441535e-01 7.373496e-01 7.065822e-01 4.480266e-01 4.657516e-01 3.587657e-01 7.012589e-02
<GCONST> 1.255417e+02
<TRANSP> 5
 0.000000e+00 1.000000e+00 0.000000e+00 0.000000e+00 0.000000e+00
 0.000000e+00 6.497624e-01 3.502376e-01 0.000000e+00 0.000000e+00
